{
    "input_shape": [
        28,
        28,
        1
    ],
    "layer1": {
        "activation": 0,
        "bias": [
            -0.0008803545497357845,
            0.0006559757748618722,
            -0.0013471349375322461,
            -0.00047296963748522103,
            -0.00793000590056181,
            -0.005272636190056801
        ],
        "kernel": [
            0.6790139675140381,
            -0.2073640674352646,
            0.567937433719635,
            0.5959048271179199,
            0.8195546269416809,
            -0.6055902242660522,
            -0.33086535334587097,
            0.5340027213096619,
            -0.4468778669834137,
            0.1030372902750969,
            -0.055057626217603683,
            0.24805472791194916,
            -0.2777874767780304,
            0.020143358036875725,
            0.8971522450447083,
            0.818906843662262,
            0.2587206959724426,
            0.425662636756897,
            -0.7262097001075745,
            0.2076711654663086,
            -0.9783897399902344,
            -0.522579550743103,
            -0.7348286509513855,
            0.5990224480628967,
            -0.6900571584701538,
            -0.196255624294281,
            -0.7356141209602356,
            -0.7738364338874817,
            1.004930019378662,
            -0.5540125370025635,
            0.03872492536902428,
            0.6902397871017456,
            0.23683416843414307,
            -0.39829176664352417,
            0.2827611565589905,
            0.060964372009038925,
            -0.0034888454247266054,
            0.9549224972724915,
            -0.4069168269634247,
            0.5467527508735657,
            0.06164029985666275,
            0.5465309023857117,
            -0.19363871216773987,
            0.7879310846328735,
            -0.4294493794441223,
            -0.2905764579772949,
            0.618539571762085,
            0.840097188949585,
            -0.8588321805000305,
            0.8994144201278687,
            0.03823535889387131,
            -0.8479901552200317,
            -0.6391091346740723,
            0.31015899777412415,
            0.7723380327224731,
            -0.3128582835197449,
            -0.8897753953933716,
            -0.9785841107368469,
            -0.09635546803474426,
            -0.8757801651954651,
            -0.5338318943977356,
            0.9231055974960327,
            0.7874793410301208,
            0.6905472874641418,
            -0.46895933151245117,
            0.07674361020326614,
            -0.25690576434135437,
            0.5105413198471069,
            0.01665191724896431,
            0.33559587597846985,
            0.06893564760684967,
            -0.9143351316452026,
            -0.12262073904275894,
            0.861871063709259,
            0.8627681732177734,
            0.44603484869003296,
            -0.4242250621318817,
            0.4919668138027191,
            0.2994818091392517,
            -0.2736676335334778,
            0.37844571471214294,
            -0.6621291041374207,
            -0.10147345811128616,
            0.7779526710510254,
            0.67105633020401,
            -0.3462781310081482,
            -0.5427180528640747,
            0.7959840297698975,
            -0.2857782542705536,
            0.3864549696445465,
            0.8978459239006042,
            0.17130205035209656,
            0.3218477666378021,
            0.7341362833976746,
            -0.10201378166675568,
            0.8308097124099731,
            -0.21008603274822235,
            0.6391466856002808,
            0.39474818110466003,
            0.8468515872955322,
            -0.03831016272306442,
            -0.5758154392242432,
            0.8857152462005615,
            0.8285570740699768,
            -0.7062708735466003,
            0.7510022521018982,
            0.26895609498023987,
            -0.1547892540693283,
            0.22338782250881195,
            -0.44088104367256165,
            0.5572801232337952,
            -0.3992607891559601,
            -0.12476778030395508,
            -0.5632733106613159,
            -0.6327607035636902,
            -0.4616287648677826,
            0.09837557375431061,
            -0.18700715899467468,
            -0.6764543056488037,
            0.8036619424819946,
            -0.802213191986084,
            -0.7560956478118896,
            -0.021757008507847786,
            0.5100712180137634,
            0.9589306116104126,
            0.8558494448661804,
            0.35684287548065186,
            -0.2402157485485077,
            0.49865779280662537,
            -0.2514062225818634,
            -0.42282846570014954,
            -0.5440216660499573,
            0.16186876595020294,
            -0.5112494230270386,
            -0.6855536103248596,
            0.45878347754478455,
            -0.7537673115730286,
            0.5799689292907715,
            -0.6713206171989441,
            0.49810469150543213,
            -0.85302734375,
            0.8974974751472473,
            -0.9001514911651611,
            0.04393375292420387,
            -0.6410090327262878,
            -0.5226659774780273,
            0.5929014086723328,
            0.4649617075920105,
            0.312907874584198,
            0.9360752105712891
        ],
        "kernel_col": 6,
        "kernel_row": 25,
        "kernel_shape": [
            5,
            5,
            1,
            6,
            1,
            1
        ],
        "layer_type": "Conv",
        "pad_shape": [
            2,
            2
        ]
    },
    "layer2": {
        "layer_type": "Pooling",
        "pooling_shape": [
            2,
            2,
            2,
            2
        ]
    },
    "layer3": {
        "activation": 0,
        "bias": [
            -0.0014047912554815412,
            0.006433179602026939,
            -0.0010421882616356015,
            0.008776957169175148,
            -0.003188848262652755,
            0.0003109611279796809,
            -0.0053217168897390366,
            -0.0011294165160506964,
            0.003386005060747266,
            0.013756871223449707,
            -0.0025521551724523306,
            -0.0035926904529333115,
            0.01207740604877472,
            -0.005905577447265387,
            0.0006264036637730896,
            -0.004907017573714256
        ],
        "kernel": [
            0.27055951952934265,
            0.5040116906166077,
            -0.8350722193717957,
            -0.7515640258789063,
            0.03162698447704315,
            -0.8504758477210999,
            -0.8637689352035522,
            -0.587882936000824,
            -0.06653058528900146,
            0.6536867022514343,
            0.14480794966220856,
            0.5176915526390076,
            -0.8823701739311218,
            -0.6725715398788452,
            1.0051672458648682,
            -0.591883659362793,
            0.7768127918243408,
            -0.7480619549751282,
            0.9938486218452454,
            -0.8960511684417725,
            0.7347490191459656,
            -0.8649516701698303,
            -1.0002777576446533,
            0.8385760188102722,
            0.18063271045684814,
            -0.651650071144104,
            -0.6796744465827942,
            -0.21430592238903046,
            0.8296540379524231,
            0.6481342315673828,
            -0.29191505908966064,
            0.10146760940551758,
            0.15938211977481842,
            -0.0907101035118103,
            0.37922799587249756,
            -0.8077178597450256,
            0.05383516475558281,
            0.5051085352897644,
            -0.398206502199173,
            0.9788519144058228,
            0.14681777358055115,
            0.7442502379417419,
            0.48271137475967407,
            0.24827256798744202,
            -0.9327751398086548,
            0.48458370566368103,
            0.6535465717315674,
            0.8396731615066528,
            0.7415242195129395,
            0.6615132093429565,
            0.9498737454414368,
            0.4907824695110321,
            0.8131271600723267,
            0.970380425453186,
            0.34604308009147644,
            -0.017719371244311333,
            -0.6767827868461609,
            0.6569671630859375,
            0.7768599390983582,
            -0.8450389504432678,
            0.2941867709159851,
            -0.5140402317047119,
            0.24786168336868286,
            -0.5484248399734497,
            0.3914991319179535,
            -0.3720863461494446,
            -0.3537052571773529,
            -0.5455806255340576,
            -0.8556275367736816,
            0.2615765631198883,
            -0.5606153011322021,
            0.29441189765930176,
            0.019765693694353104,
            0.9442160725593567,
            -0.4391885995864868,
            0.08148936182260513,
            0.43447014689445496,
            -0.7713454961776733,
            -0.05174357816576958,
            0.19432175159454346,
            0.8788740038871765,
            -0.10062430799007416,
            -0.32755962014198303,
            0.6961979269981384,
            -0.12812747061252594,
            -1.0017071962356567,
            -0.3183923065662384,
            0.18958833813667297,
            0.6593586802482605,
            -0.5375845432281494,
            0.3409504294395447,
            -0.046047016978263855,
            -0.04761908948421478,
            -0.39803749322891235,
            0.42014604806900024,
            -0.6483778953552246,
            0.22861972451210022,
            -0.9294865131378174,
            -0.17677751183509827,
            0.39072415232658386,
            0.3407711088657379,
            0.27425289154052734,
            -0.3006492555141449,
            -0.6343598961830139,
            0.2010875642299652,
            0.24354027211666107,
            0.45097002387046814,
            -0.34989577531814575,
            0.47313880920410156,
            -0.59446120262146,
            0.8299647569656372,
            0.3563656508922577,
            0.30837130546569824,
            -0.4748508930206299,
            0.06710486114025116,
            -0.8310492634773254,
            -0.4800547957420349,
            0.7555720806121826,
            0.36624786257743835,
            -0.8212099671363831,
            -0.7743039727210999,
            -0.2778832018375397,
            0.14787329733371735,
            0.17858567833900452,
            0.32529357075691223,
            -0.4235716462135315,
            0.558988094329834,
            -0.4090140163898468,
            -0.3262878656387329,
            -0.6165703535079956,
            0.9669721722602844,
            -0.9986298084259033,
            0.6465295553207397,
            -0.3434101939201355,
            -0.6343318819999695,
            -0.13200032711029053,
            0.9064838886260986,
            0.8273657560348511,
            0.5299574136734009,
            0.40103498101234436,
            -0.7643300890922546,
            0.3674238920211792,
            -0.23218446969985962,
            0.5478793978691101,
            0.8856208920478821,
            0.8265539407730103,
            0.7271689176559448,
            -0.5937070250511169,
            0.5832786560058594,
            0.09681326150894165,
            -0.4092238247394562,
            0.8010351657867432,
            0.8143006563186646,
            0.7440661191940308,
            -0.005424069240689278,
            0.15361863374710083,
            -0.6810641288757324,
            -0.4524470567703247,
            0.733634352684021,
            -0.00950842909514904,
            -0.07678035646677017,
            0.6969806551933289,
            -0.003750074654817581,
            -0.4135396480560303,
            -0.6399797201156616,
            0.36805927753448486,
            0.4661807417869568,
            -0.7102956771850586,
            0.2071707397699356,
            -0.02356616221368313,
            0.683349609375,
            0.46743637323379517,
            -0.6218439340591431,
            -0.5449932813644409,
            0.004471797961741686,
            -0.7566248178482056,
            -0.7251719236373901,
            -0.27953892946243286,
            -0.3420124650001526,
            0.8765736222267151,
            0.8131251931190491,
            0.24469098448753357,
            0.6794314980506897,
            0.6476056575775146,
            -0.0019724746234714985,
            -0.3334696590900421,
            -0.20270156860351563,
            0.334625244140625,
            0.23714956641197205,
            -0.4798002541065216,
            -0.6848341226577759,
            -0.8366948366165161,
            -0.7626051306724548,
            0.3137545883655548,
            -0.26120492815971375,
            -0.41012129187583923,
            -0.3275465965270996,
            -0.8056313395500183,
            -0.1333816647529602,
            0.8816830515861511,
            0.16214825212955475,
            -0.47154369950294495,
            0.32714930176734924,
            0.5370537042617798,
            -0.013927116990089417,
            -0.6915279030799866,
            0.7681690454483032,
            0.260111927986145,
            0.04255241900682449,
            -0.595773458480835,
            0.12229418009519577,
            -0.12852102518081665,
            0.685723066329956,
            -0.20023638010025024,
            -0.5154018402099609,
            -0.335066020488739,
            0.4691755473613739,
            0.29595747590065,
            0.9686733484268188,
            -0.32181471586227417,
            0.7976968288421631,
            -0.7213318943977356,
            -0.16841956973075867,
            -0.9998062252998352,
            0.5696933269500732,
            0.5470631122589111,
            -0.41838741302490234,
            -0.7710115909576416,
            0.7359417676925659,
            0.4473813772201538,
            -0.9053323864936829,
            -0.1028929054737091,
            0.9806153178215027,
            0.4262130558490753,
            -0.573327898979187,
            -0.05222518742084503,
            0.7401366829872131,
            -0.7952532768249512,
            -0.7846280932426453,
            -0.22917106747627258,
            -0.3870684802532196,
            0.330743670463562,
            0.6372866034507751,
            -0.7232284545898438,
            -0.8858346939086914,
            -0.8816949725151062,
            -0.07217074185609818,
            0.5782701373100281,
            0.3958965241909027,
            -0.10342420637607574,
            -0.7677369117736816,
            0.1797742396593094,
            0.16928282380104065,
            0.06170414015650749,
            0.1749916672706604,
            -0.2677633762359619,
            -0.3724784255027771,
            0.7877935171127319,
            -0.04681507125496864,
            -0.6549369692802429,
            0.21904772520065308,
            0.05572136491537094,
            0.2408047765493393,
            0.19997432827949524,
            -0.5242516398429871,
            0.6498952507972717,
            -0.8600271344184875,
            -0.7898656725883484,
            0.86081862449646,
            -0.6538366675376892,
            -0.03548603877425194,
            -0.5329477190971375,
            0.67048579454422,
            -0.40966087579727173,
            -0.2815103828907013,
            0.7500590682029724,
            -0.313029944896698,
            0.6328123807907104,
            0.31845569610595703,
            -0.9367786645889282,
            -0.4831925928592682,
            0.571652352809906,
            0.2653277516365051,
            0.6705446839332581,
            -0.3864845037460327,
            -0.5507175922393799,
            -0.5900297164916992,
            0.23116619884967804,
            -0.7734283208847046,
            0.36128002405166626,
            0.5559426546096802,
            0.4315505921840668,
            -0.5996693968772888,
            -0.18899749219417572,
            -0.35911527276039124,
            -0.13711194694042206,
            -0.542059600353241,
            -0.22315281629562378,
            0.07828103750944138,
            -0.6849570274353027,
            0.1004561260342598,
            -0.9768281579017639,
            -0.2357981950044632,
            -0.23711618781089783,
            -0.3958265781402588,
            0.4703831374645233,
            -0.4841441512107849,
            0.30250054597854614,
            0.10867724567651749,
            0.8416427969932556,
            0.37490856647491455,
            0.6220953464508057,
            0.4062691628932953,
            -0.3649170398712158,
            0.30393892526626587,
            -0.9757005572319031,
            0.07951321452856064,
            0.699273407459259,
            0.24179230630397797,
            0.28591039776802063,
            0.0439397357404232,
            -0.19525738060474396,
            -0.27654558420181274,
            0.428679496049881,
            0.594340443611145,
            0.35492679476737976,
            -0.693092942237854,
            -0.9304119348526001,
            -0.8638527393341064,
            0.38203632831573486,
            -0.6167280673980713,
            0.2468983232975006,
            0.40983346104621887,
            0.146159365773201,
            -0.9851170182228088,
            -0.9775840044021606,
            -0.37988993525505066,
            -0.47077658772468567,
            0.3179173469543457,
            0.7185558676719666,
            -0.6356774568557739,
            -0.3228470981121063,
            0.33081501722335815,
            0.7575334310531616,
            0.30041542649269104,
            -0.38580650091171265,
            0.7554952502250671,
            -0.635040819644928,
            -0.6859312057495117,
            0.0020130162592977285,
            0.6601077318191528,
            0.3565555810928345,
            0.8173539638519287,
            -0.6019788384437561,
            -0.2000093013048172,
            0.42104819416999817,
            0.7477226853370667,
            0.10811007022857666,
            0.48972612619400024,
            0.869339108467102,
            -0.5281556248664856,
            0.8596731424331665,
            0.10797291994094849,
            0.8660241365432739,
            -0.01748739555478096,
            0.09217792749404907,
            0.8700643181800842,
            0.5933828949928284,
            0.6184315085411072,
            0.17740504443645477,
            0.2961028218269348,
            0.983638346195221,
            0.8740058541297913,
            -0.3548074960708618,
            0.7383657693862915,
            0.17525653541088104,
            0.27387481927871704,
            0.5220690369606018,
            0.5593075156211853,
            0.5979727506637573,
            -0.4690781831741333,
            0.2139936089515686,
            -0.049073487520217896,
            -0.6539314985275269,
            0.5998455882072449,
            0.7363482713699341,
            0.7510261535644531,
            0.33260443806648254,
            -0.16834589838981628,
            0.224226713180542,
            0.19362780451774597,
            0.2880159914493561,
            0.07336025685071945,
            -0.7068693041801453,
            0.1519484668970108,
            -0.9475153088569641,
            0.3914211392402649,
            0.02988157421350479,
            0.6608938574790955,
            0.024993278086185455,
            -0.7747650742530823,
            -0.015071317553520203,
            0.02730298787355423,
            -0.8886711001396179,
            0.6339865922927856,
            -0.22946913540363312,
            0.2760530114173889,
            -0.09175174683332443,
            -0.7015333771705627,
            -0.1715826392173767,
            -0.5058187246322632,
            -0.1870793104171753,
            -0.9599159955978394,
            0.44030505418777466,
            0.15883219242095947,
            0.6178702712059021,
            0.16893865168094635,
            -0.09811773151159286,
            -0.03275168687105179,
            1.0015389919281006,
            -0.8906353712081909,
            -0.845075786113739,
            0.28649184107780457,
            0.1954880654811859,
            -0.5620836019515991,
            -0.5543597936630249,
            0.2666641175746918,
            0.8537020683288574,
            0.48692619800567627,
            -0.061307985335588455,
            -0.11332748830318451,
            0.710334062576294,
            0.9140828251838684,
            0.8996273875236511,
            0.7963557243347168,
            0.5322997570037842,
            -0.33844634890556335,
            0.07051033526659012,
            -0.5666026473045349,
            -0.04683873429894447,
            0.8896665573120117,
            -0.07491960376501083,
            0.7636169791221619,
            0.932468056678772,
            -0.625924289226532,
            -0.09096589684486389,
            0.5585439205169678,
            0.5369148850440979,
            0.8144464492797852,
            -0.47736895084381104,
            0.5155178308486938,
            0.9210010170936584,
            -0.32960572838783264,
            -0.18642692267894745,
            0.1259572058916092,
            0.11786612123250961,
            0.2556994557380676,
            -0.6003226041793823,
            -0.0392175130546093,
            -0.2868422269821167,
            0.31964799761772156,
            0.8470887541770935,
            -0.560731828212738,
            0.21956340968608856,
            0.7176421880722046,
            -0.768080472946167,
            -0.23686638474464417,
            -0.5813108086585999,
            0.3038928806781769,
            0.17413772642612457,
            0.3561668395996094,
            0.20510543882846832,
            -0.8624908328056335,
            0.13336461782455444,
            0.12141243368387222,
            -0.5036317110061646,
            -0.9470998644828796,
            -0.2960698902606964,
            -0.9672926664352417,
            0.8516438603401184,
            0.21867267787456512,
            0.5579763054847717,
            0.7901679873466492,
            0.8831993341445923,
            -0.6470578908920288,
            -0.08985982090234756,
            -0.011431952007114887,
            0.6052403450012207,
            0.2972012460231781,
            0.9370168447494507,
            -0.6849491000175476,
            -0.4077867865562439,
            0.777452826499939,
            -0.25234171748161316,
            0.8040468096733093,
            0.4965938925743103,
            -0.04245596006512642,
            -0.44219180941581726,
            0.904375433921814,
            -0.7469813227653503,
            0.745127260684967,
            0.25859254598617554,
            0.45543068647384644,
            0.8592276573181152,
            -0.6468914151191711,
            -0.4207857549190521,
            -0.6533506512641907,
            -0.5723846554756165,
            0.26713842153549194,
            -0.6632700562477112,
            -0.7339114546775818,
            -0.5365012288093567,
            0.9141131043434143,
            -0.9684397578239441,
            -0.6926320195198059,
            -0.7576642036437988,
            -0.06991711258888245,
            0.31526273488998413,
            0.8391771912574768,
            -0.8114388585090637,
            0.23264901340007782,
            -0.852780818939209,
            -0.20047348737716675,
            0.004544445313513279,
            -0.1280193030834198,
            -0.4012371897697449,
            -0.49851351976394653,
            0.8418747186660767,
            0.14581218361854553,
            -0.6183909177780151,
            -0.9153876304626465,
            -0.1212785616517067,
            0.6452655792236328,
            0.5219209790229797,
            -0.28754547238349915,
            1.0069347620010376,
            -0.9163386821746826,
            0.06481543928384781,
            -0.5820114612579346,
            0.3217747211456299,
            0.40236830711364746,
            -0.33576735854148865,
            0.7948334813117981,
            0.307377427816391,
            -0.31535112857818604,
            -0.8972931504249573,
            0.5425287485122681,
            0.6192353367805481,
            0.4094540774822235,
            0.3683316707611084,
            0.8186086416244507,
            -0.37417250871658325,
            0.5046741962432861,
            -0.4093509614467621,
            0.6064688563346863,
            -0.6132135987281799,
            0.1914522796869278,
            -0.8784183263778687,
            -0.7937920093536377,
            -0.6979731321334839,
            -0.49851641058921814,
            -0.706598162651062,
            0.19443470239639282,
            -0.889045774936676,
            0.7630554437637329,
            0.9020682573318481,
            -0.8694077730178833,
            0.8626550436019897,
            -0.05984685942530632,
            -0.485439658164978,
            0.18708869814872742,
            -0.6506468653678894,
            0.17904603481292725,
            -0.03224306181073189,
            0.6292053461074829,
            0.8636107444763184,
            0.06478339433670044,
            0.1712479591369629,
            0.45593973994255066,
            -0.5601887106895447,
            -0.4688626527786255,
            0.2781069576740265,
            0.08752594888210297,
            -0.958517849445343,
            0.8626866936683655,
            -0.3101835548877716,
            -0.5780751705169678,
            0.056893717497587204,
            -0.1947619616985321,
            -0.3907451331615448,
            0.35936152935028076,
            0.30231723189353943,
            -0.10313751548528671,
            -0.4524258077144623,
            0.4131094515323639,
            -0.32490238547325134,
            -0.5618290901184082,
            0.5169967412948608,
            -0.4777637720108032,
            0.38103219866752625,
            -0.9763281941413879,
            0.684408962726593,
            0.7033380270004272,
            0.2034500688314438,
            -0.3521714508533478,
            0.3264731764793396,
            0.048045624047517776,
            0.6936202645301819,
            -0.49869948625564575,
            -0.48049023747444153,
            -0.8541226387023926,
            0.026047423481941223,
            0.7791938185691833,
            0.22657503187656403,
            0.07001563906669617,
            0.6399665474891663,
            0.9127367734909058,
            0.4712347686290741,
            -0.30825021862983704,
            -0.2767240107059479,
            -0.9186698794364929,
            -0.9562807679176331,
            -0.9966654777526855,
            -0.029546575620770454,
            -0.4210400879383087,
            0.4081405699253082,
            0.6323122382164001,
            0.008293399587273598,
            -0.064651258289814,
            -0.8383806943893433,
            -0.6226682662963867,
            -0.03816960006952286,
            0.8448160290718079,
            -0.9107933044433594,
            -0.824830949306488,
            -0.5151451230049133,
            0.41887155175209045,
            0.22160737216472626,
            -0.812473714351654,
            0.926750659942627,
            0.7287488579750061,
            -0.6735516786575317,
            -0.048662543296813965,
            0.5135459303855896,
            0.5502257943153381,
            -0.9949907064437866,
            0.15116138756275177,
            0.4654484987258911,
            0.4795225262641907,
            0.8370484113693237,
            -0.8081644177436829,
            0.570532500743866,
            0.8929600119590759,
            -0.7874090671539307,
            -0.44275733828544617,
            -0.5225452184677124,
            0.6208678483963013,
            -0.811674177646637,
            0.49786677956581116,
            -0.4447006285190582,
            -0.6542536616325378,
            0.8756725788116455,
            0.5258266925811768,
            -0.7966445088386536,
            0.960777997970581,
            0.6855680346488953,
            -0.3192717134952545,
            0.383232444524765,
            -0.08755205571651459,
            -0.13905732333660126,
            0.30126437544822693,
            -0.35960638523101807,
            0.190649151802063,
            -0.7453223466873169,
            -0.841171383857727,
            -0.2522910237312317,
            -0.7335422039031982,
            0.31566566228866577,
            -0.7710605263710022,
            0.7674435377120972,
            0.15887312591075897,
            -0.5837501883506775,
            0.3338223397731781,
            0.06105171889066696,
            -0.3711385726928711,
            0.8826388120651245,
            0.5317570567131042,
            -0.7600136399269104,
            -0.9232919812202454,
            0.03001328930258751,
            -0.20620718598365784,
            -0.5828562378883362,
            -0.10044802725315094,
            -0.6801379919052124,
            -0.3896111845970154,
            -0.13691209256649017,
            -0.9972689151763916,
            0.2894796133041382,
            -0.7559240460395813,
            -0.08682093024253845,
            -0.8400526642799377,
            0.5522553324699402,
            0.5660515427589417,
            0.36933332681655884,
            0.8248597383499146,
            0.728238046169281,
            -0.8799773454666138,
            -0.9103321433067322,
            0.05495062470436096,
            -0.6410173177719116,
            0.8550563454627991,
            -0.7840357422828674,
            -0.22529488801956177,
            0.19962061941623688,
            0.28114157915115356,
            0.40312203764915466,
            0.07729989290237427,
            -0.18903236091136932,
            0.6416330933570862,
            0.15529054403305054,
            0.8337414860725403,
            -0.566120445728302,
            0.5666221976280212,
            -0.25447651743888855,
            -0.23190416395664215,
            -0.8096432089805603,
            0.6097357273101807,
            -0.23209144175052643,
            0.4900852143764496,
            0.869443953037262,
            0.6950179934501648,
            0.6571221947669983,
            0.42314982414245605,
            0.265473335981369,
            0.030795520171523094,
            0.24854765832424164,
            0.0016669993055984378,
            0.1505328118801117,
            0.3391798734664917,
            -0.9384191036224365,
            0.5211246013641357,
            0.1977328509092331,
            -0.7232102751731873,
            -0.7130110263824463,
            -0.609577476978302,
            0.5501993298530579,
            0.6769936084747314,
            0.4607759118080139,
            -0.6429329514503479,
            0.3327983319759369,
            -0.37524816393852234,
            -0.7861171364784241,
            0.7734215259552002,
            -0.7990447282791138,
            -0.038463614881038666,
            -0.4726071059703827,
            -0.6146178245544434,
            -0.4350898563861847,
            0.305347204208374,
            0.8822450041770935,
            -0.5635344386100769,
            0.011970040388405323,
            0.5521439909934998,
            0.8656158447265625,
            -0.7261239886283875,
            -0.40551409125328064,
            0.13035379350185394,
            0.2936779260635376,
            0.7489396929740906,
            -0.5343780517578125,
            0.35570028424263,
            0.26880866289138794,
            0.6730635762214661,
            0.6333833336830139,
            0.5546743273735046,
            -0.9569393396377563,
            0.1709759682416916,
            0.22848106920719147,
            0.5210458636283875,
            0.5401401519775391,
            -0.4381328821182251,
            -0.8473415970802307,
            0.7618162035942078,
            -0.6549849510192871,
            -0.6450990438461304,
            -0.2774788439273834,
            -0.10564620047807693,
            -0.23114149272441864,
            0.30191344022750854,
            -0.7944778800010681,
            -0.34416186809539795,
            0.7473313808441162,
            0.22637510299682617,
            -0.7849016189575195,
            0.6186715364456177,
            0.4980788230895996,
            -0.2003205120563507,
            -0.26364877820014954,
            -0.2119550108909607,
            -0.4512539803981781,
            0.19001394510269165,
            -0.8641217350959778,
            0.7963076233863831,
            -0.14511922001838684,
            0.7482768893241882,
            0.356382817029953,
            -0.06826859712600708,
            -0.049855686724185944,
            -0.4142736792564392,
            -0.553912878036499,
            -0.4975593686103821,
            0.16730661690235138,
            -0.3895677328109741,
            -0.7435076832771301,
            0.501506507396698,
            -0.03196977823972702,
            -0.01662108115851879,
            -0.6132168769836426,
            0.7209662199020386,
            -0.7286830544471741,
            -0.4135850965976715,
            -0.6254128813743591,
            -1.0016183853149414,
            0.7951338887214661,
            -0.41715800762176514,
            0.6057291626930237,
            0.2921101450920105,
            0.369129478931427,
            -0.6540385484695435,
            -0.9158252477645874,
            0.9130898118019104,
            0.549095094203949,
            -0.771633505821228,
            0.7227161526679993,
            -0.5876150131225586,
            0.9907763004302979,
            0.07814519107341766,
            0.3427116870880127,
            -0.0644100233912468,
            0.6598718166351318,
            0.7881309986114502,
            0.4303397536277771,
            -0.18248005211353302,
            -0.6054069399833679,
            0.6848177909851074,
            -0.6907776594161987,
            0.34900981187820435,
            -0.35181117057800293,
            -0.302899032831192,
            0.07237641513347626,
            -0.08808565139770508,
            0.2896852493286133,
            0.4446619153022766,
            -0.08146778494119644,
            0.07825227081775665,
            -0.9787322878837585,
            -0.45221927762031555,
            -0.6221721172332764,
            0.3784897029399872,
            -0.11510829627513885,
            -0.5288233160972595,
            0.304511696100235,
            -0.5618837475776672,
            -0.30530208349227905,
            0.024672197178006172,
            -0.14591015875339508,
            -0.30361253023147583,
            -0.8933122158050537,
            -0.8112155795097351,
            0.6185436844825745,
            0.7579461932182312,
            0.9786425828933716,
            0.04580611735582352,
            -0.4294533431529999,
            -0.6333327293395996,
            -0.28592565655708313,
            -0.11956948786973953,
            0.7121098637580872,
            0.36899060010910034,
            0.5670015811920166,
            -0.21733441948890686,
            -0.7045652270317078,
            -0.13570037484169006,
            -0.7905952334403992,
            0.20070691406726837,
            0.940936267375946,
            -0.7755113244056702,
            0.7392293214797974,
            -0.679412841796875,
            0.6044900417327881,
            -0.376893550157547,
            -0.20562322437763214,
            -0.08484015613794327,
            0.07004012912511826,
            0.4923829436302185,
            0.9338347315788269,
            0.919153094291687,
            -0.8204268217086792,
            -0.9578115344047546,
            -0.8957194685935974,
            0.8018869161605835,
            0.8014412522315979,
            -0.9187031388282776,
            -0.16124168038368225,
            -0.6321285963058472,
            -0.5617179274559021,
            0.5750288963317871,
            0.2688046395778656,
            -0.8346580266952515,
            -0.0729820504784584,
            -0.19153839349746704,
            -0.06084401533007622,
            0.22641339898109436,
            0.6827176213264465,
            0.12738941609859467,
            -0.5996893048286438,
            0.6155306696891785,
            0.3577839732170105,
            -0.854733407497406,
            0.9205821752548218,
            -0.061063166707754135,
            -0.23315057158470154,
            -0.28038761019706726,
            0.8539135456085205,
            0.8203353881835938,
            -0.8017644882202148,
            0.8082602620124817,
            0.7743999361991882,
            -0.5930737853050232,
            0.8579601049423218,
            0.8459917306900024,
            -0.8168825507164001,
            0.6609636545181274,
            0.9557867646217346,
            0.022940879687666893,
            -0.9985154867172241,
            -0.6251424551010132,
            -0.4195447862148285,
            0.26102790236473083,
            -0.47994983196258545,
            0.4862419068813324,
            -0.9380897879600525,
            0.44014304876327515,
            -0.3001297414302826,
            0.7343668341636658,
            -0.4428303837776184,
            0.09205342084169388,
            0.3461662828922272,
            0.9136890172958374,
            0.23777036368846893,
            0.27465230226516724,
            -0.11575949192047119,
            -0.9601991772651672,
            1.0056997537612915,
            -0.2740132510662079,
            0.8444812893867493,
            -0.7979434728622437,
            -0.4572235643863678,
            0.6049996614456177,
            -0.42944350838661194,
            -0.634631335735321,
            0.46675461530685425,
            -0.22656771540641785,
            -0.993071436882019,
            0.38085225224494934,
            0.7637660503387451,
            -0.9819325804710388,
            0.7790849208831787,
            -0.6555278897285461,
            0.2595609128475189,
            -0.720335841178894,
            0.8442588448524475,
            0.35216227173805237,
            0.7278635501861572,
            -0.45440584421157837,
            0.08740302920341492,
            -0.6812083721160889,
            0.6789444088935852,
            -0.5322421789169312,
            -0.7612749338150024,
            -0.10288611054420471,
            0.7312252521514893,
            0.11131557822227478,
            -0.06395420432090759,
            0.7163951396942139,
            0.8135923147201538,
            -0.22300131618976593,
            0.9260586500167847,
            -0.6458267569541931,
            -0.626404881477356,
            -0.5177468061447144,
            -0.28989270329475403,
            0.8340162634849548,
            0.2527373135089874,
            -0.27337127923965454,
            0.2186223417520523,
            0.02595512568950653,
            -0.24243706464767456,
            0.001184417400509119,
            0.3820996582508087,
            -0.9606404900550842,
            0.31568795442581177,
            0.24733074009418488,
            0.37570205330848694,
            0.03361033648252487,
            0.7862821221351624,
            -0.5224847793579102,
            0.3511309325695038,
            0.4519596993923187,
            -0.06266655027866364,
            0.5557296276092529,
            -0.6549652814865112,
            -0.33675336837768555,
            -0.32173141837120056,
            0.2734755277633667,
            -0.6457046270370483,
            -0.5066360831260681,
            -0.9442875385284424,
            -0.7295844554901123,
            -0.1732029765844345,
            -0.5684154033660889,
            -0.22430673241615295,
            0.5573175549507141,
            -0.7393113970756531,
            -0.9664239287376404,
            -0.7263674139976501,
            0.4993550181388855,
            0.0748840793967247,
            0.04968153312802315,
            -0.5131796002388,
            -0.5607959628105164,
            0.07161357253789902,
            0.7831727266311646,
            0.6842308640480042,
            -0.533814549446106,
            -0.1827246993780136,
            0.4608684480190277,
            -0.056258175522089005,
            -0.8097849488258362,
            -0.07121410220861435,
            0.8636630177497864,
            0.7446687817573547,
            0.26733383536338806,
            -0.4783547520637512,
            -0.5759217739105225,
            -0.43955323100090027,
            -0.09814354032278061,
            -0.08586608618497849,
            -0.38725271821022034,
            0.18666687607765198,
            0.7509628534317017,
            0.030294880270957947,
            0.9507049322128296,
            0.3184485137462616,
            0.29328927397727966,
            0.9671967625617981,
            0.5962618589401245,
            -0.21543553471565247,
            0.039051514118909836,
            -0.3521345555782318,
            0.27036648988723755,
            0.47594526410102844,
            0.7259612679481506,
            0.0695299431681633,
            0.17414245009422302,
            -0.8076136708259583,
            0.8922577500343323,
            -0.36026355624198914,
            0.14910118281841278,
            -0.9079370498657227,
            0.5635685324668884,
            0.02380719967186451,
            0.841045081615448,
            -0.14914780855178833,
            0.56727534532547,
            -0.7259811758995056,
            0.40997952222824097,
            -0.5363402366638184,
            0.19704154133796692,
            -0.9778743386268616,
            0.6371306777000427,
            -0.05794611945748329,
            0.039941877126693726,
            0.5785912275314331,
            -0.7420631051063538,
            -0.6683613657951355,
            0.5430130958557129,
            0.841417670249939,
            0.10851553827524185,
            -0.41531506180763245,
            -0.5065633058547974,
            -0.6282415986061096,
            -0.9448878765106201,
            -0.7781200408935547,
            0.4570210576057434,
            0.24018576741218567,
            -0.5859967470169067,
            0.35072624683380127,
            0.876886785030365,
            0.5814919471740723,
            0.4444039762020111,
            0.4478968381881714,
            -0.3878902792930603,
            0.29728904366493225,
            -0.6951348185539246,
            -0.8196142911911011,
            0.5577045679092407,
            0.7115412354469299,
            -0.35492050647735596,
            -0.2381625771522522,
            0.7240712642669678,
            -0.7322449684143066,
            0.7041500210762024,
            -0.21680578589439392,
            0.8695061206817627,
            0.9472801685333252,
            0.09936773777008057,
            0.41362515091896057,
            0.8207760453224182,
            -0.7640395164489746,
            -1.002017855644226,
            -0.7024178504943848,
            -0.38880982995033264,
            -0.933210015296936,
            -0.4623648226261139,
            -0.9318708181381226,
            0.29198136925697327,
            -0.04213973134756088,
            0.4296548664569855,
            0.17617225646972656,
            -0.4668123126029968,
            -0.1368560642004013,
            -0.37613385915756226,
            0.14371007680892944,
            -0.8394612669944763,
            -0.06917732954025269,
            0.3147634267807007,
            0.7221856713294983,
            -0.3484634757041931,
            0.9734917283058167,
            -0.5114321112632751,
            -0.6240628361701965,
            -0.7529582381248474,
            -0.7997646331787109,
            0.17354431748390198,
            -0.876952052116394,
            -0.843840479850769,
            -0.7210013270378113,
            0.5370808243751526,
            0.9826319813728333,
            -0.49159523844718933,
            0.5315948724746704,
            -0.7117117047309875,
            0.1361125409603119,
            0.6101009845733643,
            -0.18192070722579956,
            0.1949041336774826,
            -0.09836871922016144,
            0.7897829413414001,
            -0.3654230237007141,
            -0.9313619136810303,
            -0.681908905506134,
            0.4970822334289551,
            -0.29826200008392334,
            0.4689137935638428,
            0.6548046469688416,
            0.630588948726654,
            -0.21907906234264374,
            0.38551396131515503,
            -0.7043446898460388,
            -0.24156202375888824,
            0.8634728789329529,
            -0.3282136917114258,
            0.022388499230146408,
            -0.9200853705406189,
            0.8498591184616089,
            0.13670501112937927,
            -0.758240818977356,
            -0.8668445348739624,
            -0.31720203161239624,
            -0.7780165076255798,
            -0.35344961285591125,
            -0.7896098494529724,
            -0.48725470900535583,
            0.7844273447990417,
            0.8066424131393433,
            0.338072806596756,
            -0.02174489013850689,
            -0.2879336476325989,
            0.12113196402788162,
            0.6034145951271057,
            -0.21369673311710358,
            0.4262661039829254,
            0.09115418791770935,
            0.48215627670288086,
            -0.10365135967731476,
            -0.25787049531936646,
            0.10792098939418793,
            0.6763048768043518,
            -0.8664165139198303,
            0.41224464774131775,
            -0.5613111257553101,
            -0.9879260063171387,
            -0.904723048210144,
            0.4614237844944,
            -0.9067550897598267,
            0.9339559674263,
            -0.40458041429519653,
            -0.6606931090354919,
            -0.926173985004425,
            0.26784080266952515,
            -0.44119513034820557,
            -0.2781228721141815,
            0.4810643196105957,
            0.07967888563871384,
            -0.4981681704521179,
            0.2947079837322235,
            -0.5877570509910583,
            0.48007649183273315,
            -0.984001100063324,
            0.5332746505737305,
            0.0751403272151947,
            -0.21502457559108734,
            -0.033336836844682693,
            -0.8164913058280945,
            -0.7321438789367676,
            0.854245126247406,
            -0.08405057340860367,
            0.38253656029701233,
            0.5363951921463013,
            0.05748356506228447,
            -0.20810478925704956,
            0.9783269166946411,
            0.06565044075250626,
            -0.12240118533372879,
            0.4415236711502075,
            0.16306033730506897,
            -0.1839897185564041,
            -0.9723139405250549,
            0.5043076276779175,
            -0.10437452048063278,
            0.298024445772171,
            -0.9415389895439148,
            0.6098546385765076,
            -0.21950866281986237,
            0.14408160746097565,
            -0.8910067677497864,
            -0.9410343766212463,
            0.5430724024772644,
            0.5899172425270081,
            -0.9314211010932922,
            0.0726868063211441,
            -0.3440534174442291,
            -0.13792914152145386,
            -0.9631944894790649,
            -0.17056135833263397,
            0.12418004870414734,
            0.8921545743942261,
            0.7451978325843811,
            -0.48628905415534973,
            0.4390107989311218,
            -0.20154224336147308,
            0.2958402931690216,
            0.41345056891441345,
            0.8806811571121216,
            -0.8160215616226196,
            -0.15507696568965912,
            0.016767635941505432,
            -0.0034991195425391197,
            -0.1077905222773552,
            -0.47369298338890076,
            0.879237174987793,
            -0.8411152362823486,
            -0.40792426466941833,
            0.5146609544754028,
            -0.047567471861839294,
            0.7203089594841003,
            0.6096988916397095,
            0.01791924610733986,
            0.27002593874931335,
            0.19925300776958466,
            0.09132116287946701,
            -0.6504120826721191,
            0.8526365160942078,
            0.9511778354644775,
            -0.6041579246520996,
            -0.31755977869033813,
            0.07458823174238205,
            -0.7113558650016785,
            -0.5679105520248413,
            0.5913280248641968,
            0.7263786196708679,
            0.22328485548496246,
            -0.1149907186627388,
            0.14669892191886902,
            0.09812924265861511,
            0.06356333196163177,
            0.9804635047912598,
            -0.8866451978683472,
            -0.931127667427063,
            -0.12150511145591736,
            -0.3581579625606537,
            0.9444574117660522,
            0.04057670384645462,
            0.24013066291809082,
            0.44388347864151,
            0.983451783657074,
            -0.05088391900062561,
            0.07053694128990173,
            0.01434220653027296,
            -0.7770519852638245,
            -0.7470894455909729,
            -0.9061715602874756,
            -0.42716658115386963,
            -0.8946701288223267,
            -0.962905764579773,
            -0.041861265897750854,
            -0.2183055281639099,
            0.12077295780181885,
            0.25505930185317993,
            0.20592088997364044,
            -0.29680439829826355,
            -0.027154123410582542,
            -0.5675002932548523,
            0.5953350067138672,
            -0.8882353901863098,
            0.5283825993537903,
            -0.35013318061828613,
            -0.9084553122520447,
            0.6456100344657898,
            -0.2849498689174652,
            -0.03862965852022171,
            -0.7175127267837524,
            -0.335358202457428,
            1.0121644735336304,
            0.5144670009613037,
            -0.8932477831840515,
            0.9873191118240356,
            -0.5383653044700623,
            0.16074055433273315,
            -0.012030139565467834,
            -0.32396817207336426,
            0.4095262885093689,
            0.08306259661912918,
            0.2468348741531372,
            0.5011295676231384,
            0.12206801772117615,
            -0.7918717861175537,
            -0.7134329080581665,
            -0.7611077427864075,
            0.4556654393672943,
            0.4993852376937866,
            -0.05036162585020065,
            -0.5815839171409607,
            0.9103562235832214,
            -0.4637589156627655,
            -0.4515950381755829,
            0.4712218940258026,
            0.20154735445976257,
            -0.3662242889404297,
            0.09777459502220154,
            0.9010149836540222,
            0.6074273586273193,
            0.40771833062171936,
            -0.42729949951171875,
            0.5912539958953857,
            -0.10835863649845123,
            -0.33562421798706055,
            0.5876504182815552,
            0.3700723946094513,
            0.8240100741386414,
            -0.44295093417167664,
            -0.9704303741455078,
            0.2262510359287262,
            0.6494126319885254,
            0.2789313495159149,
            -0.26464012265205383,
            -0.21904256939888,
            0.5010975003242493,
            0.031216733157634735,
            0.002254428341984749,
            -0.05262202396988869,
            -0.4834420382976532,
            0.9600623846054077,
            0.3831970989704132,
            -0.5659237504005432,
            -0.5189192891120911,
            0.8909294009208679,
            0.8892054557800293,
            0.6669927835464478,
            -0.47185614705085754,
            -0.010110926814377308,
            0.5459118485450745,
            -0.8905454874038696,
            -0.636168360710144,
            -0.8970773816108704,
            0.6974831819534302,
            0.2568328082561493,
            -0.2411041557788849,
            0.25805243849754333,
            -0.38566264510154724,
            -0.4184193015098572,
            0.834656298160553,
            -0.3449942171573639,
            0.7976111173629761,
            0.47322022914886475,
            0.9181967973709106,
            -0.4884875416755676,
            -0.7613301277160645,
            0.408869206905365,
            0.5375798940658569,
            0.22048790752887726,
            -0.6716934442520142,
            -0.9651871919631958,
            0.16857653856277466,
            0.7078914642333984,
            -0.5420646667480469,
            0.6327699422836304,
            0.58994460105896,
            -0.6675382852554321,
            0.294880747795105,
            -0.9014730453491211,
            0.3166671693325043,
            -0.16869473457336426,
            -0.8021736145019531,
            0.6718733310699463,
            -0.062344130128622055,
            0.9043101668357849,
            -0.057865142822265625,
            0.6951010227203369,
            0.15195581316947937,
            0.5357066988945007,
            -0.7426056861877441,
            -0.013510736636817455,
            -0.8206124901771545,
            -0.9612843990325928,
            -0.5677765607833862,
            -0.9138374924659729,
            -0.4450029134750366,
            -0.34201595187187195,
            0.4829886257648468,
            -0.9358484745025635,
            0.8666713833808899,
            0.8106236457824707,
            -0.9090141654014587,
            0.03104407526552677,
            0.49245572090148926,
            -0.45827746391296387,
            -0.3421802818775177,
            0.0671185851097107,
            -0.1171862855553627,
            0.9442219734191895,
            0.17329996824264526,
            -0.8008650541305542,
            -0.24159269034862518,
            0.36334356665611267,
            0.8533147573471069,
            0.7028289437294006,
            0.2627869248390198,
            -0.21703174710273743,
            0.37041327357292175,
            -0.6181012392044067,
            -0.692644476890564,
            0.6281830668449402,
            0.379961222410202,
            -0.5435225963592529,
            0.6405240893363953,
            0.7879448533058167,
            -0.4524097144603729,
            -0.8075135946273804,
            -0.562630295753479,
            -0.9800413250923157,
            -0.7613447308540344,
            -0.7125516533851624,
            0.8115813732147217,
            -0.6718569993972778,
            0.3211224675178528,
            0.30820417404174805,
            -0.1270795464515686,
            0.9843239784240723,
            -0.6321418881416321,
            0.7254277467727661,
            0.9017242193222046,
            0.529966413974762,
            0.9201593399047852,
            -0.3224566578865051,
            -0.12026340514421463,
            0.7577823996543884,
            -0.6378525495529175,
            -0.8662946224212646,
            -0.4709967374801636,
            0.7289729714393616,
            -0.4852917790412903,
            -0.17209619283676147,
            0.3422013819217682,
            0.8693796396255493,
            0.30652520060539246,
            -0.013201886788010597,
            0.6519191861152649,
            0.8312358260154724,
            0.17528900504112244,
            -0.8971974849700928,
            0.8415637016296387,
            0.3947852849960327,
            -0.622683048248291,
            0.6502378582954407,
            0.7180988788604736,
            0.6871853470802307,
            -0.06762096285820007,
            -0.4287739098072052,
            0.6528279781341553,
            0.2913898825645447,
            -0.7071352601051331,
            0.5643380284309387,
            -0.1796230524778366,
            -0.7989124059677124,
            -0.766028881072998,
            0.6930496692657471,
            0.9718871712684631,
            -0.4018559157848358,
            0.820433497428894,
            -0.48916223645210266,
            -0.6814985871315002,
            -0.6734962463378906,
            0.33655792474746704,
            0.6518628597259521,
            -0.8025404810905457,
            -0.3710468113422394,
            -0.3751400113105774,
            0.8542860150337219,
            -0.5470229387283325,
            0.7820841073989868,
            0.942374587059021,
            -0.6966601610183716,
            0.19032827019691467,
            -0.6791520714759827,
            0.9529380202293396,
            -0.0827435627579689,
            -0.9692193865776062,
            -0.10331813246011734,
            0.4893014132976532,
            0.7007097005844116,
            -0.8031690120697021,
            0.7821468710899353,
            0.26144611835479736,
            0.02495126612484455,
            1.0037602186203003,
            0.49692198634147644,
            -0.2882457971572876,
            0.9674465656280518,
            -0.9248009324073792,
            -0.4852317273616791,
            -0.5437610149383545,
            -0.6046691536903381,
            -0.14359909296035767,
            0.801706850528717,
            -0.939918041229248,
            0.05658495053648949,
            -0.5507723093032837,
            -0.2980029284954071,
            -0.07478136569261551,
            -0.0764206126332283,
            -0.5061748623847961,
            -0.12837055325508118,
            0.22367645800113678,
            0.6880094408988953,
            0.20403482019901276,
            0.16868828237056732,
            -0.4105599522590637,
            0.2312072068452835,
            -0.9184597134590149,
            -0.9256336092948914,
            -0.07683416455984116,
            -0.7291649580001831,
            0.8585776686668396,
            -0.8122852444648743,
            0.27772971987724304,
            0.84861820936203,
            0.674623429775238,
            0.9872965216636658,
            0.8095493316650391,
            0.7642430663108826,
            -0.48733752965927124,
            -0.7164388298988342,
            -0.8215848207473755,
            0.36839109659194946,
            -0.9015142321586609,
            -0.7572051286697388,
            -0.5659986734390259,
            -0.45550766587257385,
            -0.059761665761470795,
            0.3621407151222229,
            0.4563996195793152,
            0.42082399129867554,
            -0.7721543908119202,
            -0.3116832375526428,
            0.10679671168327332,
            0.4347645938396454,
            0.8592993021011353,
            0.6968922019004822,
            -0.34176793694496155,
            0.9263591766357422,
            0.7747243642807007,
            0.5928255319595337,
            -0.8090091943740845,
            0.6362636685371399,
            0.7821276187896729,
            0.46093279123306274,
            0.4743187725543976,
            0.4450986087322235,
            0.4636729955673218,
            0.2878411114215851,
            0.21394851803779602,
            0.9749764800071716,
            0.5925634503364563,
            0.3948196470737457,
            0.33906006813049316,
            0.6855729222297668,
            0.6519457697868347,
            0.8031402826309204,
            -0.7678866982460022,
            -0.42165330052375793,
            0.15471303462982178,
            0.7043203115463257,
            -0.9941704869270325,
            0.35871684551239014,
            -0.6337534189224243,
            0.11201028525829315,
            -0.18370606005191803,
            -0.7670782208442688,
            -0.2038949728012085,
            0.4838498830795288,
            -0.8350675106048584,
            -0.4246401786804199,
            0.0509500615298748,
            -0.6421860456466675,
            -0.7989699840545654,
            -0.17472897469997406,
            0.8033992648124695,
            0.6785913109779358,
            -0.7111663222312927,
            0.2637697160243988,
            -0.01915319636464119,
            0.513464093208313,
            0.25437453389167786,
            -0.42519980669021606,
            -0.08397668600082397,
            -0.38126882910728455,
            -0.7080878019332886,
            -0.4115183353424072,
            -0.6064652800559998,
            -0.4929184317588806,
            0.1479564905166626,
            0.5446184873580933,
            -0.8018480539321899,
            0.1632336974143982,
            -0.07165257632732391,
            -0.4239153265953064,
            -0.729407012462616,
            0.7205281853675842,
            -0.19511209428310394,
            0.0763108879327774,
            0.20311619341373444,
            -0.05728016421198845,
            0.6226211190223694,
            -0.7422063946723938,
            0.2941005527973175,
            0.8365808129310608,
            0.0808396264910698,
            0.09059996902942657,
            0.5181507468223572,
            0.3801729679107666,
            -0.6214528679847717,
            -0.4884633421897888,
            -0.1047595888376236,
            0.6298491358757019,
            0.10981228202581406,
            0.8373420834541321,
            -0.7493958473205566,
            0.3739742934703827,
            -0.6131393909454346,
            -0.3560132384300232,
            0.8922846913337708,
            0.5442723035812378,
            -0.8241453170776367,
            -0.923069417476654,
            -0.3005956709384918,
            0.10491042584180832,
            -0.34607452154159546,
            -0.03870921581983566,
            -0.17743122577667236,
            0.45290935039520264,
            -0.9659168720245361,
            -0.9606806635856628,
            -0.5891895890235901,
            0.6638925671577454,
            -0.7121444344520569,
            0.7012434601783752,
            0.5242143869400024,
            0.39793869853019714,
            -0.19256502389907837,
            0.05277581140398979,
            -0.22053062915802002,
            0.1786528080701828,
            0.5417630076408386,
            0.6586121916770935,
            -0.1884155124425888,
            -0.35167568922042847,
            0.4772682785987854,
            0.04139957204461098,
            -0.9800323843955994,
            0.8727083802223206,
            0.6870017647743225,
            0.9069488048553467,
            0.41805052757263184,
            0.8709797859191895,
            -0.9922980070114136,
            -0.8660505414009094,
            -0.005946238990873098,
            -0.3285137712955475,
            0.08744020015001297,
            0.824780285358429,
            -0.8631890416145325,
            0.1430516093969345,
            0.867605447769165,
            -0.46406400203704834,
            -0.17932184040546417,
            -0.8320580124855042,
            -0.7580822110176086,
            -0.6828798055648804,
            0.5403889417648315,
            0.04012812674045563,
            0.3611207902431488,
            -0.6927496194839478,
            -0.7942759990692139,
            -0.09409234672784805,
            0.9730018377304077,
            0.026477761566638947,
            0.5597282648086548,
            0.45635777711868286,
            -0.9263753890991211,
            0.5913933515548706,
            0.34402933716773987,
            0.7792125940322876,
            0.5186222195625305,
            -0.24048900604248047,
            0.6542692184448242,
            0.5252477526664734,
            -0.09687168151140213,
            -0.3416748344898224,
            -0.8068356513977051,
            0.9988527297973633,
            -0.5249176621437073,
            -0.6914414763450623,
            0.12449299544095993,
            -0.6665288805961609,
            -0.15110908448696136,
            0.9336063861846924,
            -0.5107657313346863,
            0.0838264599442482,
            -0.7378377914428711,
            -0.9579670429229736,
            -0.8663755059242249,
            0.6238929629325867,
            -0.6556751132011414,
            -0.6649640202522278,
            -0.45310133695602417,
            -0.6597579717636108,
            0.3697403073310852,
            -0.908137321472168,
            0.7818745970726013,
            0.4605260491371155,
            0.7100222110748291,
            0.12316673249006271,
            0.21719105541706085,
            0.21637146174907684,
            0.905648946762085,
            -0.10757245123386383,
            -0.26916730403900146,
            -0.2102949172258377,
            0.5312747359275818,
            -0.08306717127561569,
            -0.2114274948835373,
            -0.9921225309371948,
            0.2369329184293747,
            0.9162521362304688,
            -0.6537265181541443,
            -0.9068074822425842,
            0.8744625449180603,
            -0.14103522896766663,
            0.16839270293712616,
            -0.8648933172225952,
            -0.09566483646631241,
            0.3234442472457886,
            0.7699325084686279,
            0.23462125658988953,
            0.6430260539054871,
            -0.6970279812812805,
            0.5733833909034729,
            0.008615109138190746,
            -0.5886400938034058,
            0.3681846857070923,
            -0.5237144231796265,
            -0.9022510647773743,
            -0.5095030665397644,
            0.7167251110076904,
            0.3301905691623688,
            -0.6006413698196411,
            -0.41301706433296204,
            -0.9540642499923706,
            0.2147117257118225,
            -0.8519981503486633,
            -0.022711534053087234,
            0.9707817435264587,
            -0.8693755865097046,
            -0.7589672803878784,
            0.931921124458313,
            -0.49700504541397095,
            -0.7004706859588623,
            0.770704448223114,
            0.37295547127723694,
            0.514354407787323,
            0.9290942549705505,
            -0.7472620606422424,
            -0.19226329028606415,
            0.7000166177749634,
            0.5148658156394958,
            -0.535057544708252,
            0.9811015129089355,
            0.0473606213927269,
            0.48296698927879333,
            -0.6013188362121582,
            -0.5724219083786011,
            0.9285771250724792,
            -0.5406907796859741,
            -0.08612921088933945,
            0.6470451951026917,
            0.8092224597930908,
            0.294654905796051,
            -0.792446494102478,
            0.844680905342102,
            -0.502428412437439,
            -0.6309231519699097,
            -0.1644211858510971,
            -0.517617404460907,
            -0.5010313987731934,
            0.060715802013874054,
            -0.5845320820808411,
            0.02241809107363224,
            0.37049517035484314,
            -0.8036174178123474,
            -0.62093186378479,
            -0.14791645109653473,
            -0.9223618507385254,
            -0.39645111560821533,
            0.6784773468971252,
            0.794319212436676,
            -0.8994821310043335,
            -0.9166693091392517,
            0.7395355701446533,
            0.1773066222667694,
            0.591120719909668,
            -0.8564990162849426,
            0.5651752948760986,
            0.5007414817810059,
            -0.377776563167572,
            -0.495723158121109,
            0.1398492306470871,
            -0.5990750193595886,
            0.7768694162368774,
            0.367320716381073,
            -0.7275534868240356,
            -0.7384263873100281,
            0.698925256729126,
            0.07109493017196655,
            -0.2642771303653717,
            -0.7912509441375732,
            -0.889464795589447,
            0.10612258315086365,
            0.1835167407989502,
            0.47131481766700745,
            0.2936875820159912,
            0.5638522505760193,
            -0.693593442440033,
            0.35668841004371643,
            -0.8203794956207275,
            0.9779415726661682,
            0.15816730260849,
            -0.722618579864502,
            -0.9371840357780457,
            -0.08940426260232925,
            0.4539034962654114,
            0.6510388255119324,
            0.049939610064029694,
            0.02048470824956894,
            0.14257074892520905,
            0.664507269859314,
            0.5128365159034729,
            -0.7139902710914612,
            -0.9419065713882446,
            0.2623985707759857,
            0.6113561987876892,
            -0.7250789999961853,
            0.49464163184165955,
            0.2976205348968506,
            0.34761935472488403,
            -0.7699269652366638,
            0.4788609445095062,
            0.42990827560424805,
            0.32984182238578796,
            -0.3110082745552063,
            -0.09520682692527771,
            -0.3972509503364563,
            -0.7707909345626831,
            0.1887558102607727,
            0.9832368493080139,
            -0.5884993076324463,
            0.14689204096794128,
            0.10773798078298569,
            -0.337904155254364,
            0.22884584963321686,
            -0.9825612306594849,
            -0.8983494639396667,
            -0.13981138169765472,
            0.052680790424346924,
            0.1229875385761261,
            0.9861252903938293,
            -0.31491559743881226,
            -0.41247719526290894,
            -0.7749895453453064,
            -0.2718468904495239,
            0.8581711649894714,
            0.8521199226379395,
            -0.0081779845058918,
            0.3448461592197418,
            0.1408897489309311,
            -0.656615674495697,
            0.5854805111885071,
            -0.35182133316993713,
            0.7786815762519836,
            -0.10687172412872314,
            0.3291952908039093,
            -0.334859162569046,
            0.493460088968277,
            0.5351642966270447,
            0.8500458598136902,
            0.45712441205978394,
            0.9432072639465332,
            0.004255509003996849,
            -0.42462971806526184,
            -0.3929305374622345,
            -0.7839896082878113,
            -0.4130512773990631,
            -0.2985471189022064,
            0.03965489938855171,
            0.6255358457565308,
            0.8170208930969238,
            0.03500264883041382,
            -0.6979106664657593,
            -0.6094333529472351,
            0.2686474323272705,
            0.03273223713040352,
            -0.7367882132530212,
            0.12014564126729965,
            -0.9806625843048096,
            0.6039972901344299,
            -0.7335265278816223,
            -0.6304012537002563,
            0.1791047751903534,
            -0.1103953942656517,
            -0.8647352457046509,
            -0.9371771216392517,
            -0.7868189215660095,
            -0.21894770860671997,
            0.5369548797607422,
            0.7460960745811462,
            -0.3774314820766449,
            0.007133908569812775,
            0.6865644454956055,
            0.604324460029602,
            0.557391881942749,
            -0.7138829231262207,
            0.8213818669319153,
            -0.8525996208190918,
            -0.016342133283615112,
            -0.13911846280097961,
            0.7697315812110901,
            -0.19843466579914093,
            0.8995634317398071,
            -0.9351959228515625,
            0.20578864216804504,
            0.17447935044765472,
            0.09263584762811661,
            0.44779840111732483,
            -0.7263172268867493,
            0.12519702315330505,
            0.05508038029074669,
            -0.47192010283470154,
            0.46577349305152893,
            -0.7796348929405212,
            0.4337022602558136,
            0.6105672717094421,
            -0.7148436903953552,
            0.6365808844566345,
            -0.6336511373519897,
            0.819454550743103,
            0.3849606215953827,
            -0.004772993270307779,
            -0.1827760636806488,
            0.04375539347529411,
            -0.3915446400642395,
            -0.6080012321472168,
            0.3450762629508972,
            -0.6010385155677795,
            -0.49563902616500854,
            -0.6604180932044983,
            0.266974538564682,
            -0.7315145134925842,
            0.10933083295822144,
            0.15838587284088135,
            -0.6446739435195923,
            -0.6967290639877319,
            -0.6864221096038818,
            0.44208917021751404,
            0.7776745557785034,
            -0.40247830748558044,
            -0.4381250739097595,
            -0.17574161291122437,
            0.1398431956768036,
            -0.9691967368125916,
            0.03382734954357147,
            -0.43156078457832336,
            0.6398962140083313,
            0.32237279415130615,
            -0.8040487766265869,
            -0.9895802140235901,
            0.1446092426776886,
            0.5855814814567566,
            -0.00013622691039927304,
            0.9485184550285339,
            -0.3579593598842621,
            0.5930433869361877,
            -0.6695342063903809,
            0.9745994806289673,
            0.988010585308075,
            -0.14227339625358582,
            -0.7029665112495422,
            0.2532641589641571,
            0.12549036741256714,
            0.4154382348060608,
            -0.5763227343559265,
            0.4809046685695648,
            0.7253771424293518,
            -0.2591198682785034,
            -0.09436408430337906,
            0.5015194416046143,
            0.3521730601787567,
            0.47487202286720276,
            -0.7012354135513306,
            -0.5450118184089661,
            0.5048367977142334,
            0.338673859834671,
            0.0302746444940567,
            0.12137231230735779,
            -0.36408093571662903,
            0.23601950705051422,
            0.1340227872133255,
            0.7778196930885315,
            -0.19957929849624634,
            -0.864621102809906,
            0.7463507652282715,
            0.43517184257507324,
            0.7081455588340759,
            -0.9156238436698914,
            0.4064549505710602,
            0.6960048675537109,
            -0.08875357359647751,
            0.7106249928474426,
            -0.030553685501217842,
            -0.9557203650474548,
            0.12785638868808746,
            0.3897912800312042,
            0.5264467000961304,
            -0.1472819596529007,
            -0.8823601603507996,
            -0.5596255660057068,
            -0.6613126397132874,
            0.4610847234725952,
            0.8927983045578003,
            -0.3649533987045288,
            0.9349732398986816,
            0.39187556505203247,
            0.9692170023918152,
            -0.032657917588949203,
            -0.4553426504135132,
            -0.35991594195365906,
            -0.7987404465675354,
            0.6550372838973999,
            -0.5621969699859619,
            0.027143245562911034,
            0.7939733862876892,
            -0.8494555354118347,
            -0.5660541653633118,
            0.4998304843902588,
            -0.7674713730812073,
            0.8472703099250793,
            0.1963912546634674,
            0.13173268735408783,
            0.5676583051681519,
            -0.8190950155258179,
            0.17820490896701813,
            -0.30984362959861755,
            0.5636284947395325,
            -0.2985009253025055,
            0.5448310375213623,
            0.6905685663223267,
            0.130313441157341,
            0.8811875581741333,
            0.1539524495601654,
            0.02816963568329811,
            -0.4771087169647217,
            0.08609811961650848,
            -0.5802629590034485,
            -0.4981710612773895,
            -0.9332226514816284,
            -0.054295532405376434,
            0.1292881816625595,
            -0.7418560981750488,
            -0.38133272528648376,
            0.5607894659042358,
            0.27050459384918213,
            -0.588265061378479,
            0.7200989127159119,
            0.7185468077659607,
            0.9168276786804199,
            0.9486228823661804,
            0.5802330374717712,
            0.13054212927818298,
            0.07941379398107529,
            0.14148247241973877,
            0.3040348291397095,
            -0.7430303692817688,
            0.8238394260406494,
            -0.1475597470998764,
            -0.04172491282224655,
            0.37225115299224854,
            -0.461442768573761,
            -0.9263407588005066,
            0.24705277383327484,
            0.704902172088623,
            0.11251071840524673,
            0.7649089097976685,
            -0.20523932576179504,
            0.5420181751251221,
            -0.7212074398994446,
            -0.13148507475852966,
            -0.4971299469470978,
            0.42572131752967834,
            0.13125412166118622,
            0.11982816457748413,
            -0.01128549873828888,
            -0.6013661026954651,
            0.5261549353599548,
            -0.2972111701965332,
            -0.8744690418243408,
            0.4400191009044647,
            -0.3710520267486572,
            0.6776668429374695,
            -0.4269869923591614,
            0.7400792241096497,
            -0.17350554466247559,
            0.8683958053588867,
            0.9796721339225769,
            -0.3147319257259369,
            -0.24275881052017212,
            -0.050810493528842926,
            -0.9601510167121887,
            0.2966536283493042,
            0.04174121469259262,
            0.30647724866867065,
            0.007162134628742933,
            -0.8391644358634949,
            0.08648820966482162,
            0.8016696572303772,
            0.7026370167732239,
            0.37111586332321167,
            -0.3377567529678345,
            -0.7994045615196228,
            -0.2155144363641739,
            0.784019410610199,
            0.3211045563220978,
            0.7644333243370056,
            -0.8220914006233215,
            -0.15689890086650848,
            -0.528705894947052,
            -0.6958548426628113,
            -0.7135298848152161,
            0.10539331287145615,
            -1.003213882446289,
            -0.12694409489631653,
            -0.14577730000019073,
            -0.1565423160791397,
            -0.23707051575183868,
            -0.16488708555698395,
            0.5076916217803955,
            0.5119669437408447,
            0.7913615107536316,
            0.5506942272186279,
            -0.19826538860797882,
            -0.15386836230754852,
            -0.13742028176784515,
            0.8003386855125427,
            -0.009608657099306583,
            0.9593682289123535,
            0.6172375679016113,
            -0.30286288261413574,
            0.3127671480178833,
            -0.7157348394393921,
            -0.08540625125169754,
            -0.8950950503349304,
            -0.9362144470214844,
            -0.7696132063865662,
            0.8789137601852417,
            -0.7451891899108887,
            0.06901083886623383,
            -0.6464093923568726,
            -0.4283008575439453,
            0.38585251569747925,
            0.4700605869293213,
            -0.44372543692588806,
            -0.7373736500740051,
            -0.671389639377594,
            0.40148407220840454,
            0.0034189154393970966,
            0.15612265467643738,
            -0.09680692106485367,
            -0.4943845570087433,
            -0.06412666290998459,
            -0.5339986681938171,
            0.3250005841255188,
            0.7783782482147217,
            0.32387518882751465,
            0.13947682082653046,
            -0.20176278054714203,
            0.29198363423347473,
            -0.24454714357852936,
            0.5037603378295898,
            -0.37870490550994873,
            0.03539801016449928,
            -0.6029146313667297,
            -0.29720500111579895,
            0.08247387409210205,
            -0.3704530894756317,
            -0.3905373513698578,
            0.3649735152721405,
            0.7024198174476624,
            -0.0640048161149025,
            0.9030621647834778,
            0.08102191984653473,
            -0.5770585536956787,
            -0.5322253704071045,
            0.31623515486717224,
            -0.28234899044036865,
            0.8613756895065308,
            -0.6560471653938293,
            0.8766485452651978,
            -0.22819875180721283,
            -0.1590084284543991,
            -0.16840478777885437,
            0.25341758131980896,
            -0.8323138356208801,
            -0.36583229899406433,
            -0.3977672755718231,
            0.32041558623313904,
            0.4347217381000519,
            0.8906500339508057,
            -0.9337189793586731,
            -0.08685505390167236,
            -0.510128915309906,
            0.10669507086277008,
            0.32235971093177795,
            0.20014308393001556,
            -0.8101661205291748,
            0.9416978359222412,
            0.8048359155654907,
            0.5424425005912781,
            0.6430654525756836,
            -0.25179341435432434,
            0.46593329310417175,
            -0.2596934735774994,
            0.1581774353981018,
            0.925267219543457,
            -0.9245760440826416,
            0.914283037185669,
            0.8196602463722229,
            -0.601082980632782,
            0.7907955646514893,
            -0.39982277154922485,
            0.2692864239215851,
            -0.35366809368133545,
            0.8478964567184448,
            0.43551740050315857,
            0.2736230492591858,
            -0.5471197962760925,
            -0.22727009654045105,
            -0.3068462908267975,
            -0.6840757131576538,
            -0.1702672839164734,
            0.622859537601471,
            -0.16353775560855865,
            0.9271433353424072,
            -0.053669627755880356,
            -0.9470345973968506,
            -0.8467279076576233,
            -0.08266152441501617,
            0.8367117047309875,
            0.699601411819458,
            -0.4230765700340271,
            -0.3869825005531311,
            0.1822400838136673,
            0.29399067163467407,
            0.7859516143798828,
            0.11117285490036011,
            0.3743453025817871,
            0.6944400072097778,
            -0.07778920978307724,
            0.7806226015090942,
            0.47464096546173096,
            0.5068578720092773,
            0.0597514770925045,
            -0.8749037981033325,
            0.3535845875740051,
            -0.506707489490509,
            0.3955608904361725,
            0.8138551115989685,
            0.26002469658851624,
            -0.9013789892196655,
            -0.8619902729988098,
            -0.8908818364143372,
            0.7484981417655945,
            -0.03652189299464226,
            -0.9522238969802856,
            -0.30068108439445496,
            0.023575009778141975,
            -0.7868845462799072,
            0.5969028472900391,
            -0.12309034168720245,
            0.9101294875144958,
            -0.8201022148132324,
            0.4940381944179535,
            0.05998170003294945,
            0.4702668786048889,
            0.2642834782600403,
            -0.8059454560279846,
            -0.11887135356664658,
            -0.04588504880666733,
            0.10899604111909866,
            -0.3356674015522003,
            -0.5453975796699524,
            -0.36698928475379944,
            0.7199605107307434,
            -0.4138456881046295,
            0.9871007204055786,
            -0.7823467254638672,
            0.993367612361908,
            0.796089231967926,
            0.4961917996406555,
            -0.8958980441093445,
            0.9532727599143982,
            0.6184921264648438,
            0.8389140963554382,
            -0.061448805034160614,
            0.672110378742218,
            -0.4460482597351074,
            0.969127357006073,
            0.867222249507904,
            -0.856094241142273,
            -0.17872363328933716,
            0.7681506872177124,
            -0.6666527390480042,
            -0.6920838356018066,
            -0.14461193978786469,
            0.8268961310386658,
            0.5999264121055603,
            0.04574999958276749,
            -0.31858497858047485,
            -0.4270149767398834,
            -0.8408581614494324,
            0.34285327792167664,
            0.014116158708930016,
            -0.2356184870004654,
            0.05605929344892502,
            0.5962562561035156,
            -0.2343825399875641,
            0.2874957323074341,
            0.5934168100357056,
            -0.43310022354125977,
            -0.21430239081382751,
            0.6932898163795471,
            -0.47088080644607544
        ],
        "kernel_col": 16,
        "kernel_row": 150,
        "kernel_shape": [
            5,
            5,
            6,
            16,
            1,
            1
        ],
        "layer_type": "Conv",
        "pad_shape": [
            0,
            0
        ]
    },
    "layer4": {
        "layer_type": "Pooling",
        "pooling_shape": [
            2,
            2,
            2,
            2
        ]
    },
    "layer5": {
        "activation": 0,
        "bias": [
            0.01010550744831562,
            0.007450841832906008,
            0.01679905131459236,
            0.00951943825930357,
            0.009517952799797058,
            0.007240191102027893,
            0.01188623532652855,
            0.004814364947378635,
            0.011729530990123749,
            0.019577741622924805,
            0.011085093021392822,
            0.008675714023411274,
            0.01233852468430996,
            0.01281170453876257,
            0.012486103922128677,
            0.013545753434300423,
            0.019343502819538116,
            0.021014787256717682,
            0.01409867126494646,
            0.011735172010958195,
            0.005845782347023487,
            0.005171571392565966,
            0.01589001715183258,
            0.005732628982514143,
            0.005887583829462528,
            0.010122334584593773,
            0.012578093446791172,
            0.0034843217581510544,
            0.006218494847416878,
            0.010580994188785553,
            0.010724636726081371,
            0.013045106083154678,
            0.009316944517195225,
            0.00987989455461502,
            0.009697044268250465,
            0.005592432804405689,
            0.0074088419787585735,
            0.012124210596084595,
            0.0064678434282541275,
            0.006682016421109438,
            0.015027754008769989,
            0.013032089918851852,
            0.005273269955068827,
            0.011337658390402794,
            0.014767090789973736,
            0.008555185049772263,
            0.013137882575392723,
            0.007615854497998953,
            0.015179245732724667,
            0.013607782311737537,
            0.0077811433002352715,
            0.013608857057988644,
            0.008262218907475471,
            0.012550916522741318,
            0.012159623205661774,
            0.011036042124032974,
            0.008213061839342117,
            0.00903038028627634,
            0.010825814679265022,
            0.006957448087632656,
            0.006961033679544926,
            0.010340675711631775,
            0.011525553651154041,
            0.012022002600133419,
            0.010969419032335281,
            0.014301096089184284,
            0.005932134110480547,
            0.0018721258966252208,
            0.013471798039972782,
            0.007186252623796463,
            0.012665577232837677,
            0.007696615997701883,
            0.012294459156692028,
            0.004817568231374025,
            0.0109181497246027,
            0.009450572542846203,
            0.015054295770823956,
            0.013546593487262726,
            0.012144893407821655,
            0.01007519569247961,
            0.009982123039662838,
            0.01371377520263195,
            0.004892414901405573,
            0.013960746116936207,
            0.012815326452255249,
            0.006697629112750292,
            0.01224588043987751,
            0.01503764372318983,
            0.009332294575870037,
            0.0078008766286075115,
            0.013784436509013176,
            0.007653605192899704,
            0.0098986541852355,
            0.00789805967360735,
            0.009755226783454418,
            0.011582482606172562,
            0.009876717813313007,
            0.010084475390613079,
            0.012863818556070328,
            0.005452275276184082,
            0.01387869007885456,
            0.013640046119689941,
            0.005630485713481903,
            0.008413806557655334,
            0.010713466443121433,
            0.010150316171348095,
            0.007925308309495449,
            0.011744045652449131,
            0.013830108568072319,
            0.010672441683709621,
            0.016763130202889442,
            0.012400940991938114,
            0.007656374014914036,
            0.007504957728087902,
            0.009234124794602394,
            0.011124664917588234,
            0.011743130162358284,
            0.018425630405545235,
            0.008856355212628841,
            0.012681129388511181
        ],
        "layer_type": "Dense",
        "output_size": 120,
        "weight": [
            0.019794708117842674,
            -0.04152137413620949,
            0.0273456871509552,
            -0.05872295796871185,
            0.008770671673119068,
            0.03170657157897949,
            0.016036229208111763,
            0.035185057669878006,
            0.028869932517409325,
            0.0504462756216526,
            -0.09706670045852661,
            0.0925539880990982,
            -0.06226466968655586,
            0.08472182601690292,
            -0.047028739005327225,
            -0.04834761098027229,
            0.028652312234044075,
            0.06950174272060394,
            -0.013570263050496578,
            0.1019837036728859,
            0.033710919320583344,
            0.04266258701682091,
            0.031486619263887405,
            0.09086756408214569,
            0.045075833797454834,
            0.04791569709777832,
            -0.012983751483261585,
            -0.04353409260511398,
            -0.02716323733329773,
            -0.006691901013255119,
            0.052754949778318405,
            0.05805015191435814,
            -0.031855762004852295,
            0.013231839053332806,
            -0.04621826857328415,
            0.07680168747901917,
            -0.0027901006396859884,
            0.059145212173461914,
            0.0453433133661747,
            -0.13489662110805511,
            -0.04561642184853554,
            0.07031669467687607,
            -0.10587731003761292,
            -0.06339474767446518,
            0.04133843630552292,
            0.014122603461146355,
            -0.10983914136886597,
            0.04396039992570877,
            0.05665702372789383,
            0.03524133935570717,
            0.16056928038597107,
            0.15392450988292694,
            -0.04399988800287247,
            -0.15708838403224945,
            0.011772900819778442,
            0.007561129983514547,
            0.020662181079387665,
            -0.02246418222784996,
            -0.05431842431426048,
            0.1001497432589531,
            -0.05144772678613663,
            -0.1419421136379242,
            -0.17223376035690308,
            -0.13087117671966553,
            -0.06736104935407639,
            0.04470372572541237,
            0.06430447846651077,
            0.0700148269534111,
            0.0474327877163887,
            0.0021541051100939512,
            0.07626407593488693,
            -0.058054447174072266,
            0.15298035740852356,
            0.20678606629371643,
            0.014608176425099373,
            -0.07381929457187653,
            0.03189535439014435,
            0.005102497525513172,
            0.05796746909618378,
            -0.03350023180246353,
            0.006703927181661129,
            -0.005475632380694151,
            0.05472201108932495,
            0.15056638419628143,
            -0.08046325296163559,
            -0.049670420587062836,
            -0.13248269259929657,
            -0.0281573086977005,
            0.07654598355293274,
            0.07538481056690216,
            -0.1144590675830841,
            0.05617380514740944,
            -0.06320583820343018,
            0.05069129914045334,
            -0.02049078978598118,
            0.11583062261343002,
            -0.020350398495793343,
            0.03942164033651352,
            -0.012266505509614944,
            0.10078151524066925,
            0.15820638835430145,
            -0.025889817625284195,
            -0.13147543370723724,
            0.04560971260070801,
            0.08403497189283371,
            -0.12522675096988678,
            -0.12575139105319977,
            0.05179845914244652,
            -0.06519109755754471,
            0.05640028789639473,
            0.06437841802835464,
            -0.09214269369840622,
            0.02794506959617138,
            0.0454975925385952,
            -0.06724695861339569,
            -0.09206084161996841,
            0.12378781288862228,
            -0.13542088866233826,
            -0.04315492510795593,
            -0.15540796518325806,
            0.03508022427558899,
            0.0665600523352623,
            0.030211664736270905,
            0.09700417518615723,
            0.09339848160743713,
            -0.022765817120671272,
            -0.023811858147382736,
            -0.023756342008709908,
            -0.14395153522491455,
            -0.0008251294493675232,
            -0.0831327959895134,
            -0.050377193838357925,
            0.08645665645599365,
            -0.1074024960398674,
            -0.05721381679177284,
            -0.09511614590883255,
            0.06665320694446564,
            -0.037096258252859116,
            -0.11704172194004059,
            0.10858819633722305,
            -0.05028717964887619,
            0.048657938838005066,
            0.055112920701503754,
            0.04682797193527222,
            0.03895158693194389,
            -0.009718899615108967,
            0.015463696792721748,
            -0.07346107810735703,
            0.03179902955889702,
            0.04678105190396309,
            0.05903322622179985,
            0.10883677005767822,
            0.043248195201158524,
            0.18578405678272247,
            0.04942670091986656,
            -0.030318452045321465,
            -0.0028886781074106693,
            0.1113000437617302,
            -0.04513004422187805,
            0.06988051533699036,
            -0.060782089829444885,
            0.04606236144900322,
            0.011841211467981339,
            -0.017459312453866005,
            -0.03350863978266716,
            0.09150507301092148,
            0.03617670387029648,
            -0.004329768009483814,
            -0.012402666732668877,
            0.057594891637563705,
            0.005032110493630171,
            -0.046936359256505966,
            -0.017890965566039085,
            -0.04568585380911827,
            -0.08631778508424759,
            -0.006151108071208,
            0.036475613713264465,
            0.08391617238521576,
            -0.09179152548313141,
            0.10263101011514664,
            0.06509827077388763,
            0.0029679120052605867,
            -0.05003240704536438,
            -0.049525368958711624,
            -0.07847759127616882,
            -0.07430697977542877,
            -0.08200909942388535,
            0.013567477464675903,
            -0.06274646520614624,
            0.012344453483819962,
            -0.12307944893836975,
            -0.08418869227170944,
            -0.008864076808094978,
            0.04516296833753586,
            0.07708605378866196,
            -0.05124383047223091,
            0.018165994435548782,
            0.029919298365712166,
            0.051627300679683685,
            0.010637789964675903,
            0.02583850733935833,
            0.15290838479995728,
            -0.021255098283290863,
            -0.04421425610780716,
            0.03596803918480873,
            -0.09886081516742706,
            0.024991633370518684,
            -0.03314651921391487,
            0.06608132272958755,
            -0.03145255520939827,
            0.047579579055309296,
            -0.053380925208330154,
            0.04066620022058487,
            0.06891229003667831,
            -0.012097126804292202,
            -0.016721928492188454,
            0.006607291754335165,
            -5.398458233685233e-05,
            -0.03645199164748192,
            -0.01136084832251072,
            0.022607136517763138,
            -0.004402706865221262,
            0.032064151018857956,
            -0.07532468438148499,
            -0.028923528268933296,
            0.02691391110420227,
            0.053978513926267624,
            -0.036902379244565964,
            -0.006651502102613449,
            -0.060272570699453354,
            0.038863033056259155,
            0.06101607903838158,
            -0.0552038811147213,
            -0.025313833728432655,
            -0.05032670125365257,
            0.013045771978795528,
            0.02222716063261032,
            0.07764454931020737,
            -0.04370056837797165,
            0.04433413967490196,
            -0.09620122611522675,
            0.03899593651294708,
            0.041691459715366364,
            0.03425651788711548,
            0.0010800629388540983,
            -0.03855022042989731,
            -0.18350376188755035,
            -0.11970354616641998,
            0.003856420051306486,
            0.08447892218828201,
            0.0062203374691307545,
            0.027899036183953285,
            -0.006827100180089474,
            -0.12509852647781372,
            -0.08186128735542297,
            -0.0944407656788826,
            0.0019855203572660685,
            -0.047541916370391846,
            0.06941063702106476,
            0.11604592949151993,
            0.019276579841971397,
            0.03309476375579834,
            -0.03356025740504265,
            0.06089019030332565,
            0.043286003172397614,
            0.022753451019525528,
            0.0687316283583641,
            0.0012848195619881153,
            0.14311178028583527,
            0.12261564284563065,
            -0.10948783159255981,
            0.1770736277103424,
            0.022535599768161774,
            -0.00376380467787385,
            -0.11756822466850281,
            -0.11710009723901749,
            0.013823593966662884,
            -0.011776762083172798,
            0.04534240812063217,
            -0.1463315486907959,
            0.024409141391515732,
            -0.01234858762472868,
            0.03038923256099224,
            0.12838803231716156,
            0.04117640107870102,
            -0.0047857197932899,
            0.12642496824264526,
            0.02088468335568905,
            0.055301763117313385,
            -0.019860023632645607,
            -0.055974360555410385,
            0.06448275595903397,
            -0.04053931683301926,
            -0.007747411262243986,
            -0.13192659616470337,
            -0.06436464190483093,
            -0.0013823097106069326,
            0.0631064847111702,
            -0.20520129799842834,
            0.04617946967482567,
            -0.047442130744457245,
            0.08693068474531174,
            0.11248793452978134,
            -0.17447713017463684,
            0.08909650146961212,
            0.027062779292464256,
            0.08153285086154938,
            0.1815934032201767,
