{
    "input_shape": [
        28,
        28,
        1
    ],
    "layer1": {
        "activation": 0,
        "bias": [
            -0.02282530814409256,
            -0.004613887518644333,
            0.1468874216079712,
            -0.2869829833507538,
            0.059050630778074265,
            0.13047514855861664
        ],
        "kernel": [
            0.056184884160757065,
            0.22648410499095917,
            0.37241560220718384,
            0.3631812036037445,
            0.06517365574836731,
            -0.06491091847419739,
            0.007024539168924093,
            0.1685602366924286,
            0.37291163206100464,
            0.3183004558086395,
            -0.1664225459098816,
            -0.3137485384941101,
            -0.24359917640686035,
            0.16979418694972992,
            0.30971214175224304,
            -0.1753857284784317,
            -0.3795284926891327,
            -0.36091718077659607,
            -0.027577362954616547,
            0.22982804477214813,
            -0.029126876965165138,
            -0.14535769820213318,
            -0.2322625070810318,
            -0.12123891711235046,
            0.05621711537241936,
            -0.081661157310009,
            -0.27716249227523804,
            -0.10960265249013901,
            0.03558223322033882,
            -0.14158587157726288,
            -0.028946250677108765,
            -0.069515161216259,
            0.1381482034921646,
            0.05816034600138664,
            -0.17762000858783722,
            -0.019648853689432144,
            0.18893307447433472,
            0.5474103689193726,
            0.17948327958583832,
            -0.21744634211063385,
            0.012680631130933762,
            0.2789369225502014,
            0.5858637094497681,
            0.16049803793430328,
            -0.13666334748268127,
            -0.048607077449560165,
            0.12430393695831299,
            0.1614622324705124,
            -0.10914111137390137,
            -0.19028522074222565,
            -0.09525629132986069,
            -0.3026162087917328,
            -0.19180485606193542,
            0.05214688181877136,
            0.21515104174613953,
            -0.15034344792366028,
            -0.40943947434425354,
            -0.17271730303764343,
            0.12538065016269684,
            0.18489938974380493,
            -0.1747555136680603,
            -0.3888217508792877,
            -0.048003047704696655,
            0.23994484543800354,
            0.24197259545326233,
            -0.19428332149982452,
            -0.2653437554836273,
            0.06284752488136292,
            0.22449129819869995,
            0.2898286283016205,
            -0.17683841288089752,
            -0.15284821391105652,
            0.16439460217952728,
            0.2448330968618393,
            0.2143944352865219,
            -0.019098320975899696,
            -0.06396915018558502,
            -0.04845060408115387,
            0.10878250747919083,
            0.002669423818588257,
            -0.1072285920381546,
            -0.180606871843338,
            -0.10082453489303589,
            0.18438906967639923,
            0.02845807559788227,
            -0.14180448651313782,
            -0.07037709653377533,
            0.06652563810348511,
            0.18064911663532257,
            0.005511092022061348,
            0.07121638208627701,
            0.15969593822956085,
            0.25701040029525757,
            0.26136600971221924,
            0.10959072411060333,
            0.12456726282835007,
            0.18603932857513428,
            0.1820492148399353,
            0.19546613097190857,
            0.14737577736377716,
            -0.13280093669891357,
            0.06768430024385452,
            0.23588916659355164,
            0.10901200026273727,
            -0.059932950884103775,
            0.13764823973178864,
            0.25920599699020386,
            0.16725017130374908,
            -0.2634015679359436,
            -0.18592335283756256,
            0.2030169516801834,
            0.1305234432220459,
            -0.29578596353530884,
            -0.5999143719673157,
            0.12857818603515625,
            0.10222397744655609,
            -0.10072090476751328,
            -0.3576582968235016,
            -0.03684280067682266,
            0.2919161021709442,
            -0.018136480823159218,
            -0.1606481671333313,
            -0.09745792299509048,
            0.16861271858215332,
            0.1915316879749298,
            0.2420225441455841,
            0.2642378509044647,
            0.245989590883255,
            -0.002891558688133955,
            -0.19279231131076813,
            0.09400399029254913,
            -0.053601499646902084,
            -0.4079553484916687,
            -0.7613127827644348,
            -0.407991498708725,
            -0.17770107090473175,
            -0.4536040723323822,
            -0.4956076741218567,
            -0.20154821872711182,
            -0.0666268914937973,
            -0.18189331889152527,
            -0.1469462364912033,
            0.05862480774521828,
            0.20808656513690948,
            0.1539059281349182,
            -0.02530093304812908,
            0.17662930488586426,
            0.2854126989841461,
            0.3028525412082672,
            0.20727920532226563
        ],
        "kernel_col": 6,
        "kernel_row": 25,
        "kernel_shape": [
            5,
            5,
            1,
            6,
            1,
            1
        ],
        "layer_type": "Conv",
        "pad_shape": [
            2,
            2
        ]
    },
    "layer2": {
        "layer_type": "Pooling",
        "pooling_shape": [
            2,
            2,
            2,
            2
        ]
    },
    "layer3": {
        "activation": 0,
        "bias": [
            -0.13458527624607086,
            0.03583070635795593,
            -0.02267247624695301,
            0.023372991010546684,
            -0.05594044178724289,
            -0.0640295147895813,
            0.047735776752233505,
            -0.20447786152362823,
            0.02304903417825699,
            -0.4483395516872406,
            -0.29512643814086914,
            -0.08850818872451782,
            -0.01179059874266386,
            -0.08779820799827576,
            -0.11813084036111832,
            -0.16684295237064362
        ],
        "kernel": [
            0.10847244411706924,
            0.016073862090706825,
            -0.04962915554642677,
            -0.16779495775699615,
            -0.1618451476097107,
            0.06296584755182266,
            -0.005433317739516497,
            -0.09925826638936996,
            -0.12576007843017578,
            0.0024415880907326937,
            0.020188413560390472,
            -0.0254080630838871,
            -0.10679208487272263,
            -0.01518993079662323,
            0.175074964761734,
            -0.008881205692887306,
            -0.04602368175983429,
            -0.0437118299305439,
            0.10378004610538483,
            0.0828942209482193,
            0.008423669263720512,
            -0.052800484001636505,
            -0.06109088659286499,
            0.019850557669997215,
            0.05103063955903053,
            -0.03883581608533859,
            -0.1367219239473343,
            -0.12892091274261475,
            -0.0482206791639328,
            0.014360152184963226,
            -0.13637873530387878,
            -0.14068657159805298,
            -0.15245488286018372,
            0.04247551038861275,
            0.041928425431251526,
            -0.20658358931541443,
            -0.1387786865234375,
            0.07997443526983261,
            0.038079287856817245,
            -0.03526860103011131,
            -0.13699142634868622,
            0.037830233573913574,
            0.050865575671195984,
            -0.10047110915184021,
            0.009444509632885456,
            -0.08546511083841324,
            0.043998535722494125,
            -0.0588514544069767,
            0.0033893773797899485,
            0.025723671540617943,
            -0.06110561639070511,
            -0.15898777544498444,
            0.005126733798533678,
            0.07049835473299026,
            0.00010516864858800545,
            -0.05795649066567421,
            -0.038480084389448166,
            0.10570812225341797,
            0.07324592769145966,
            -0.12732353806495667,
            -0.07157689332962036,
            0.055564213544130325,
            0.0756746381521225,
            -0.08293052017688751,
            -0.21668779850006104,
            0.0016330963699147105,
            0.050594206899404526,
            -0.07590478658676147,
            -0.3015027642250061,
            -0.04848884418606758,
            0.005848298314958811,
            0.0725884810090065,
            -0.0985589548945427,
            -0.00393347954377532,
            -0.005327587015926838,
            -0.07763337343931198,
            -0.13017480075359344,
            -0.10532883554697037,
            0.039335012435913086,
            0.07665342092514038,
            -0.08314098417758942,
            -0.17257599532604218,
            0.030450481921434402,
            0.07075569778680801,
            0.0553848035633564,
            -0.17312735319137573,
            -0.03790222853422165,
            0.038280654698610306,
            0.07028559595346451,
            -0.06862638145685196,
            -0.08534442633390427,
            0.006740081589668989,
            -0.0092998081818223,
            -0.13008949160575867,
            -0.02079971879720688,
            -0.05839576572179794,
            0.015549576841294765,
            -0.052647799253463745,
            0.03988296911120415,
            0.01939716562628746,
            0.08002977073192596,
            0.056182652711868286,
            0.05769317224621773,
            0.04080832004547119,
            -0.1747952252626419,
            -0.05274302884936333,
            -0.027708590030670166,
            0.13337112963199615,
            -0.15177658200263977,
            -0.22841697931289673,
            -0.07537678629159927,
            0.10797031968832016,
            0.06719625741243362,
            0.10663194954395294,
            -0.046637650579214096,
            0.03666374832391739,
            -0.11840485036373138,
            0.25643157958984375,
            0.12909124791622162,
            -0.08470183610916138,
            -0.07771715521812439,
            0.12363184988498688,
            0.19692163169384003,
            -0.16188913583755493,
            -0.02282845228910446,
            0.052483364939689636,
            0.06427891552448273,
            0.06399059295654297,
            0.11754456162452698,
            0.11000055074691772,
            0.05056767165660858,
            0.008050573989748955,
            0.06171754002571106,
            0.13090889155864716,
            -0.0843387320637703,
            -0.01430288702249527,
            0.08086677640676498,
            0.11550438404083252,
            0.003950454294681549,
            -0.1799498051404953,
            0.05811570584774017,
            0.046193741261959076,
            -0.17307427525520325,
            0.12863260507583618,
            -0.10590466111898422,
            -0.044168636202812195,
            -0.027429800480604172,
            0.14830395579338074,
            0.060163840651512146,
            -0.02947988174855709,
            -0.0907202810049057,
            -0.009586455300450325,
            -0.022953063249588013,
            -0.06661580502986908,
            -0.03941994905471802,
            0.015341025777161121,
            -0.13967226445674896,
            -0.08012896776199341,
            -0.029702825471758842,
            0.030315717682242393,
            0.012474310584366322,
            0.06315751373767853,
            -0.04414375126361847,
            -0.08882971853017807,
            0.03554067388176918,
            0.010903831571340561,
            0.0975930243730545,
            0.017689650878310204,
            -0.17567087709903717,
            -0.11474079638719559,
            0.04054710268974304,
            0.061424143612384796,
            0.06127804145216942,
            -0.0004986554849892855,
            -0.22191189229488373,
            0.016641788184642792,
            -0.14355772733688354,
            -0.07525564730167389,
            0.11063497513532639,
            0.1301044076681137,
            -0.024185307323932648,
            -0.08190444111824036,
            0.07353802025318146,
            0.10618236660957336,
            -0.0308599341660738,
            -0.03662664443254471,
            -0.03810045123100281,
            0.13010382652282715,
            0.09203648567199707,
            -0.11761987954378128,
            -0.044166240841150284,
            -0.03705001622438431,
            0.058836665004491806,
            0.008632568642497063,
            -0.09584853798151016,
            -0.056620918214321136,
            -0.018239539116621017,
            -0.0008714642026461661,
            -0.024283289909362793,
            0.07466351985931396,
            -0.1422119140625,
            -0.11095130443572998,
            0.02515140362083912,
            0.0619371272623539,
            -0.17672786116600037,
            -0.19311393797397614,
            0.07820457220077515,
            0.09335707128047943,
            -0.054097309708595276,
            -0.2812132239341736,
            -0.04432699456810951,
            0.11973600834608078,
            0.13216236233711243,
            -0.12690383195877075,
            -0.21919167041778564,
            -0.07396414130926132,
            0.10388712584972382,
            0.0705995187163353,
            -0.18177247047424316,
            -0.11726272851228714,
            -0.06659754365682602,
            -0.000742378004360944,
            -0.014540175907313824,
            0.0028468600939959288,
            -0.09199350327253342,
            -0.07024499028921127,
            -0.12709428369998932,
            -0.022850628942251205,
            0.09713197499513626,
            0.044525984674692154,
            -0.14055109024047852,
            -0.032449811697006226,
            0.05902082845568657,
            0.042132165282964706,
            -0.11066770553588867,
            -0.1035267636179924,
            0.018082886934280396,
            0.07786227762699127,
            0.020708633586764336,
            -0.22400525212287903,
            -0.09667407721281052,
            0.023547528311610222,
            0.08137188851833344,
            -0.07209263741970062,
            -0.14344225823879242,
            -0.03605208173394203,
            7.590288441861048e-05,
            -0.005016109440475702,
            0.058425623923540115,
            0.019039813429117203,
            0.04182373359799385,
            0.06673192977905273,
            0.0033731069415807724,
            -0.03896237164735794,
            0.02603474073112011,
            0.013079909607768059,
            0.1134314239025116,
            0.17904166877269745,
            0.1291426122188568,
            0.10150282829999924,
            -0.06317729502916336,
            0.12691019475460052,
            0.13371728360652924,
            0.08768541365861893,
            6.612236757064238e-05,
            -0.05927706137299538,
            -0.07497870177030563,
            -0.08578546345233917,
            0.08362449705600739,
            -0.062023211270570755,
            -0.13422980904579163,
            -0.1702476441860199,
            0.010283587500452995,
            0.005786461755633354,
            -0.20124861598014832,
            -0.13231953978538513,
            -0.041182857006788254,
            0.05224933475255966,
            0.11138401925563812,
            -0.011538021266460419,
            -0.16109535098075867,
            0.04869168624281883,
            0.11445964872837067,
            0.032470330595970154,
            -0.08033397048711777,
            -0.12325378507375717,
            0.0708833709359169,
            0.1604153960943222,
            -0.057241469621658325,
            -0.031188249588012695,
            -0.1264788955450058,
            -0.0731971338391304,
            -0.03390033543109894,
            -0.09943410009145737,
            -0.037789199501276016,
            -0.019901491701602936,
            -0.18704535067081451,
            -0.09421461075544357,
            0.07230427116155624,
            -0.002630336210131645,
            -0.009831774979829788,
            -0.14907585084438324,
            -0.09578220546245575,
            0.16008608043193817,
            0.013785256072878838,
            -0.0057916161604225636,
            -0.034461140632629395,
            -0.2537415325641632,
            -0.26627808809280396,
            -0.08599192649126053,
            0.05695963278412819,
            0.17432372272014618,
            0.14372533559799194,
            0.0081701735034585,
            -0.06349113583564758,
            -0.006784701254218817,
            0.13012023270130157,
            0.18809311091899872,
            0.19433939456939697,
            0.14454898238182068,
            -0.16320520639419556,
            -0.11814652383327484,
            -0.025692719966173172,
            0.10447049140930176,
            0.1202908530831337,
            -0.03762532025575638,
            -0.07921439409255981,
            -0.17434319853782654,
            -0.17378364503383636,
            -0.08598826825618744,
            -0.09127496182918549,
            0.01254087034612894,
            0.14014136791229248,
            0.004757297225296497,
            -0.022478187456727028,
            -0.1766226440668106,
            -0.029313145205378532,
            0.13047246634960175,
            0.12556877732276917,
            0.1220768466591835,
            -0.2260008305311203,
            -0.21239455044269562,
            -0.15555144846439362,
            -0.08755290508270264,
            -0.007656438276171684,
            -0.176362082362175,
            -0.056095194071531296,
            -0.03519877791404724,
            -0.08539168536663055,
            -0.01596791110932827,
            0.04058200120925903,
            -0.06405261158943176,
            -0.06457442045211792,
            -0.08266162127256393,
            0.059108950197696686,
            -0.0186078492552042,
            0.12616831064224243,
            0.05558081716299057,
            -0.03170713409781456,
            0.078219935297966,
            -0.03355385363101959,
            0.1351836919784546,
            0.05533357709646225,
            -0.06857830286026001,
            -0.023518525063991547,
            -0.045221004635095596,
            0.008372285403311253,
            -0.1101083979010582,
            -0.21069221198558807,
            -0.14475922286510468,
            0.07030212879180908,
            0.04770851507782936,
            0.0036179532762616873,
            0.0032593212090432644,
            0.03838202357292175,
            0.005306300241500139,
            -0.07403825968503952,
            -0.1149778664112091,
            -0.09801621735095978,
            -0.051880843937397,
            -0.07387398183345795,
            0.0424501858651638,
            0.09431049227714539,
            0.07528573274612427,
            0.10987343639135361,
            -0.19534115493297577,
            0.028891464695334435,
            0.04136660695075989,
            0.06575024127960205,
            0.11500617861747742,
            -0.33044198155403137,
            -0.18664807081222534,
            -0.14678671956062317,
            -0.12178219109773636,
            -0.020785178989171982,
            -0.09206654876470566,
            0.020663447678089142,
            0.03837437927722931,
            0.05380574241280556,
            0.05106925591826439,
            -0.06039333716034889,
            0.12165871262550354,
            -0.03712517023086548,
            -0.18842370808124542,
            0.03803468123078346,
            -0.04126274958252907,
            0.13323622941970825,
            -0.06377944350242615,
            -0.11670039594173431,
            -0.19194725155830383,
            -0.044807177037000656,
            -0.11071817576885223,
            -0.32006606459617615,
            -0.25084421038627625,
            -0.0617826022207737,
            -0.05457143858075142,
            -0.1526155024766922,
            -0.02423875778913498,
            0.007093396037817001,
            0.04731865972280502,
            0.08375918120145798,
            0.006694330833852291,
            -0.06160646304488182,
            -0.045359984040260315,
            -0.09392066299915314,
            -0.028423747047781944,
            0.14627552032470703,
            0.1040775328874588,
            -0.08809208124876022,
            -0.036728378385305405,
            -0.1339961290359497,
            0.15772560238838196,
            0.1677941530942917,
            0.08885108679533005,
            0.11249460279941559,
            -0.11731332540512085,
            -0.07489340007305145,
            -0.028791004791855812,
            -0.022678595036268234,
            -0.02314496599137783,
            -0.18099947273731232,
            -0.19591212272644043,
            -0.06502638757228851,
            0.03515883907675743,
            -0.01053507998585701,
            0.1492542326450348,
            0.22787794470787048,
            0.1851450800895691,
            0.12246955931186676,
            -0.021765151992440224,
            -0.003884707111865282,
            -0.03308549150824547,
            0.12554912269115448,
            -0.001921180752106011,
            0.029416410252451897,
            -0.030199000611901283,
            -0.022748731076717377,
            0.11876717954874039,
            -0.05624086782336235,
            -0.10293571650981903,
            -0.07348869740962982,
            0.007216538302600384,
            0.14217261970043182,
            -0.0015813354402780533,
            -0.07292908430099487,
            -0.13361920416355133,
            -0.046745866537094116,
            0.13172225654125214,
            0.013869285583496094,
            -0.07022154331207275,
            -0.09215797483921051,
            -0.14801937341690063,
            0.06270238012075424,
            0.04595143347978592,
            -0.011398745700716972,
            -0.16356424987316132,
            -0.06776440888643265,
            -0.03854192793369293,
            0.16162580251693726,
            -0.04274507239460945,
            -0.05441218614578247,
            -0.06629353016614914,
            -0.013891533017158508,
            0.15281067788600922,
            -0.050631891936063766,
            0.022247029468417168,
            -0.20912282168865204,
            -0.05840018019080162,
            0.11385797709226608,
            -0.003119484754279256,
            0.08455991744995117,
            -0.11449446529150009,
            -0.07271216809749603,
            0.09510339051485062,
            0.04601689800620079,
            0.09806599467992783,
            -0.026450876146554947,
            -0.0662195235490799,
            0.07391674816608429,
            -0.004772118758410215,
            -0.08675443381071091,
            0.035284534096717834,
            0.17021818459033966,
            0.038014862686395645,
            -0.18453924357891083,
            -0.07259746640920639,
            -0.024543579667806625,
            0.17055802047252655,
            0.01063546258956194,
            -0.21857823431491852,
            -0.21464896202087402,
            -0.06011318787932396,
            0.18023118376731873,
            0.00492379255592823,
            -0.1580294519662857,
            -0.07506097853183746,
            -0.10486876219511032,
            0.17584852874279022,
            0.04761900380253792,
            -0.10568400472402573,
            0.02396583929657936,
            -0.11164286732673645,
            0.1437329202890396,
            0.07187050580978394,
            -0.024964332580566406,
            -0.1438528597354889,
            -0.06101124361157417,
            0.117820143699646,
            0.10422768443822861,
            -0.11007799208164215,
            -0.07470765709877014,
            -0.12197106331586838,
            0.06425748020410538,
            0.051644228398799896,
            -0.1261839121580124,
            -0.02084578573703766,
            -0.24113792181015015,
            0.04534272477030754,
            0.04630117863416672,
            -0.031214233487844467,
            0.03246181458234787,
            -0.12437012046575546,
            0.04311668500304222,
            0.061571020632982254,
            0.006815570872277021,
            0.048082221299409866,
            -0.06748896837234497,
            0.043631356209516525,
            0.06716977059841156,
            -0.021005909889936447,
            0.0651002749800682,
            0.05676109343767166,
            0.0634198859333992,
            -0.031477879732847214,
            0.09191300719976425,
            -0.19545842707157135,
            0.011017856188118458,
            -0.006447118707001209,
            -0.11131812632083893,
            0.07703060656785965,
            -0.17707541584968567,
            -0.027355236932635307,
            -0.020277921110391617,
            -0.10588818788528442,
            -0.012005987577140331,
            -0.09317711740732193,
            -0.07923711836338043,
            -0.011708255857229233,
            -0.04287470877170563,
            0.02868480794131756,
            -0.053287092596292496,
            -0.05853516235947609,
            0.004294950049370527,
            0.03063046745955944,
            0.08319803327322006,
            0.13467159867286682,
            0.0902293249964714,
            0.03925821930170059,
            -0.06713186204433441,
            -0.07051738351583481,
            0.00755790201947093,
            -0.06303772330284119,
            -0.05979427695274353,
            -0.19598062336444855,
            -0.053458813577890396,
            -0.01439137663692236,
            -0.1364152729511261,
            -0.060229264199733734,
            -0.03518223017454147,
            -0.07663682103157043,
            0.07621339708566666,
            -0.06581491231918335,
            -0.048182062804698944,
            0.000421174248913303,
            -0.10578089207410812,
            0.09586353600025177,
            -0.05314432084560394,
            -0.03736206144094467,
            -0.054777439683675766,
            -0.02052418887615204,
            -0.008441979065537453,
            0.0708271712064743,
            0.05181219428777695,
            -0.11944437026977539,
            -0.061999548226594925,
            -0.09256211668252945,
            -0.016792982816696167,
            0.003862065263092518,
            -0.0369887538254261,
            -0.04553266987204552,
            -0.15784995257854462,
            -0.10021523386240005,
            -0.071114681661129,
            -0.019455894827842712,
            -0.011078771203756332,
            0.07649819552898407,
            0.09668560326099396,
            -0.05839391425251961,
            -0.034451644867658615,
            0.06975605338811874,
            0.004278192762285471,
            0.025701599195599556,
            -0.13447436690330505,
            -0.08106033504009247,
            0.026322469115257263,
            -0.025417262688279152,
            -0.06898660212755203,
            0.14494478702545166,
            0.06068608909845352,
            -0.12969540059566498,
            -0.18562357127666473,
            0.06640452146530151,
            0.11344845592975616,
            -0.0794292613863945,
            -0.0868617370724678,
            0.046440452337265015,
            0.173970565199852,
            0.051592160016298294,
            -0.12571777403354645,
            0.03488418832421303,
            0.060965459793806076,
            0.054819222539663315,
            -0.19027194380760193,
            -0.1967151165008545,
            -0.012612896040081978,
            -0.0753379836678505,
            -0.2660162150859833,
            -0.1583949625492096,
            -0.08564963191747665,
            -0.017505235970020294,
            -0.1716753989458084,
            0.03285960108041763,
            0.14199188351631165,
            -0.09902152419090271,
            0.08643614500761032,
            0.01618870347738266,
            0.09259446710348129,
            -0.032689567655324936,
            -0.05603162199258804,
            0.14206494390964508,
            0.06508664041757584,
            0.04436652362346649,
            -0.2838881015777588,
            0.059330716729164124,
            0.12112978845834732,
            -0.04526650160551071,
            -0.29495784640312195,
            -0.16478194296360016,
            0.04570901393890381,
            0.05254044011235237,
            -0.18181373178958893,
            -0.26136624813079834,
            -0.04993125796318054,
            0.03653700277209282,
            0.041692230850458145,
            -0.1433878242969513,
            -0.07852277904748917,
            0.058662448078393936,
            -0.09096464514732361,
            -0.08874692022800446,
            -0.02802564948797226,
            0.06824027001857758,
            0.051402077078819275,
            -0.16167373955249786,
            -0.04160524159669876,
            0.12415549904108047,
            0.1225215420126915,
            -0.06490018218755722,
            -0.16611872613430023,
            0.04323504492640495,
            0.07411088794469833,
            -0.09665950387716293,
            -0.2586059868335724,
            -0.12667183578014374,
            -0.04441576078534126,
            -0.08775809407234192,
            -0.2017221748828888,
            -0.09496500343084335,
            -0.03402644768357277,
            -0.029306458309292793,
            -0.07200511544942856,
            0.09221222996711731,
            0.025314806029200554,
            0.0856851115822792,
            -0.005260143894702196,
            0.19532811641693115,
            0.022621633484959602,
            0.07579395174980164,
            0.16114307940006256,
            -0.05885295942425728,
            0.043023690581321716,
            -0.1423255205154419,
            0.2296135574579239,
            0.1708620935678482,
            -0.07180702686309814,
            -0.19486761093139648,
            0.18420915305614471,
            0.1627112179994583,
            -0.025239842012524605,
            -0.03279672935605049,
            0.14987222850322723,
            0.0972430482506752,
            -0.08825748413801193,
            -0.06838463246822357,
            -0.09951350092887878,
            -0.18074586987495422,
            -0.09672102332115173,
            -0.05912381783127785,
            -0.21965031325817108,
            -0.08235464245080948,
            0.13159382343292236,
            0.18436786532402039,
            -0.08621864765882492,
            -0.13742046058177948,
            -0.016884593293070793,
            0.14185214042663574,
            0.065269835293293,
            -0.1092929020524025,
            0.05359821394085884,
            0.06345844268798828,
            0.050141774117946625,
            0.22495101392269135,
            0.17314551770687103,
            0.02129177562892437,
            -0.014980923384428024,
            0.18623510003089905,
            0.22015029191970825,
            0.11896870285272598,
            0.012615520507097244,
            -0.07811015099287033,
            0.024377135559916496,
            -0.02476014383137226,
            -0.11008445173501968,
            -0.12962086498737335,
            0.17763793468475342,
            -0.12428724020719528,
            -0.15522529184818268,
            -0.22825919091701508,
            -0.03606854006648064,
            0.14712978899478912,
            -0.12373368442058563,
            -0.12668754160404205,
            -0.15931890904903412,
            -0.13434723019599915,
            0.007039390970021486,
            0.02303308993577957,
            0.03189042955636978,
            0.07822883874177933,
            0.18687774240970612,
            -0.006943921092897654,
            0.05996322259306908,
            0.10572999715805054,
            0.14738066494464874,
            0.204856738448143,
            0.1815633922815323,
            -0.13987332582473755,
            -0.07396537065505981,
            0.04660859331488609,
            0.07701623439788818,
            0.0882176086306572,
            -0.04485223442316055,
            -0.04260086268186569,
            0.06855452060699463,
            -0.040783971548080444,
            -0.1648276448249817,
            0.046789079904556274,
            0.04535704851150513,
            0.05956520512700081,
            -0.009613366797566414,
            -0.04023214429616928,
            0.08099197596311569,
            0.04540455713868141,
            0.0622551366686821,
            0.10401223599910736,
            0.10630626231431961,
            0.006622624583542347,
            -0.040537863969802856,
            -0.02127397432923317,
            -0.031476739794015884,
            -0.011835445649921894,
            0.024566426873207092,
            0.04846302047371864,
            0.07396729290485382,
            0.08192913979291916,
            0.037704139947891235,
            0.03696625679731369,
            0.04012409970164299,
            0.029319679364562035,
            -0.29320040345191956,
            -0.11643057316541672,
            0.03647619113326073,
            0.0047981031239032745,
            -0.12151452898979187,
            -0.33599206805229187,
            -0.1632472425699234,
            -0.029668670147657394,
            -0.05743110552430153,
            -0.2713937759399414,
            -0.326908677816391,
            -0.14259259402751923,
            -0.051020096987485886,
            0.002618156373500824,
            -0.032910801470279694,
            -0.09386105835437775,
            -0.05080316588282585,
            -0.03776010498404503,
            -0.0013443628558889031,
            0.05516441538929939,
            0.03954174369573593,
            0.009240780025720596,
            0.10858069360256195,
            0.1038292944431305,
            0.06927447021007538,
            -0.06639339029788971,
            -0.17605218291282654,
            0.16879476606845856,
            0.16490648686885834,
            0.14264266192913055,
            0.00731060141697526,
            0.00885779783129692,
            0.09843513369560242,
            0.025246357545256615,
            -0.05180833116173744,
            -0.06834279745817184,
            0.005479895044118166,
            -0.05574977397918701,
            -0.004182342905551195,
            -0.016998184844851494,
            -0.05940430983901024,
            -0.01788734644651413,
            -0.0886906161904335,
            0.02847541682422161,
            0.046730466187000275,
            0.023363441228866577,
            0.1323722004890442,
            -0.15755797922611237,
            -0.05223824456334114,
            -0.11347713321447372,
            0.10237567126750946,
            0.07448431849479675,
            -0.24667854607105255,
            -0.13190728425979614,
            -0.09255632758140564,
            -0.029571130871772766,
            -0.1640530675649643,
            -0.08478906005620956,
            -0.1189398244023323,
            -0.13282893598079681,
            -0.12947946786880493,
            -0.06967073678970337,
            0.20734570920467377,
            0.1366771161556244,
            0.10268738865852356,
            -0.03656206652522087,
            0.005899837240576744,
            -0.09761771559715271,
            0.015160131268203259,
            0.09382011741399765,
            0.04210532456636429,
            0.008078075014054775,
            0.016325775533914566,
            0.027757106348872185,
            -0.015993598848581314,
            0.02903248742222786,
            0.040056731551885605,
            0.03933939337730408,
            0.062132347375154495,
            0.12279155850410461,
            0.20943722128868103,
            0.1160571500658989,
            -0.09318956732749939,
            -0.2976936995983124,
            -0.2512258291244507,
            -0.17487210035324097,
            -0.01967608369886875,
            0.04156016930937767,
            0.06872507929801941,
            0.004730871878564358,
            -0.04554023593664169,
            -0.08157830685377121,
            0.11294294148683548,
            0.10445597767829895,
            -0.2574296295642853,
            -0.12195105105638504,
            0.019165752455592155,
            -0.015990467742085457,
            0.17348994314670563,
            0.1269124299287796,
            -0.2059001475572586,
            -0.11287818104028702,
            -0.13713224232196808,
            0.14230521023273468,
            0.30302566289901733,
            0.05271430313587189,
            -0.11985287815332413,
            -0.1022329106926918,
            -0.018317759037017822,
            0.22687453031539917,
            0.12042668461799622,
            -0.06597797572612762,
            -0.12494321167469025,
            -0.028582267463207245,
            0.033059101551771164,
            0.02553706429898739,
            -0.01060362346470356,
            -0.13911910355091095,
            0.0013785961782559752,
            0.07631691545248032,
            -0.030457817018032074,
            -0.05265287309885025,
            -0.06860969960689545,
            -0.007610803470015526,
            0.05150652304291725,
            0.05604294687509537,
            -0.06241152808070183,
            -0.03206723928451538,
            -0.03514839708805084,
            -0.0696224793791771,
            0.06421158462762833,
            0.048975445330142975,
            -0.034111615270376205,
            -0.05235354229807854,
            -0.0029753257986158133,
            0.03276784345507622,
            -0.00233800383284688,
            0.004305549897253513,
            0.0002281842171214521,
            0.06863666325807571,
            0.09079894423484802,
            0.022099917754530907,
            0.076605886220932,
            0.0656319186091423,
            -0.16516141593456268,
            -0.09689661115407944,
            0.15236622095108032,
            0.11637479811906815,
            0.04628092795610428,
            -0.1809106320142746,
            -0.2501634657382965,
            0.13654640316963196,
            0.028202146291732788,
            -0.08034295588731766,
            -0.06321688741445541,
            -0.21782958507537842,
            0.09084957838058472,
            0.04290584847331047,
            -0.03458274528384209,
            0.08699719607830048,
            -0.15430912375450134,
            -0.03797958791255951,
            -0.041775740683078766,
            -0.05565858259797096,
            0.10763830691576004,
            -0.05797296389937401,
            -0.12701642513275146,
            -0.028475286439061165,
            0.07051297277212143,
            0.021190272644162178,
            -0.12194519490003586,
            -0.07563120126724243,
            0.01906714402139187,
            0.07664717733860016,
            0.046075932681560516,
            -0.059962838888168335,
            -0.0003875853435602039,
            -0.008149665780365467,
            -0.0909668579697609,
            -0.03633439168334007,
            -0.060446351766586304,
            0.05514423921704292,
            0.04017592966556549,
            0.018915550783276558,
            0.12097320705652237,
            0.07316543161869049,
            0.015321725979447365,
            -0.029755719006061554,
            -0.049048081040382385,
            0.06098077818751335,
            0.08024469017982483,
            0.058918338268995285,
            0.027223898097872734,
            -0.035885874181985855,
            0.007158730644732714,
            0.0696149468421936,
            0.17180456221103668,
            0.10372242331504822,
            -0.029914941638708115,
            -0.11830585449934006,
            0.010016816668212414,
            0.13849851489067078,
            0.03234909847378731,
            0.08011865615844727,
            -0.16140232980251312,
            -0.1895906776189804,
            0.1912340223789215,
            0.013943862169981003,
            0.014057785272598267,
            -0.24223896861076355,
            -0.146989107131958,
            0.10508155822753906,
            -0.04521014541387558,
            -0.05545944347977638,
            -0.0352996401488781,
            -0.074677973985672,
            -0.01105370931327343,
            -0.09605402499437332,
            -0.05048142001032829,
            -0.05133812502026558,
            -0.1654738485813141,
            -0.013786246068775654,
            0.1363728791475296,
            0.0410279706120491,
            -0.043125301599502563,
            -0.06357099860906601,
            0.02505870908498764,
            0.202851802110672,
            -0.046891894191503525,
            -0.3204312324523926,
            -0.21983356773853302,
            0.07112179696559906,
            0.17399664223194122,
            0.21265959739685059,
            -0.08147682249546051,
            -0.14825241267681122,
            0.08288577944040298,
            0.011632001027464867,
            0.004218725487589836,
            -0.2417706996202469,
            -0.06728039681911469,
            0.12645170092582703,
            0.02841571345925331,
            0.05725228413939476,
            0.05401047691702843,
            0.001204809988848865,
            -0.05576258525252342,
            0.07780721038579941,
            -0.007924944162368774,
            -0.046802032738924026,
            -0.06932453066110611,
            -0.011739046312868595,
            0.058953821659088135,
            0.07478539645671844,
            0.04910368472337723,
            0.013735269196331501,
            0.0026536763180047274,
            0.04155685380101204,
            0.07821908593177795,
            0.009918036870658398,
            -0.06017844378948212,
            -0.018514160066843033,
            0.02240459993481636,
            0.062150876969099045,
            -0.03297519311308861,
            -0.053805187344551086,
            -0.05633297562599182,
            0.010686946101486683,
            -0.016020461916923523,
            -0.09813366085290909,
            0.06376533955335617,
            0.03231513500213623,
            -0.031641554087400436,
            -0.08280812948942184,
            0.053340163081884384,
            0.1109459325671196,
            -0.14012232422828674,
            -0.04071808606386185,
            -0.007933134213089943,
            0.050684936344623566,
            -0.039023932069540024,
            -0.05308590829372406,
            -0.004460294730961323,
            -0.020450016483664513,
            -0.035145457834005356,
            -0.1477254331111908,
            -0.0039336890913546085,
            -0.03185897693037987,
            -0.09623541682958603,
            0.02161591127514839,
            0.001808708067983389,
            0.07726416736841202,
            -0.017728682607412338,
            -0.01754213683307171,
            0.02836299128830433,
            0.04558379203081131,
            -0.22034047544002533,
            -0.03169207647442818,
            -0.00870529469102621,
            -0.005134268198162317,
            -0.15752319991588593,
            0.06778477132320404,
            0.0355612188577652,
            -0.014791562221944332,
            -0.17258846759796143,
            -0.09172073751688004,
            0.12991559505462646,
            -0.028718937188386917,
            -0.10223016142845154,
            -0.14332781732082367,
            0.049402691423892975,
            0.09565526247024536,
            -0.19802813231945038,
            0.01893138699233532,
            0.008249916136264801,
            0.03007126972079277,
            0.10820712149143219,
            -0.03945504501461983,
            -0.024259457364678383,
            0.027544941753149033,
            0.07257220894098282,
            -0.029123814776539803,
            -0.16907209157943726,
            -0.040323562920093536,
            0.049945469945669174,
            0.08869791775941849,
            -0.08083177357912064,
            -0.04014751687645912,
            -0.01687523163855076,
            0.07894765585660934,
            -0.07274926453828812,
            0.023512817919254303,
            -0.04907158389687538,
            -0.06488862633705139,
            -0.14484886825084686,
            -0.02490854263305664,
            0.05222967267036438,
            -0.08930712938308716,
            0.034453682601451874,
            0.023729974403977394,
            0.06257589906454086,
            0.10327940434217453,
            0.11214303970336914,
            0.06602302193641663,
            0.1666344404220581,
            -0.15684808790683746,
            0.16992607712745667,
            0.02550605870783329,
            -0.040377166122198105,
            -0.004799974616616964,
            0.25469157099723816,
            0.21370398998260498,
            -0.09495134651660919,
            -0.19884248077869415,
            0.09198269248008728,
            0.17104637622833252,
            -0.06672562658786774,
            -0.25594040751457214,
            -0.022000445052981377,
            0.05169037729501724,
            0.05370479077100754,
            -0.1265866756439209,
            -0.067221999168396,
            0.04336792603135109,
            -0.03345135226845741,
            -0.12312566488981247,
            -0.2603047490119934,
            0.011519522406160831,
            -0.09048301726579666,
            -0.06430624425411224,
            -0.04895463213324547,
            -0.26123106479644775,
            -0.127292662858963,
            -0.0188387930393219,
            0.08680234849452972,
            -0.13313399255275726,
            0.0815272256731987,
            0.007717518135905266,
            0.12155545502901077,
            0.10977530479431152,
            0.07222414761781693,
            -0.005123932380229235,
            -0.13217799365520477,
            -0.12887437641620636,
            0.08783158659934998,
            0.0351717434823513,
            -0.0033803079277276993,
            0.027416396886110306,
            0.12060458958148956,
            0.09970368444919586,
            0.03218984976410866,
            -0.0625147894024849,
            0.05107409507036209,
            -0.04933670163154602,
            -0.19062817096710205,
            -0.09807883203029633,
            -0.02297140099108219,
            -0.007485699374228716,
            0.10628413408994675,
            0.021893341094255447,
            -0.10202354937791824,
            -0.23850946128368378,
            -0.030194560065865517,
            0.0908409133553505,
            0.008629187941551208,
            0.09397666156291962,
            0.05579383671283722,
            -0.03818242624402046,
            -0.020131202414631844,
            -0.006278481334447861,
            0.039668891578912735,
            0.0675744116306305,
            0.048659440129995346,
            -0.007679556030780077,
            0.023132428526878357,
            0.012626437470316887,
            -0.0893261581659317,
            -0.21150948107242584,
            -0.0027651533018797636,
            -0.013648103922605515,
            -0.03466639295220375,
            -0.017469773069024086,
            -0.06125906482338905,
            -0.06713354587554932,
            0.11085427552461624,
            0.047371044754981995,
            0.15019074082374573,
            -0.01378562394529581,
            -0.0396115742623806,
            0.022422686219215393,
            -0.020837238058447838,
            0.13586053252220154,
            -0.03926564380526543,
            0.025694718584418297,
            -0.007749634329229593,
            0.029271859675645828,
            -0.00885136891156435,
            -0.004792252089828253,
            0.10483566671609879,
            -5.338537084753625e-05,
            0.1563967764377594,
            -0.11908555775880814,
            0.05425829812884331,
            0.10394938290119171,
            0.025013506412506104,
            0.0005558698903769255,
            -0.10628888756036758,
            -0.045260414481163025,
            0.10326582938432693,
            0.07282552123069763,
            0.042493827641010284,
            0.009789811447262764,
            -0.09010449051856995,
            0.11796843260526657,
            0.008548534475266933,
            -0.038180332630872726,
            -0.02352229692041874,
            -0.04593292251229286,
            0.08096137642860413,
            -0.03744730353355408,
            -0.1192474514245987,
            -0.27720168232917786,
            0.07439590990543365,
            0.06183725968003273,
            -0.09238018095493317,
            -0.15523377060890198,
            -0.20865200459957123,
            -0.06993269920349121,
            0.0011188109638169408,
            0.05085454508662224,
            0.08369718492031097,
            0.035671014338731766,
            -0.04341087490320206,
            0.016125984489917755,
            0.08425405621528625,
            0.11764571815729141,
            0.15191048383712769,
            -0.06529858708381653,
            0.03525146096944809,
            0.04964079335331917,
            0.02729126252233982,
            0.04351571202278137,
            0.0035419524647295475,
            0.09042546153068542,
            0.01680818200111389,
            0.04109112173318863,
            -0.11829110980033875,
            0.08747705072164536,
            0.11952915787696838,
            0.05556440353393555,
            -0.010884478688240051,
            -0.23775802552700043,
            0.08073024451732635,
            0.11464152485132217,
            0.13013140857219696,
            -0.17418037354946136,
            -0.07556125521659851,
            -0.1271333396434784,
            0.0630204975605011,
            -0.09025594592094421,
            -0.14979444444179535,
            -0.13930515944957733,
            -0.08054374903440475,
            -0.13733479380607605,
            -0.20058956742286682,
            -0.19689153134822845,
            -0.014356383122503757,
            -0.08863428235054016,
            -0.2962329387664795,
            -0.10041595250368118,
            -0.146102175116539,
            0.06987523287534714,
            0.04424537345767021,
            -0.19776111841201782,
            -0.15259459614753723,
            -0.03848917409777641,
            0.08366873860359192,
            0.04954858124256134,
            0.09174954146146774,
            0.16382919251918793,
            0.043529391288757324,
            -0.03779800981283188,
            -0.023094022646546364,
            0.05273536592721939,
            0.05365560203790665,
            0.03705795109272003,
            0.0014130279887467623,
            -0.016206346452236176,
            -0.025889314711093903,
            -0.06881263852119446,
            -0.20560161769390106,
            -0.2999975383281708,
            -0.044754017144441605,
            -0.23866787552833557,
            -0.23710229992866516,
            -0.24932049214839935,
            -0.035602010786533356,
            0.031582310795784,
            -0.2044793665409088,
            -0.23242025077342987,
            -0.25204727053642273,
            -0.0782352015376091,
            -0.2524961531162262,
            -0.18117433786392212,
            -0.1268419623374939,
            -0.15440213680267334,
            -0.02760322019457817,
            -0.05727192014455795,
            -0.03947440907359123,
            -0.04290665686130524,
            -0.011062579229474068,
            0.036449331790208817,
            0.05539993196725845,
            0.0722913146018982,
            0.09971942007541656,
            0.13680148124694824,
            0.1250593662261963,
            -0.0178889911621809,
            0.012743678875267506,
            -0.027705499902367592,
            0.033350080251693726,
            0.08455181121826172,
            0.0023827101103961468,
            -0.22285182774066925,
            -0.17502374947071075,
            0.031268730759620667,
            0.0670168474316597,
            -0.009222904220223427,
            -0.053848013281822205,
            -0.03231135010719299,
            -0.022039588540792465,
            0.009342889301478863,
            -0.02293349616229534,
            0.02957221120595932,
            0.053390298038721085,
            0.08850282430648804,
            0.046777039766311646,
            -0.09991783648729324,
            -0.03543917462229729,
            -0.0446673147380352,
            -0.16371695697307587,
            -0.025417756289243698,
            -0.17846569418907166,
            -0.18014000356197357,
            -0.10456230491399765,
            -0.03919527679681778,
            0.029241221025586128,
            0.052178893238306046,
            0.12301331758499146,
            0.06273061782121658,
            0.051610905677080154,
            0.030694829300045967,
            0.02976253628730774,
            0.06616821140050888,
            0.04429411515593529,
            -0.030713222920894623,
            0.04337741434574127,
            0.06055571883916855,
            0.07777963578701019,
            -0.006559703964740038,
            -0.08198486268520355,
            -0.044179584830999374,
            0.007226512301713228,
            -0.03701917454600334,
            -0.19710209965705872,
            -0.1514568030834198,
            -0.05580928176641464,
            0.015566702000796795,
            -0.020028240978717804,
            -0.011680391617119312,
            0.01717843860387802,
            0.012528213672339916,
            0.11164731532335281,
            0.02351827174425125,
            -0.013951302506029606,
            0.00677602319046855,
            0.04532872885465622,
            0.02996501512825489,
            0.05869513005018234,
            0.09311629831790924,
            0.09657429903745651,
            0.12070395052433014,
            -0.004519975278526545,
            0.04161703214049339,
            0.07741162925958633,
            0.09695080667734146,
            0.0996936708688736,
            -0.07408366352319717,
            -0.07938618957996368,
            -0.1539117693901062,
            -0.05210272967815399,
            0.0029870430007576942,
            -0.14134743809700012,
            -0.013264809735119343,
            0.06510485708713531,
            0.07225767523050308,
            0.08052799850702286,
            0.01357699278742075,
            0.05002957955002785,
            0.016484173014760017,
            0.0010844358475878835,
            0.018054086714982986,
            0.07678685337305069,
            -0.006424300838261843,
            -0.0005947330500930548,
            -0.16131696105003357,
            -0.23643837869167328,
            0.05820462107658386,
            -0.006755371578037739,
            -0.22066152095794678,
            -0.14725399017333984,
            -0.1198066845536232,
            -0.17678751051425934,
            -0.08117356896400452,
            0.0331689678132534,
            0.07347401231527328,
            -0.05497826263308525,
            0.042438529431819916,
            0.048418596386909485,
            0.05735998600721359,
            -0.06809528172016144,
            -0.0768493264913559,
            0.05654572322964668,
            -0.10272714495658875,
            -0.23489993810653687,
            -0.07963122427463531,
            0.060693543404340744,
            0.018112944439053535,
            0.11434241384267807,
            0.09141125530004501,
            0.17451779544353485,
            0.07057122886180878,
            -0.025865906849503517,
            0.0870857760310173,
            0.12115219235420227,
            -0.017252307385206223,
            -0.02633858099579811,
            -0.1446782499551773,
            -0.17956961691379547,
            -0.02183588780462742,
            -0.05405315384268761,
            -0.08548504114151001,
            0.09650170803070068,
            0.2440604269504547,
            0.21024750173091888,
            0.14837272465229034,
            -0.0129163209348917,
            0.1551693081855774,
            0.11533917486667633,
            0.04237162321805954,
            0.01182147953659296,
            0.04215840995311737,
            -0.016783826053142548,
            -0.01999760791659355,
            -0.07539115846157074,
            -0.045889392495155334,
            0.03371892124414444,
            0.012085488997399807,
            0.03982842341065407,
            0.034123364835977554,
            0.011924983002245426,
            0.0326627753674984,
            -0.002840636298060417,
            0.03434442728757858,
            0.12464797496795654,
            0.12831056118011475,
            -0.08225489407777786,
            -0.09495159983634949,
            -0.10591357201337814,
            -0.04219174012541771,
            -0.11900869756937027,
            -0.1312643140554428,
            -0.01025090366601944,
            -0.1447010636329651,
            -0.22893327474594116,
            -0.09111252427101135,
            0.05689531937241554,
            -0.019130855798721313,
            -0.0091427406296134,
            -0.04522720351815224,
            0.020112507045269012,
            0.18729659914970398,
            0.03205524757504463,
            -0.016559308394789696,
            -0.006154033821076155,
            0.07780560851097107,
            0.058169275522232056,
            0.020610006526112556,
            -0.011059985496103764,
            -0.17197979986667633,
            -0.23632097244262695,
            -0.20576100051403046,
            0.057950276881456375,
            -0.027430275455117226,
            -0.023025019094347954,
            -0.009000171907246113,
            -0.03772976994514465,
            0.061752937734127045,
            0.07216229289770126,
            0.1409253627061844,
            0.08804032951593399,
            0.03638537600636482,
            0.04895709082484245,
            0.008403602987527847,
            0.02569740265607834,
            0.01226502750068903,
            -0.03977051377296448,
            0.04498162120580673,
            -0.00485218083485961,
            -0.020001240074634552,
            -0.10223165899515152,
            -0.18125814199447632,
            0.040184855461120605,
            -0.06428525596857071,
            -0.15698565542697906,
            -0.22223035991191864,
            -0.048357825726270676,
            0.01935950666666031,
            -0.14026188850402832,
            -0.068651482462883,
            -0.0541381761431694,
            -0.0251779742538929,
            0.01838752254843712,
            -0.04493166133761406,
            -0.07584696263074875,
            -0.05179813131690025,
            0.006070006173104048,
            0.02154485322535038,
            -0.008276844397187233,
            0.04536008462309837,
            0.12904126942157745,
            0.11476720869541168,
            0.021604599431157112,
            0.006827586330473423,
            0.02132689394056797,
            0.06081128492951393,
            -0.0831586942076683,
            0.017735596746206284,
            -0.09711268544197083,
            -0.2161645144224167,
            -0.21272873878479004,
            -0.09795524179935455,
            0.07149920612573624,
            0.017641466110944748,
            0.07691703736782074,
            0.07766485959291458,
            0.03227272257208824,
            0.05542449280619621,
            0.07678807526826859,
            0.09574007242918015,
            0.06665527075529099,
            0.06099721044301987,
            -0.0365019217133522,
            0.06845436245203018,
            0.03776179626584053,
            -0.07922863960266113,
            0.05036400258541107,
            0.03756788745522499,
            -0.11210402101278305,
            -0.16507305204868317,
            0.06345441937446594,
            0.2942558825016022,
            -0.20591987669467926,
            -0.04102481156587601,
            0.08601047098636627,
            0.15998221933841705,
            0.21207310259342194,
            -0.0177159421145916,
            0.07050072401762009,
            -0.0006171416607685387,
            -0.13098378479480743,
            -0.1093057245016098,
            -0.04851174354553223,
            -0.055180009454488754,
            -0.14152301847934723,
            -0.019164439290761948,
            -0.13257940113544464,
            -0.07700246572494507,
            -0.10185545682907104,
            0.019393866881728172,
            0.12866772711277008,
            -0.03582388907670975,
            -0.08930917829275131,
            -0.08695347607135773,
            0.08472992479801178,
            0.09553549438714981,
            0.0933338850736618,
            -0.26667261123657227,
            -0.15063366293907166,
            0.11655024439096451,
            0.23653317987918854,
            0.26248225569725037,
            -0.04295416548848152,
            0.17516300082206726,
            0.2500936985015869,
            0.19507063925266266,
            0.13870611786842346,
            -0.07168760150671005,
            0.061627183109521866,
            0.04565487056970596,
            0.08307081460952759,
            -0.01885451190173626,
            -0.012001262046396732,
            0.09724132716655731,
            -0.10579817742109299,
            0.02020663395524025,
            -0.0017079537501558661,
            -0.0058829630725085735,
            0.1811257302761078,
            -0.04482503607869148,
            -0.021371660754084587,
            0.04676268622279167,
            -0.12631815671920776,
            0.14305700361728668,
            0.035173866897821426,
            -0.21419773995876312,
            0.0005063737626187503,
            -0.1302623450756073,
            0.10743480920791626,
            0.048436716198921204,
            -0.18682979047298431,
            -0.053612131625413895,
            -0.05498091131448746,
            0.11115958541631699,
            -0.024029631167650223,
            -0.10819755494594574,
            -0.058583952486515045,
            0.010859973728656769,
            -0.002927967580035329,
            0.09471707046031952,
            -0.12375965714454651,
            -0.026904283091425896,
            -0.028738301247358322,
            -0.05509265139698982,
            0.23658113181591034,
            -0.07418621331453323,
            -0.1386188417673111,
            -0.08013223111629486,
            -0.010669318027794361,
            0.19500495493412018,
            -0.1014987900853157,
            -0.04402725771069527,
            -0.11769799143075943,
            0.044758450239896774,
            0.11259718984365463,
            -0.06080169230699539,
            -0.012890077196061611,
            -0.10434819757938385,
            -0.03983048349618912,
            0.05612592771649361,
            0.02727319858968258,
            0.03463764861226082,
            0.029172757640480995,
            0.090770423412323,
            -0.06535056233406067,
            -0.09981323033571243,
            0.11040663719177246,
            -0.05909618362784386,
            0.09774791449308395,
            0.008945006877183914,
            -0.09070473164319992,
            0.13219322264194489,
            -0.06287043541669846,
            0.22638584673404694,
            0.08157144486904144,
            -0.07415003329515457,
            0.1204204186797142,
            -0.0693589374423027,
            0.15243089199066162,
            -0.06970825791358948,
            -0.059958748519420624,
            0.054926346987485886,
            -0.07784618437290192,
            0.14431598782539368,
            -0.14104428887367249,
            -0.10141371935606003,
            -0.015530932694673538,
            0.0058412556536495686,
            0.06962108612060547,
            -0.020684748888015747,
            -0.1375582218170166,
            -0.06370719522237778,
            -0.09770204871892929,
            0.0025058453902602196,
            0.0339290127158165,
            -0.20427249372005463,
            -0.02153860218822956,
            -0.1157984733581543,
            0.0936535894870758,
            0.06640512496232986,
            -0.16661475598812103,
            0.0275347251445055,
            -0.1248883381485939,
            0.043556977063417435,
            0.008402293547987938,
            0.0027022415306419134,
            0.05955792963504791,
            -0.10937505215406418,
            0.06402948498725891,
            0.038532741367816925,
            0.024863094091415405,
            0.035505302250385284,
            -0.015214909799396992,
            -0.0008255132124759257,
            -0.09909223765134811,
            -0.02682620659470558,
            -0.08279193937778473,
            0.020821096375584602,
            0.07396693527698517,
            -0.12301584333181381,
            0.03473208099603653,
            -0.04780185967683792,
            0.12536075711250305,
            -0.009225676767528057,
            -0.057996999472379684,
            0.14155486226081848,
            -0.2356616109609604,
            0.06236232817173004,
            -0.09213931113481522,
            0.05424213036894798,
            0.1022438332438469,
            -0.09165595471858978,
            0.05080021545290947,
            -0.13653124868869781,
            -0.09871412813663483,
            -0.007537034340202808,
            0.028980465605854988,
            0.1684063822031021,
            0.06556269526481628,
            0.033947743475437164,
            -0.06240912526845932,
            0.08285427838563919,
            0.0010770747903734446,
            -0.06000620126724243,
            -0.15200550854206085,
            -0.18217833340168,
            0.09390786290168762,
            0.09672462940216064,
            -0.0419241227209568,
            -0.25436607003211975,
            -0.04273141920566559,
            -0.039506420493125916,
            0.021995550021529198,
            -0.19509723782539368,
            -0.07756365090608597,
            0.09725803881883621,
            0.014219650998711586,
            0.03237348049879074,
            -0.15159966051578522,
            -0.06385147571563721,
            0.08636670559644699,
            0.021866321563720703,
            0.09121747314929962,
            0.09897080808877945,
            0.08041860163211823,
            -0.06176942586898804,
            0.032638195902109146,
            0.047379087656736374,
            0.0339222252368927,
            0.16809839010238647,
            -0.1411707103252411,
            -0.09084860235452652,
            0.042832374572753906,
            0.0231645405292511,
            0.1330808699131012,
            -0.09687168896198273,
            -0.01590287685394287,
            0.054132889956235886,
            0.05181790143251419,
            -0.031039509922266006,
            -0.30438899993896484,
            0.007666308432817459,
            0.0014108589384704828,
            0.008326718583703041,
            -0.08736637979745865,
            -0.1943475902080536,
            0.00619214354082942,
            -0.00030907877953723073,
            0.020889539271593094,
            -0.03180664777755737,
            -0.06207607313990593,
            -0.1869504153728485,
            0.024316754192113876,
            0.0911451131105423,
            0.04022517055273056,
            0.01845959760248661,
            -0.26494330167770386,
            0.038924600929021835,
            0.048773784190416336,
            0.1355004608631134,
            0.00514158234000206,
            -0.09671817719936371,
            -0.011999547481536865,
            -0.003629838116466999,
            0.14771096408367157,
            -0.11067136377096176,
            0.0013741832226514816,
            -0.0009774711215868592,
            0.08585356175899506,
            0.0679250955581665,
            -0.16530540585517883,
            -0.03037775494158268,
            -0.0133272185921669,
            -0.11974545568227768,
            -0.12029518187046051,
            -0.08739607781171799,
            0.1878567785024643,
            0.05495018884539604,
            -0.024592051282525063,
            -0.05763937905430794,
            -0.2599664628505707,
            0.26160645484924316,
            0.060034699738025665,
            0.01758204959332943,
            -0.004443651530891657,
            -0.23050040006637573,
            0.20208454132080078,
            0.024156110361218452,
            0.05196110159158707,
            0.004449716303497553,
            -0.0799291804432869,
            0.16268311440944672,
            0.04250594973564148,
            0.08306889235973358,
            -0.10721419006586075,
            -0.011760721914470196,
            0.10688859969377518,
            0.0143231600522995,
            0.01573885977268219,
            -0.07840932160615921,
            -0.19498427212238312,
            -0.16302725672721863,
            0.04576968774199486,
            0.0717165395617485,
            0.04493813216686249,
            -0.18217125535011292,
            -0.0765295997262001,
            0.027867918834090233,
            0.06469792872667313,
            0.07830137759447098,
            -0.22359533607959747,
            -0.02752259187400341,
            -0.020007869228720665,
            0.04676615819334984,
            0.06487984210252762,
            -0.14875099062919617,
            0.012252856977283955,
            0.025614742189645767,
            0.08629988878965378,
            -0.020762771368026733,
            -0.13208895921707153,
            -0.019228095188736916,
            -0.001515587093308568,
            -0.033661022782325745,
            -0.05273450165987015,
            -0.13943485915660858,
            -0.03553147614002228,
            0.060541342943906784,
            -0.004688126966357231,
            -0.09391960501670837,
            -0.06131863594055176,
            0.17313800752162933,
            -0.009595251642167568,
            0.09044018387794495,
            -0.16564978659152985,
            0.13247466087341309,
            0.1480780839920044,
            0.09515393525362015,
            0.07431548833847046,
            -0.05333993211388588,
            0.2264208346605301,
            -0.0036954586394131184,
            0.1543741077184677,
            0.002628371585160494,
            0.10995715856552124,
            0.1416696459054947,
            -0.1226707473397255,
            -0.029578344896435738,
            -0.03112201765179634,
            -0.1161532998085022,
            -0.21750690042972565,
            -0.0814620777964592,
            0.08650291711091995,
            0.07389889657497406,
            -0.029549449682235718,
            -0.31783273816108704,
            0.12922801077365875,
            0.02185867168009281,
            0.04890766367316246,
            -0.12740132212638855,
            -0.2407512068748474,
            0.10108275711536407,
            -0.10025790333747864,
            0.05808667093515396,
            -0.1370779424905777,
            -0.06630419194698334,
            0.04014260694384575,
            0.01074736937880516,
            0.003565628081560135,
            -0.12141501903533936,
            0.0034581280779093504,
            -0.008973282761871815,
            0.010390259325504303,
            0.03427886217832565,
            -0.020630262792110443,
            -0.06424441188573837,
            0.19322742521762848,
            -0.01984216645359993,
            -0.10007220506668091,
            -0.039425112307071686,
            0.05011804401874542,
            0.09570208191871643,
            -0.07312387228012085,
            -0.1339462697505951,
            -0.013848681934177876,
            0.17015299201011658,
            -0.028169555589556694,
            0.004146798048168421,
            -0.07145572453737259,
            0.014469387009739876,
            0.11273671686649323,
            0.0359310507774353,
            -0.01939195580780506,
            -0.05720238387584686,
            -0.04278423264622688,
            0.15271295607089996,
            0.15138855576515198,
            0.057921845465898514,
            0.04547382891178131,
            -0.003539957106113434,
            0.019518442451953888,
            -0.05090571194887161,
            0.036128658801317215,
            -0.08133747428655624,
            0.06010403484106064,
            0.06835401803255081,
            -0.01208545733243227,
            -0.08150510489940643,
            0.012382201850414276,
            0.04483388736844063,
            0.015628673136234283,
            0.018619369715452194,
            -0.07685218006372452,
            0.01460685022175312,
            -0.06245537847280502,
            0.07730662077665329,
            0.041926708072423935,
            -0.09668903797864914,
            0.05090932175517082,
            0.024034572765231133,
            0.03570184484124184,
            0.03806282952427864,
            0.0920431837439537,
            -0.030287474393844604,
            0.056102972477674484,
            -0.10499035567045212,
            -0.001272042514756322,
            0.05936432629823685,
            0.03761783242225647,
            0.034810055047273636,
            -0.17520663142204285,
            -0.17219068109989166,
            0.030279766768217087,
            0.025312524288892746,
            -0.048077575862407684,
            -0.1194024309515953,
            -0.21363043785095215,
            0.04571932926774025,
            0.0549691803753376,
            -0.05359932407736778,
            0.017500057816505432,
            -0.05307292938232422,
            0.06773444265127182,
            0.02427304908633232,
            -0.07394307106733322,
            0.05618235096335411,
            -0.0025931030977517366,
            0.04033868387341499,
            -0.003353358246386051,
            0.07250722497701645,
            0.03301689773797989,
            -0.0773380845785141,
            -0.024991096928715706,
            0.025712881237268448,
            0.13079415261745453,
            0.07380543649196625,
            -0.15959344804286957,
            -0.10689637809991837,
            0.04208743944764137,
            0.03811059519648552,
            0.022117506712675095,
            -0.10284586250782013,
            -0.10637468844652176,
            0.0008701258338987827,
            -0.00013362415484152734,
            0.07991810888051987,
            0.06581404060125351,
            -0.07602690160274506,
            -0.030253594741225243,
            -0.031960777938365936,
            0.011986558325588703,
            0.027496175840497017,
            -0.20517316460609436,
            0.1740097850561142,
            0.12917649745941162,
            -0.19311752915382385,
            -0.1336967945098877,
            0.05224808678030968,
            0.2409493327140808,
            -0.028122633695602417,
            -0.2581239342689514,
            -0.23558680713176727,
            0.17554722726345062,
            0.12894687056541443,
            0.10868676751852036,
            -0.13987991213798523,
            -0.2182931900024414,
            0.0947834849357605,
            0.24272483587265015,
            0.1541069746017456,
            -0.2390184849500656,
            -0.10515059530735016,
            0.10717666149139404,
            0.18803656101226807,
            0.12378188967704773,
            0.15616682171821594,
            -0.06091476231813431,
            -0.09863826632499695,
            -0.0780525729060173,
            0.11573024839162827,
            0.13322505354881287,
            -0.21894466876983643,
            -0.048223305493593216,
            0.11093515157699585,
            0.13736096024513245,
            -0.009368042461574078,
            -0.28248563408851624,
            0.029341677203774452,
            0.11711206287145615,
            -0.015292534604668617,
            -0.1384287327528,
            -0.20862753689289093,
            0.04417169839143753,
            0.09799336642026901,
            0.06236429512500763,
            -0.09852390736341476,
            -0.12223504483699799,
            0.0017526507144793868,
            0.05250106379389763,
            -0.06419650465250015,
            -0.36625808477401733,
            -0.17308048903942108,
            -0.013842913322150707,
            -0.32187822461128235,
            -0.21577821671962738,
            -0.2011328488588333,
            -0.20531176030635834,
            -0.035702481865882874,
            -0.16993770003318787,
            -0.23334071040153503,
            -0.11922637373209,
            -0.17342650890350342,
            -0.059894267469644547,
            0.018338724970817566,
            0.0982724279165268,
            0.08756852149963379,
            0.015459971502423286,
            -0.09735474735498428,
            0.016362929716706276,
            0.15108679234981537,
            0.09105981886386871,
            0.028395578265190125,
            -0.07989808917045593,
            -0.15777912735939026,
            0.006268602330237627,
            -0.09889871627092361,
            -0.08144925534725189,
            -0.020503677427768707,
            -0.09149440377950668,
            -0.26777884364128113,
            -0.06660820543766022,
            -0.03951357305049896,
            -0.00445267278701067,
            -0.03480655327439308,
            0.13530611991882324,
            0.08680371940135956,
            0.07971442490816116,
            0.021068397909402847,
            0.02650165930390358,
            0.13531066477298737,
            0.07589919120073318,
            0.08077839761972427,
            0.05922837555408478,
            -0.028093798086047173,
            -0.06398764252662659,
            -0.07421737164258957,
            -0.18559905886650085,
            0.09015949070453644,
            -0.050270501524209976,
            -0.25154316425323486,
            -0.013910309411585331,
            -0.265571653842926,
            0.04433681443333626,
            -0.14499561488628387,
            0.045717351138591766,
            0.03770601749420166,
            -0.05762694031000137,
            0.05707601085305214,
            -0.0168157871812582,
            0.067457415163517,
            0.018630022183060646,
            -0.017319204285740852,
            0.05334014818072319,
            -0.021815605461597443,
            -0.018603309988975525,
            -0.11283604055643082,
            -0.014961058273911476,
            0.011103971861302853,
            -0.1452597975730896,
            -0.06934528797864914,
            -0.03994361311197281,
            -0.028484204784035683,
            0.03933317959308624,
            -0.19045500457286835,
            0.08266661316156387,
            -0.03152981027960777,
            0.018108880147337914,
            -0.051567189395427704,
            -0.12624794244766235,
            -0.038171324878931046,
            -0.0075669786892831326,
            -0.02435009740293026,
            0.031184706836938858,
            0.044313885271549225,
            0.11243043839931488,
            0.09138613194227219,
            0.07120417058467865,
            0.046635519713163376,
            0.05868927761912346,
            0.016109488904476166,
            -0.006584337912499905,
            0.01137059647589922,
            0.04600628465414047,
            -0.02360638417303562,
            -0.1425670087337494,
            -0.19030265510082245,
            -0.18878887593746185,
            0.05619484931230545,
            -0.16183438897132874,
            -0.10208026319742203,
            -0.11145564913749695,
            -0.19817470014095306,
            -0.3027489185333252,
            -0.008980551734566689,
            -0.022890547290444374,
            -0.11094482243061066,
            0.033670246601104736,
            -0.10671227425336838,
            0.08882243931293488,
            -0.02118709310889244,
            -0.07658548653125763,
            -0.06839378923177719,
            -0.062808558344841,
            -0.12456168979406357,
            -0.13981564342975616,
            0.08926371484994888,
            0.08276345580816269,
            -0.13720624148845673,
            -0.045013442635536194,
            0.11841285973787308,
            0.04078279808163643,
            0.034903984516859055,
            -0.0674731656908989,
            0.07111858576536179,
            -0.013718477450311184,
            -0.10113844275474548,
            0.001704029506072402,
            -0.14616166055202484,
            -0.0489685982465744,
            0.11271151155233383,
            0.08970349282026291,
            0.06776545941829681,
            -0.10783351212739944,
            0.12740159034729004,
            0.19770823419094086,
            0.2598061263561249,
            0.17260363698005676,
            -0.013366563245654106,
            0.011304271407425404,
            0.03011179156601429,
            -0.035237669944763184,
            0.03830340877175331,
            0.0330863818526268,
            -0.06730972230434418,
            0.10004150122404099,
            0.12335483729839325,
            0.027462063357234,
            -0.09256754070520401,
            0.006042149383574724,
            -0.005410117097198963,
            -0.09281517565250397,
            -0.00820931326597929,
            -0.005035209469497204,
            0.018036752939224243,
            -0.0840468630194664,
            -0.19417569041252136,
            -0.034190062433481216,
            -0.009178112260997295,
            0.14476889371871948,
            0.16661658883094788,
            -0.050712522119283676,
            -0.13976968824863434,
            -0.10528328269720078,
            -0.043806422501802444,
            0.20166848599910736,
            0.2460877001285553,
            0.03871000185608864,
            -0.012387645430862904,
            -0.2627703845500946,
            -0.014513553120195866,
            0.23434875905513763,
            0.2041807770729065,
            -0.027323899790644646,
            0.04521402344107628,
            -0.10632385313510895,
            -0.09846986085176468,
            0.14737945795059204,
            0.05638714134693146,
            0.013743349350988865,
            0.01495544333010912,
            0.023563651368021965,
            -0.02123473584651947,
            0.07348912209272385,
            -0.05123089253902435,
            -0.09918378293514252,
            0.09076951444149017,
            0.10367263108491898,
            0.07142627239227295,
            -0.06743865460157394,
            -0.3518289029598236,
            -0.04354779049754143,
            0.05176663398742676,
            0.06037049740552902,
            0.10408633202314377,
            0.013349533081054688,
            -0.23794995248317719,
            -0.13048098981380463,
            -0.10731247812509537,
            0.045743055641651154,
            0.1092243641614914,
            0.022587940096855164,
            -0.19803136587142944,
            -0.036266375333070755,
            -0.025383327156305313,
            0.03836430236697197,
            0.05516033619642258,
            0.0667276382446289,
            -0.06552174687385559,
            -0.09959010779857635,
            -0.04721073806285858,
            0.044816359877586365,
            -0.014813086949288845,
            -0.08175807446241379,
            -0.12793035805225372,
            -0.15542322397232056,
            -0.04560406506061554,
            0.05817774683237076,
            0.0375116728246212,
            0.08909237384796143,
            -0.09033525735139847,
            -0.08943713456392288,
            0.03976677730679512,
            0.03784198686480522,
            0.2030792385339737,
            0.020792827010154724,
            -0.1206318587064743,
            0.1041395366191864,
            -0.008630165830254555,
            0.0024721110239624977,
            -0.001894903602078557,
            0.015334758907556534,
            0.029578281566500664,
            0.014833740890026093,
            -0.10622146725654602,
            -0.10055272281169891,
            0.06444098800420761,
            0.10495872795581818,
            0.018241049721837044,
            -0.11051711440086365,
            -0.2885034382343292,
            -0.10211727768182755,
            0.05887369066476822,
            -0.05808207020163536,
            0.036905065178871155,
            -0.055721085518598557,
            -0.16669771075248718,
            -0.08460167050361633,
            -0.05853032320737839,
            0.08743928372859955,
            0.05616331472992897,
            -0.10343416035175323,
            -0.019516052678227425,
            -0.06585270911455154,
            -0.051712024956941605,
            0.02939712069928646,
            0.16482336819171906,
            0.08576327562332153,
            0.062047429382801056,
            -0.14936195313930511,
            -0.11496423184871674,
            -0.03960314765572548,
            0.10107551515102386,
            0.15121866762638092,
            -0.0456874817609787,
            -0.2465757131576538,
            -0.1578742265701294,
            0.10557160526514053,
            0.2557723820209503,
            0.1808229237794876,
            -0.10509391129016876,
            -0.13061900436878204,
            -0.06177234277129173,
            0.2342538982629776,
            0.2343406081199646,
            0.0890362411737442,
            -0.04493316635489464,
            0.0063555738888680935,
            0.0659201592206955,
            -0.02143571339547634,
            0.01925079897046089,
            0.11683903634548187,
            0.07906549423933029,
            0.019750166684389114,
            -0.21189330518245697,
            -0.19001899659633636,
            0.050368357449769974,
            0.1336980015039444,
            0.014556233771145344,
            -0.025808988139033318,
            -0.27820250391960144,
            -0.14438877999782562,
            0.13166376948356628,
            0.05503048747777939,
            0.23751123249530792,
            0.11969315260648727,
            -0.1411210149526596,
            -0.008011640049517155,
            0.13169629871845245,
            0.17190517485141754,
            0.15881742537021637,
            -0.03635743260383606,
            -0.017982913181185722
        ],
        "kernel_col": 16,
        "kernel_row": 150,
        "kernel_shape": [
            5,
            5,
            6,
            16,
            1,
            1
        ],
        "layer_type": "Conv",
        "pad_shape": [
            0,
            0
        ]
    },
    "layer4": {
        "layer_type": "Pooling",
        "pooling_shape": [
            2,
            2,
            2,
            2
        ]
    },
    "layer5": {
        "activation": 0,
        "bias": [
            -0.23771007359027863,
            0.031641557812690735,
            -0.03810017183423042,
            -0.14163348078727722,
            0.0016861167969182134,
            -0.02130608819425106,
            -0.17324763536453247,
            -0.1339503526687622,
            0.03037249483168125,
            0.198258176445961,
            -0.02332323044538498,
            0.18533706665039063,
            -0.16276901960372925,
            -0.07825023680925369,
            0.06032624840736389,
            0.1601480096578598,
            -0.05031216889619827,
            0.1768253594636917,
            0.1393781304359436,
            0.297614723443985,
            -0.05406126379966736,
            0.011529839597642422,
            0.014283319935202599,
            -0.07372340559959412,
            0.25062572956085205,
            0.20354688167572021,
            -0.03463350981473923,
            0.08289669454097748,
            0.1523497849702835,
            -0.1623348742723465,
            0.05213629826903343,
            -0.26054805517196655,
            0.07918619364500046,
            0.09468844532966614,
            -0.010735065676271915,
            -0.10093735158443451,
            -0.010857144370675087,
            -0.14154651761054993,
            0.01044616661965847,
            0.07526223361492157,
            0.1009397879242897,
            0.0992719978094101,
            0.028758352622389793,
            -0.1868758648633957,
            0.007040276192128658,
            0.08225926756858826,
            0.21716521680355072,
            0.17593006789684296,
            0.15021012723445892,
            0.010974460281431675,
            -0.005856991745531559,
            0.19348026812076569,
            0.019793720915913582,
            -0.020910467952489853,
            -0.1560327410697937,
            0.07242988795042038,
            0.27258169651031494,
            -0.020987723022699356,
            0.0354391448199749,
            0.0008908280869945884,
            -0.004442069213837385,
            0.08349189162254333,
            0.17925375699996948,
            -0.03987288847565651,
            -0.12614202499389648,
            -0.0219571553170681,
            0.2869366705417633,
            0.03959750011563301,
            -0.0769769698381424,
            -0.060896679759025574,
            0.007744125556200743,
            -0.046447668224573135,
            -0.1381014883518219,
            -0.10519789904356003,
            -0.06726370006799698,
            0.22974522411823273,
            0.005379778798669577,
            0.15654830634593964,
            -0.009355328977108002,
            -0.011712872423231602,
            -0.26225271821022034,
            0.17693713307380676,
            0.02589580789208412,
            0.04326234385371208,
            -0.06329494714736938,
            -0.08135159313678741,
            0.07732819020748138,
            0.06435950845479965,
            -0.023985382169485092,
            -0.08518769592046738,
            0.06676067411899567,
            -0.07400540262460709,
            -0.0011754899751394987,
            0.12942548096179962,
            0.05450845882296562,
            -0.18446971476078033,
            -0.11051414906978607,
            -0.07492271065711975,
            0.027924539521336555,
            -0.019155394285917282,
            0.03602808341383934,
            -0.02994767762720585,
            0.11043336987495422,
            -0.09231641888618469,
            -0.14233645796775818,
            0.18927982449531555,
            0.06115669012069702,
            -0.1495702862739563,
            -0.0854896828532219,
            0.14906370639801025,
            0.21465936303138733,
            0.015438633970916271,
            0.08490639179944992,
            -0.05693376064300537,
            0.10301677137613297,
            0.1568862944841385,
            -0.008843719959259033,
            0.051284562796354294,
            0.2205238789319992,
            0.052571289241313934
        ],
        "layer_type": "Dense",
        "output_size": 120,
        "weight": [
            -0.04103022441267967,
            -0.14624303579330444,
            0.09393507242202759,
            -0.036771755665540695,
            0.08442271500825882,
            -0.11546667665243149,
            0.029758332297205925,
            -0.003728788811713457,
            -0.02447114698588848,
            0.021036533638834953,
            -0.056246306747198105,
            0.11238355934619904,
            -0.02922714874148369,
            0.002722970675677061,
            0.03709663078188896,
            -0.021394293755292892,
            0.03279721736907959,
            0.06656776368618011,
            0.06901685893535614,
            0.005490226671099663,
            0.14219723641872406,
            -0.08663015067577362,
            -0.03706696629524231,
            0.13292987644672394,
            0.008690998889505863,
            -0.08873232454061508,
            -0.11705667525529861,
            -0.043047867715358734,
            -0.0075165084563195705,
            0.03375155106186867,
            -0.025803063064813614,
            0.018472593277692795,
            -0.10442101210355759,
            -0.06418207287788391,
            -0.0002737996110226959,
            0.020006483420729637,
            -0.003990878816694021,
            -0.1802668422460556,
            0.033926092088222504,
            0.027821609750390053,
            0.14373882114887238,
            -0.06140504404902458,
            0.14136721193790436,
            -0.023624178022146225,
            -0.05094123259186745,
            -0.0449671633541584,
            -0.04058541730046272,
            0.0037761295679956675,
            -0.015475805848836899,
            0.10375289618968964,
            -0.03934182599186897,
            -0.03846766799688339,
            -0.0743473470211029,
            -0.059081051498651505,
            -0.03350789472460747,
            0.00258536241017282,
            0.04287924990057945,
            0.04651087149977684,
            0.018706057220697403,
            -0.06633523851633072,
            0.01627279818058014,
            0.05736815556883812,
            -0.020630380138754845,
            0.10895340144634247,
            -0.03799651935696602,
            0.10075557231903076,
            0.031724218279123306,
            0.06757955998182297,
            0.05325481668114662,
            0.008423242717981339,
            0.029487453401088715,
            -0.091800257563591,
            -0.09940870106220245,
            0.1086987629532814,
            0.05042797327041626,
            -0.027620606124401093,
            0.002904783934354782,
            -0.006752312183380127,
            0.014101741835474968,
            0.013007002882659435,
            -0.010442465543746948,
            0.04174642637372017,
            0.0002821988891810179,
            0.04411657899618149,
            -0.05313516780734062,
            -0.012690290808677673,
            0.0944165289402008,
            0.09724358469247818,
            -0.03929636999964714,
            -0.014089763164520264,
            0.07633473724126816,
            0.012575755827128887,
            -0.12001705914735794,
            0.007475391495972872,
            -0.05086701735854149,
            0.014035774394869804,
            0.02884216420352459,
            -0.006126761436462402,
            0.022888099774718285,
            0.06434997171163559,
            -0.011922908946871758,
            -0.02089627832174301,
            -0.028142962604761124,
            -0.007568296976387501,
            -0.07667595893144608,
            -0.023445909842848778,
            -0.1082552894949913,
            -0.05234815180301666,
            0.08601934462785721,
            0.049904629588127136,
            0.025324534624814987,
            0.028297461569309235,
            0.009855532087385654,
            0.0743943452835083,
            0.04746360331773758,
            -0.03116152435541153,
            -0.05830946937203407,
            -0.029763780534267426,
            0.012431541457772255,
            0.016886739060282707,
            -0.04006635770201683,
            -0.022153379395604134,
            0.0073261684738099575,
            0.05985752120614052,
            0.03998732939362526,
            0.08051181584596634,
            -0.06475798785686493,
            -0.006223122123628855,
            -0.010989443399012089,
            -0.0524790920317173,
            -0.0699976235628128,
            0.05109253153204918,
            0.06483381986618042,
            -0.01911255531013012,
            -0.004786098841577768,
            0.024228258058428764,
            -0.037144243717193604,
            0.00338356988504529,
            -0.07907193899154663,
            0.02489135041832924,
            0.21483083069324493,
            -0.02318640612065792,
            -0.07128559798002243,
            -0.008783220313489437,
            0.12925375998020172,
            0.10040821135044098,
            0.08138380944728851,
            0.05334622785449028,
            0.004152887035161257,
            0.09769716113805771,
            -0.11142697185277939,
            -0.061817433685064316,
            -0.0679403617978096,
            0.012344291433691978,
            -0.0206790491938591,
            -0.061507705599069595,
            0.16288752853870392,
            -0.05766219273209572,
            -0.02890198864042759,
            0.09045930206775665,
            -0.03019876591861248,
            -0.07221895456314087,
            0.01460711844265461,
            -0.0019722396973520517,
            -0.02881750650703907,
            0.0056617166846990585,
            0.005055457353591919,
            -0.0581076554954052,
            -0.13328637182712555,
            0.04677106812596321,
            0.04296727478504181,
            -0.08237463980913162,
            0.028516458347439766,
            -0.1704854816198349,
            -0.021230796352028847,
            0.031049702316522598,
            -0.0003540515317581594,
            -0.040701352059841156,
            -0.09577254205942154,
            -0.09093651920557022,
            0.1563718169927597,
            -0.03845357894897461,
            -0.011912176385521889,
            -0.029245242476463318,
            0.09855689853429794,
            0.05559949204325676,
            -0.0034234090708196163,
            0.04093046486377716,
            -0.03948464244604111,
            -0.08005932718515396,
            -0.0706283375620842,
            -0.07626860588788986,
            -0.06722932308912277,
            0.05524463951587677,
            0.07918645441532135,
            0.021511435508728027,
            -0.08538650721311569,
            -0.01789644919335842,
            0.07384766638278961,
            -0.07946022599935532,
            0.010845493525266647,
            -0.10673466324806213,
            0.042228814214468,
            0.05422960966825485,
            -0.025065258145332336,
            -0.06001311168074608,
            -0.059518955647945404,
            -0.11827851831912994,
            -0.04381873086094856,
            -0.09795276820659637,
            -0.012492108158767223,
            -0.11516278982162476,
            -0.013294331729412079,
            -0.05668837949633598,
            0.010959981940686703,
            -0.03778103366494179,
            0.051180534064769745,
            -0.04533611238002777,
            -0.0799468383193016,
            -0.010477294214069843,
            -0.03505641222000122,
            -0.12646302580833435,
            -0.07124398648738861,
            0.0871138647198677,
            -0.1786821335554123,
            0.06251941621303558,
            -0.08952242136001587,
            -0.07070759683847427,
            -0.17794473469257355,
            0.08665728569030762,
            0.09240423887968063,
            0.04347044602036476,
            0.007996381260454655,
            0.017570948228240013,
            0.11139243841171265,
            0.04309464618563652,
            -0.012601073831319809,
            0.009485587477684021,
            0.06305089592933655,
            -0.03741084411740303,
