{
    "input_shape": [
        28,
        28,
        1
    ],
    "layer1": {
        "activation": 0,
        "bias": [
            0.013098811730742455,
            -0.000554341939277947,
            0.3477919101715088,
            0.05959692969918251,
            0.37690499424934387,
            0.09036090970039368
        ],
        "kernel": [
            0.37446165084838867,
            0.4016076922416687,
            0.5767840147018433,
            0.4863210916519165,
            0.41652700304985046,
            0.05285933241248131,
            0.1749957799911499,
            0.3969922661781311,
            0.28785139322280884,
            0.36525458097457886,
            -0.02548159845173359,
            -0.028956538066267967,
            -0.09593264758586884,
            0.11693231761455536,
            0.368866890668869,
            -0.0021166838705539703,
            -0.1622157245874405,
            -0.12914690375328064,
            -0.2639470398426056,
            0.06828703731298447,
            -0.3376336395740509,
            -0.2631131708621979,
            -0.3298991918563843,
            -0.09316360950469971,
            -0.19849249720573425,
            -0.0843944326043129,
            -0.25644850730895996,
            -0.15545083582401276,
            0.3335607349872589,
            0.1436142474412918,
            0.2073068618774414,
            0.401719868183136,
            0.5174747705459595,
            0.4342108368873596,
            0.3559926152229309,
            0.4560684561729431,
            0.6590093970298767,
            0.9066810011863708,
            0.4499421715736389,
            0.255984902381897,
            0.46286794543266296,
            0.7222726941108704,
            0.5446093082427979,
            0.4745974838733673,
            -0.05875619128346443,
            0.1917441189289093,
            0.44814494252204895,
            0.43601515889167786,
            -0.02858617715537548,
            0.05884017422795296,
            -0.1641985923051834,
            -0.31354883313179016,
            -0.22923040390014648,
            0.09923805296421051,
            0.28186893463134766,
            -0.22531698644161224,
            -0.3368549644947052,
            -0.27734899520874023,
            0.09171454608440399,
            0.0313156396150589,
            -0.3036403954029083,
            -0.05018787831068039,
            0.07227770984172821,
            0.33997535705566406,
            0.21656276285648346,
            -0.14061914384365082,
            -0.147512286901474,
            0.18499428033828735,
            0.3807033896446228,
            0.47528886795043945,
            -0.039851270616054535,
            -0.04868651181459427,
            0.25745585560798645,
            0.5515492558479309,
            0.48963430523872375,
            -0.03936236351728439,
            -0.1419653743505478,
            0.27004489302635193,
            0.5376652479171753,
            0.31459423899650574,
            -0.14337892830371857,
            -0.20570257306098938,
            0.3069705665111542,
            0.9750229120254517,
            0.7292476296424866,
            -0.24903778731822968,
            0.018604129552841187,
            0.8957163691520691,
            1.22880220413208,
            0.9031602740287781,
            0.12450753152370453,
            0.37799006700515747,
            1.112352728843689,
            1.5584256649017334,
            0.8757960200309753,
            0.1339707374572754,
            0.3006614148616791,
            0.9388047456741333,
            1.164988398551941,
            0.9345833659172058,
            0.1920725405216217,
            0.16589736938476563,
            0.3691966235637665,
            0.26863789558410645,
            -0.0629621148109436,
            0.20022611320018768,
            0.1617310494184494,
            -0.05117589607834816,
            -0.13715314865112305,
            -0.2722558081150055,
            -0.00827897060662508,
            -0.23337876796722412,
            -0.2679769694805145,
            -0.37484869360923767,
            -0.3716014325618744,
            -0.23352734744548798,
            -0.20667104423046112,
            -0.3120962083339691,
            -0.31072184443473816,
            0.01724112033843994,
            -0.21057572960853577,
            -0.16162388026714325,
            0.020494036376476288,
            0.24861140549182892,
            0.27135881781578064,
            0.23755626380443573,
            0.12559983134269714,
            -0.03394827991724014,
            0.09972401708364487,
            0.012058359570801258,
            -0.05276767536997795,
            -0.15469716489315033,
            -0.09057150781154633,
            -0.17271587252616882,
            -0.1219005286693573,
            0.04664190858602524,
            -0.25414028763771057,
            -0.05200748145580292,
            -0.21494078636169434,
            0.14580050110816956,
            -0.20421355962753296,
            0.06697803735733032,
            -0.2041948288679123,
            0.10489558428525925,
            0.0689527839422226,
            -0.11916544288396835,
            0.15272216498851776,
            0.2905678153038025,
            0.3376150131225586,
            0.3809211552143097
        ],
        "kernel_col": 6,
        "kernel_row": 25,
        "kernel_shape": [
            5,
            5,
            1,
            6,
            1,
            1
        ],
        "layer_type": "Conv",
        "pad_shape": [
            2,
            2
        ]
    },
    "layer2": {
        "layer_type": "Pooling",
        "pooling_shape": [
            2,
            2,
            2,
            2
        ]
    },
    "layer3": {
        "activation": 0,
        "bias": [
            -0.014113087207078934,
            0.07066026329994202,
            -0.02730787917971611,
            0.01985582709312439,
            0.04149642959237099,
            0.02971598133444786,
            -0.03774537891149521,
            0.05918007344007492,
            0.029652705416083336,
            -0.02817516215145588,
            -0.06952124834060669,
            -0.011307979933917522,
            0.09453359246253967,
            -0.002225481905043125,
            -0.02069045417010784,
            -0.06686357408761978
        ],
        "kernel": [
            0.03257954493165016,
            0.05638705566525459,
            -0.2117982804775238,
            -0.19793424010276794,
            -0.02757558599114418,
            -0.18397338688373566,
            -0.20593200623989105,
            -0.16452397406101227,
            -0.051868416368961334,
            0.14418256282806396,
            0.002933213720098138,
            0.04599970579147339,
            -0.19159093499183655,
            -0.09778252243995667,
            0.2487686425447464,
            -0.10478688031435013,
            0.1421665996313095,
            -0.1054924875497818,
            0.22522467374801636,
            -0.13174675405025482,
            0.17958024144172668,
            -0.11205092072486877,
            -0.13866615295410156,
            0.1657329648733139,
            0.03303135558962822,
            -0.13656951487064362,
            -0.1735420674085617,
            -0.1295389086008072,
            0.10895919799804688,
            0.15097351372241974,
            -0.0761255994439125,
            -0.035208992660045624,
            0.003886575810611248,
            0.08187293261289597,
            0.16641466319561005,
            -0.15883874893188477,
            0.0060906303115189075,
            0.1882132887840271,
            0.04955501854419708,
            0.2146109640598297,
            0.05327136442065239,
            0.21250928938388824,
            0.21459846198558807,
            0.09602174162864685,
            -0.2137811779975891,
            0.10713251680135727,
            0.17979319393634796,
            0.17840567231178284,
            0.09469036757946014,
            0.07851316034793854,
            0.16916441917419434,
            0.05708220228552818,
            0.15306402742862701,
            0.2220630645751953,
            0.11384708434343338,
            -0.01944607123732567,
            -0.1381671130657196,
            0.1838068962097168,
            0.18629983067512512,
            -0.13954122364521027,
            0.053337208926677704,
            -0.0725053921341896,
            0.10506965965032578,
            -0.10364001244306564,
            0.040252309292554855,
            -0.06175629049539566,
            -0.06344907730817795,
            -0.10160285234451294,
            -0.212640181183815,
            0.024889564141631126,
            -0.10594063997268677,
            0.03767198324203491,
            -0.018722228705883026,
            0.14608384668827057,
            -0.07653973996639252,
            -0.025261836126446724,
            -0.0483575277030468,
            -0.25343790650367737,
            0.016928192228078842,
            0.15332359075546265,
            0.10288527607917786,
            -0.11279100924730301,
            0.03198232129216194,
            0.24954204261302948,
            0.08914253860712051,
            -0.17640936374664307,
            -0.004665403161197901,
            0.22289396822452545,
            0.20301532745361328,
            -0.11847187578678131,
            0.12061801552772522,
            0.095575250685215,
            0.1071130558848381,
            -0.1511775702238083,
            0.0012915357947349548,
            -0.0905243530869484,
            0.06864174455404282,
            -0.20143558084964752,
            -0.11762045323848724,
            0.02366120181977749,
            0.06557261198759079,
            0.06243417412042618,
            -0.02883525937795639,
            -0.09121659398078918,
            0.03775351122021675,
            0.03485383838415146,
            0.10287120193243027,
            -0.01976785622537136,
            0.10109484940767288,
            -0.11001139134168625,
            0.13874587416648865,
            0.08796577155590057,
            0.07383241504430771,
            -0.07049796730279922,
            0.023999789729714394,
            -0.16498638689517975,
            -0.08846981078386307,
            0.17173567414283752,
            0.11325063556432724,
            -0.14080305397510529,
            -0.14103059470653534,
            -0.02852921560406685,
            0.07602966576814651,
            0.059051137417554855,
            0.055732838809490204,
            -0.08283979445695877,
            0.09507432579994202,
            -0.05726638063788414,
            -0.026292292401194572,
            -0.09225310385227203,
            0.16920629143714905,
            -0.17245596647262573,
            0.1619558185338974,
            -0.03191230818629265,
            -0.11949918419122696,
            -0.01976231299340725,
            0.19945542514324188,
            0.187344491481781,
            0.09878971427679062,
            0.07035951316356659,
            -0.13548259437084198,
            0.07677146792411804,
            -0.043096695095300674,
            0.10712859779596329,
            0.17159999907016754,
            0.15093737840652466,
            0.13693790137767792,
            -0.09302904456853867,
            0.12839369475841522,
            0.025983335450291634,
            -0.06750677525997162,
            0.1351994276046753,
            0.12460155785083771,
            0.12401506304740906,
            0.026493171229958534,
            0.025658639147877693,
            -0.16253425180912018,
            -0.11779509484767914,
            0.12875519692897797,
            0.01869690790772438,
            -0.05465284362435341,
            0.08580861985683441,
            -0.014950794167816639,
            -0.08042773604393005,
            -0.13551774621009827,
            0.03226684033870697,
            0.08761066943407059,
            -0.1152433529496193,
            0.020043393597006798,
            -0.0448479987680912,
            0.09796935319900513,
            0.10325519740581512,
            -0.09844538569450378,
            -0.11582484096288681,
            -0.029146060347557068,
            -0.11297206580638885,
            -0.1780000776052475,
            -0.11143607646226883,
            0.03696528822183609,
            0.26183879375457764,
            0.0925242006778717,
            -0.06535564363002777,
            0.15435026586055756,
            0.2627491354942322,
            0.03069513849914074,
            -0.16605399549007416,
            -0.10240043699741364,
            0.2020757645368576,
            0.1695200502872467,
            -0.1567864716053009,
            -0.2220383584499359,
            -0.1509970724582672,
            -0.01712741330265999,
            0.09521328657865524,
            -0.09348244220018387,
            -0.12887702882289886,
            -0.06368539482355118,
            -0.1196896880865097,
            -0.042031776160001755,
            0.14469560980796814,
            0.005200961139053106,
            -0.1265188306570053,
            0.13421334326267242,
            0.174297496676445,
            -0.008093888871371746,
            -0.1802966147661209,
            0.15769152343273163,
            0.16078585386276245,
            0.037665192037820816,
            -0.14034293591976166,
            -0.011019202880561352,
            0.06194914132356644,
            0.24557647109031677,
            -0.055293165147304535,
            -0.09643477201461792,
            -0.08165868371725082,
            0.1539555788040161,
            0.10867428779602051,
            0.14798639714717865,
            -0.036468733102083206,
            0.12947195768356323,
            -0.09395889192819595,
            -0.030671464279294014,
            -0.20383480191230774,
            0.11081235110759735,
            0.08106962591409683,
            -0.2348065972328186,
            -0.08846058696508408,
            0.3313360810279846,
            0.15446960926055908,
            -0.31272566318511963,
            -0.09402008354663849,
            0.4021642208099365,
            0.23256610333919525,
            -0.20070777833461761,
            -0.17130416631698608,
            0.25296899676322937,
            0.17424613237380981,
            -0.12021414190530777,
            -0.16134589910507202,
            -0.1838885396718979,
            0.21201254427433014,
            0.315332293510437,
            -0.20786690711975098,
            -0.19942758977413177,
            -0.2260076254606247,
            0.07167447358369827,
            0.16038306057453156,
            0.029020018875598907,
            -0.03574080392718315,
            -0.15641170740127563,
            0.05915571749210358,
            0.08756123483181,
            0.02784271351993084,
            0.03102712146937847,
            -0.05930015444755554,
            -0.03697734698653221,
            0.17143681645393372,
            -0.001402463996782899,
            -0.0754859521985054,
            0.019793983548879623,
            0.009119591675698757,
            0.04599237069487572,
            0.07261491566896439,
            -0.05983273312449455,
            0.08218193054199219,
            -0.184054434299469,
            -0.14371468126773834,
            0.19579821825027466,
            -0.10716022551059723,
            -0.026851890608668327,
            -0.12442901730537415,
            0.12406409531831741,
            -0.06316088140010834,
            -0.060290150344371796,
            0.11097424477338791,
            -0.06445181369781494,
            0.16659031808376312,
            0.0929691344499588,
            -0.18264779448509216,
            -0.11453711986541748,
            0.12898366153240204,
            0.09440701454877853,
            0.12256835401058197,
            -0.0696021169424057,
            -0.11977671831846237,
            -0.08505629748106003,
            0.05851145461201668,
            -0.14435867965221405,
            0.08212482184171677,
            0.08030461519956589,
            0.07388190925121307,
            -0.12350280582904816,
            -0.029742546379566193,
            -0.05034181848168373,
            -0.037231456488370895,
            -0.11270570755004883,
            -0.05107898265123367,
            0.020262012258172035,
            -0.13109436631202698,
            0.023815631866455078,
            -0.19014902412891388,
            -0.05650763586163521,
            -0.038898538798093796,
            -0.06641621887683868,
            0.10827994346618652,
            -0.08536072820425034,
            0.0419645681977272,
            0.013083230704069138,
            0.14781831204891205,
            0.059406351298093796,
            0.13073164224624634,
            0.09969093650579453,
            -0.023024510592222214,
            0.09883400052785873,
            -0.22505195438861847,
            0.014253506436944008,
            0.1664011925458908,
            0.11550106108188629,
            0.1171305924654007,
            -0.03936108946800232,
            -0.056605707854032516,
            -0.05252772942185402,
            0.08811630308628082,
            0.11936920881271362,
            0.023898815736174583,
            -0.12158221006393433,
            -0.16015371680259705,
            -0.1842430680990219,
            0.03997819125652313,
            -0.21416833996772766,
            0.031591303646564484,
            0.12752848863601685,
            0.06746078282594681,
            -0.13085685670375824,
            -0.3049667179584503,
            -0.10509530454874039,
            -0.0013960847863927484,
            0.15929114818572998,
            0.2145197093486786,
            -0.2331877052783966,
            -0.09112713485956192,
            0.11180607974529266,
            0.1745230257511139,
            0.07011743634939194,
            -0.1670249104499817,
            0.11526278406381607,
            -0.10929817706346512,
            -0.1474897265434265,
            -0.015564016997814178,
            0.13665394484996796,
            0.07226600497961044,
            0.14553943276405334,
            -0.11014201492071152,
            -0.04067841172218323,
            0.07876170426607132,
            0.17465084791183472,
            0.051210347563028336,
            0.12635482847690582,
            0.18262305855751038,
            -0.08704067766666412,
            0.21420256793498993,
            0.05231631547212601,
            0.173113152384758,
            -0.0006680341903120279,
            0.02735384926199913,
            0.20357224345207214,
            0.10627605766057968,
            0.08679581433534622,
            0.007026942912489176,
            0.06604700535535812,
            0.22212503850460052,
            0.15149112045764923,
            -0.07869582623243332,
            0.12978172302246094,
            0.01936882548034191,
            0.06317497044801712,
            0.08037221431732178,
            0.060845859348773956,
            0.09064279496669769,
            -0.14985574781894684,
            0.10839693248271942,
            0.07437531650066376,
            -0.030809037387371063,
            0.2058405727148056,
            0.018185190856456757,
            0.2376202642917633,
            0.1854257881641388,
            0.06790881603956223,
            0.11397580057382584,
            -0.094996877014637,
            0.1290883719921112,
            0.05298043042421341,
            -0.1559257060289383,
            0.032172299921512604,
            -0.25730061531066895,
            0.1319705992937088,
            -0.0072108423337340355,
            0.08389557898044586,
            -0.013339975848793983,
            -0.14272145926952362,
            -0.0008685580105520785,
            0.011195308528840542,
            -0.14347359538078308,
            0.12857265770435333,
            -0.0525357760488987,
            0.047138430178165436,
            -0.0028368106577545404,
            -0.11168575286865234,
            -0.029352204874157906,
            -0.10981685668230057,
            -0.036894846707582474,
            -0.1755094826221466,
            0.08761988580226898,
            0.03045545145869255,
            0.09032043814659119,
            0.01060668658465147,
            -0.016856599599123,
            0.02135130949318409,
            0.2056659758090973,
            -0.1799691766500473,
            -0.17996153235435486,
            0.051691316068172455,
            0.047327060252428055,
            -0.09742175042629242,
            -0.1104191318154335,
            0.05346145108342171,
            0.16772982478141785,
            0.10642503201961517,
            0.0037010235246270895,
            -0.03562657907605171,
            0.1411788910627365,
            0.19737261533737183,
            0.20035569369792938,
            0.16682815551757813,
            0.08287003636360168,
            -0.05562102794647217,
            0.03174881264567375,
            -0.0959789901971817,
            -0.0081118643283844,
            0.1464315503835678,
            -0.021422533318400383,
            0.1361647993326187,
            0.17876221239566803,
            -0.10315950959920883,
            -0.024249913170933723,
            0.09793366491794586,
            0.09892017394304276,
            0.1625010222196579,
            -0.07873360812664032,
            0.10187997668981552,
            0.18580041825771332,
            -0.025201473385095596,
            -0.014925750903785229,
            0.05111868679523468,
            0.019374961033463478,
            0.05581069737672806,
            -0.06865053623914719,
            -0.012097638100385666,
            -0.08709286153316498,
            0.0486750565469265,
            0.1245565265417099,
            -0.1028328463435173,
            -0.0206861924380064,
            0.020304609090089798,
            -0.16743548214435577,
            -0.08430618047714233,
            -0.08937323093414307,
            0.03647981956601143,
            -0.0668008103966713,
            0.023531338199973106,
            -0.008472609333693981,
            -0.143605574965477,
            0.012050509452819824,
            -0.05245792493224144,
            -0.10130255669355392,
            -0.15576495230197906,
            -0.005140931345522404,
            -0.07489384710788727,
            0.16910606622695923,
            0.050377897918224335,
            0.08660305291414261,
            0.13233894109725952,
            0.23887419700622559,
            -0.17866046726703644,
            -0.011243389919400215,
            -0.07335443794727325,
            0.10477777570486069,
            0.1639617383480072,
            0.11616864800453186,
            -0.14769746363162994,
            -0.1767544448375702,
            0.1832464188337326,
            0.06159038841724396,
            0.0798204243183136,
            0.05474628508090973,
            -0.08563604205846786,
            -0.05940646678209305,
            0.20142991840839386,
            -0.21446216106414795,
            0.1513267457485199,
            0.04669004678726196,
            0.13442015647888184,
            0.1474672257900238,
            -0.18698951601982117,
            -0.07182125747203827,
            -0.14608825743198395,
            -0.020147066563367844,
            0.0564906969666481,
            -0.22696954011917114,
            -0.14170101284980774,
            -0.11523239314556122,
            0.3020707666873932,
            -0.15817704796791077,
            -0.22512787580490112,
            -0.1870671510696411,
            -0.043035589158535004,
            0.15980561077594757,
            0.12221622467041016,
            -0.21988125145435333,
            0.008630713447928429,
            -0.15262377262115479,
            0.045352548360824585,
            -0.029961131513118744,
            -0.043951936066150665,
            -0.0711749866604805,
            -0.08132053166627884,
            0.3345234990119934,
            0.11554881185293198,
            -0.27952951192855835,
            -0.1781594455242157,
            -0.11625026911497116,
            0.33087483048439026,
            0.20013447105884552,
            -0.3540418744087219,
            0.13060611486434937,
            -0.28892073035240173,
            0.34222689270973206,
            0.07625347375869751,
            -0.2572494149208069,
            -0.062014415860176086,
            -0.1895446479320526,
            0.44010889530181885,
            0.14818714559078217,
            -0.33274057507514954,
            -0.26545095443725586,
            0.062260691076517105,
            0.3551104664802551,
            0.11418250948190689,
            -0.055744484066963196,
            0.17850136756896973,
            -0.06920532137155533,
            0.08025161176919937,
            -0.10161663591861725,
            0.09057735651731491,
            -0.09802302718162537,
            0.041751421988010406,
            -0.15234123170375824,
            -0.1795080602169037,
            -0.1532118320465088,
            -0.07793188095092773,
            -0.11037047952413559,
            0.004728785250335932,
            -0.24870896339416504,
            0.09340950846672058,
            0.16290810704231262,
            -0.1810913234949112,
            0.09652193635702133,
            -0.057194679975509644,
            -0.07494676113128662,
            0.024638406932353973,
            -0.13368315994739532,
            0.008154122158885002,
            0.00010805064084706828,
            0.12879011034965515,
            0.17080184817314148,
            0.004608158487826586,
            0.02560628578066826,
            0.05151287466287613,
            -0.14877048134803772,
            -0.08230867981910706,
            0.03472922742366791,
            0.029322506859898567,
            -0.19035230576992035,
            0.12255587428808212,
            -0.06481929868459702,
            -0.1088191568851471,
            0.026262111961841583,
            -0.07327443361282349,
            -0.11859899759292603,
            0.045373108237981796,
            0.03075050562620163,
            -0.04677382856607437,
            -0.13691389560699463,
            0.06404131650924683,
            -0.07175511866807938,
            -0.10453125834465027,
            0.08899395912885666,
            -0.09517963975667953,
            0.08226973563432693,
            -0.18962930142879486,
            0.1243155300617218,
            0.1302625685930252,
            0.03149324655532837,
            -0.06390181183815002,
            0.04757797345519066,
            0.024150097742676735,
            0.15119151771068573,
            -0.08696189522743225,
            -0.08364211022853851,
            -0.14559248089790344,
            0.026487259194254875,
            0.15897336602210999,
            0.02871430478990078,
            -0.001465811743400991,
            0.15312577784061432,
            0.1903504580259323,
            0.08219276368618011,
            -0.08307304978370667,
            -0.0683913603425026,
            -0.14818790555000305,
            -0.17629659175872803,
            -0.2016455978155136,
            -0.02377796545624733,
            -0.08204302191734314,
            0.07075993716716766,
            0.14399020373821259,
            0.09064816683530807,
            0.03532326966524124,
            -0.18680784106254578,
            -0.08960369229316711,
            0.05611293017864227,
            0.22994475066661835,
            -0.17054612934589386,
            -0.2023770660161972,
            -0.030203696340322495,
            0.15574173629283905,
            0.06519999355077744,
            -0.20820336043834686,
            0.12236906588077545,
            0.18340030312538147,
            -0.09801451861858368,
            -0.04352334886789322,
            0.04571143165230751,
            0.08208398520946503,
            -0.17717783153057098,
            0.00849648006260395,
            0.0579017736017704,
            0.06849014759063721,
            0.15043887495994568,
            -0.1360405683517456,
            0.1553725004196167,
            0.2016587108373642,
            -0.1653502881526947,
            -0.0708441436290741,
            -0.0634034052491188,
            0.15659072995185852,
            -0.1396566927433014,
            0.06450234353542328,
            -0.07054150104522705,
            -0.09673026949167252,
            0.16876459121704102,
            0.08711731433868408,
            -0.1538514941930771,
            0.19380193948745728,
            0.127511128783226,
            -0.06892117857933044,
            0.06669020652770996,
            -0.011526621878147125,
            -0.012441745959222317,
            0.048349469900131226,
            -0.07263993471860886,
            0.036467161029577255,
            -0.12940746545791626,
            -0.14659352600574493,
            -0.04813142493367195,
            -0.012927054427564144,
            0.2088935673236847,
            -0.17611536383628845,
            0.1278247982263565,
            0.10006078332662582,
            0.029162557795643806,
            0.15326876938343048,
            -0.0822281688451767,
            -0.08639958500862122,
            0.26405468583106995,
            0.17485100030899048,
            -0.17269918322563171,
            -0.2646331489086151,
            -0.008655969053506851,
            0.01057581976056099,
            -0.13425636291503906,
            -0.09096688777208328,
            -0.17304880917072296,
            -0.06940057128667831,
            -0.03699894994497299,
            -0.2331458181142807,
            0.008046960458159447,
            -0.15496927499771118,
            -0.008062371984124184,
            -0.1405770629644394,
            0.11345631629228592,
            0.1015772894024849,
            0.06791761517524719,
            0.14546962082386017,
            0.14850443601608276,
            -0.15468400716781616,
            -0.15257105231285095,
            0.029398633167147636,
            -0.11549130827188492,
            0.15766136348247528,
            -0.12257163971662521,
            -0.002602068241685629,
            0.058164216578006744,
            0.04627978801727295,
            0.09044057875871658,
            0.053083062171936035,
            -0.004846308380365372,
            0.12177199125289917,
            0.01967119425535202,
            0.17198732495307922,
            -0.08364291489124298,
            0.1098371371626854,
            -0.0493234246969223,
            -0.04654744267463684,
            -0.1388607770204544,
            0.13065314292907715,
            -0.03941693529486656,
            0.07792451977729797,
            0.15886075794696808,
            0.14789752662181854,
            0.13462693989276886,
            0.07332596927881241,
            0.04712815210223198,
            0.007299019955098629,
            0.05373857542872429,
            0.0012023571180179715,
            0.03077465482056141,
            0.0707675889134407,
            -0.17142660915851593,
            0.0955682322382927,
            0.04199274629354477,
            -0.12399651110172272,
            -0.12615808844566345,
            -0.11492748558521271,
            0.10374905169010162,
            0.12990182638168335,
            0.08835771679878235,
            -0.11882549524307251,
            0.05845198407769203,
            -0.10316414386034012,
            -0.17077603936195374,
            0.13541708886623383,
            -0.12710492312908173,
            0.018619602546095848,
            -0.13535892963409424,
            -0.13728275895118713,
            -0.07504469156265259,
            0.07025345414876938,
            0.17141850292682648,
            -0.14700351655483246,
            -0.009952126070857048,
            0.10125073045492172,
            0.14795629680156708,
            -0.14587542414665222,
            -0.05828900262713432,
            0.04266816005110741,
            0.05881786718964577,
            0.12832161784172058,
            -0.10407886654138565,
            0.12321978062391281,
            0.07148929685354233,
            0.12430480122566223,
            0.1213570162653923,
            0.116977259516716,
            -0.26093554496765137,
            0.0004126958956476301,
            0.10988950729370117,
            0.1393820196390152,
            0.08768723905086517,
            -0.13133782148361206,
            -0.11353099346160889,
            0.21181243658065796,
            -0.12662874162197113,
            -0.17625264823436737,
            0.013246261514723301,
            0.07564130425453186,
            -0.005047558341175318,
            0.0037862155586481094,
            -0.19331173598766327,
            0.06907627731561661,
            0.23124781250953674,
            0.03297227621078491,
            -0.19051462411880493,
            0.09983913600444794,
            0.15968279540538788,
            -0.016312388703227043,
            -0.09398019313812256,
            -0.10279544442892075,
            -0.10960374772548676,
            0.025979463011026382,
            -0.10513012111186981,
            0.17300890386104584,
            -0.04008742421865463,
            0.11551016569137573,
            0.09583301097154617,
            0.04153752699494362,
            -0.009593461640179157,
            -0.10316508263349533,
            -0.11283013224601746,
            -0.045122504234313965,
            0.06905893236398697,
            -0.08712419122457504,
            -0.147413432598114,
            0.10352804511785507,
            0.014288002625107765,
            -0.01175309531390667,
            -0.1322096884250641,
            0.12574869394302368,
            -0.12026753276586533,
            -0.09746070951223373,
            -0.1337893158197403,
            -0.2067377120256424,
            0.13013462722301483,
            -0.08462376147508621,
            0.007904444821178913,
            0.13234423100948334,
            0.1725231409072876,
            -0.10873647779226303,
            -0.20911096036434174,
            0.19069916009902954,
            0.2579534947872162,
            -0.08251452445983887,
            0.05079994350671768,
            -0.17327909171581268,
            0.3331274688243866,
            0.158949613571167,
            0.04710531607270241,
            -0.10031422972679138,
            0.10345718264579773,
            0.3121005892753601,
            0.14711694419384003,
            -0.10276402533054352,
            -0.1709517240524292,
            0.13983678817749023,
            -0.08495710790157318,
            0.020150233060121536,
            -0.17785358428955078,
            -0.1382242739200592,
            -0.0008493108907714486,
            -0.01605234108865261,
            0.05613193288445473,
            0.07088644802570343,
            -0.0183121170848608,
            0.017751241102814674,
            -0.17724056541919708,
            -0.09117651730775833,
            -0.120813749730587,
            0.0784607082605362,
            -0.021973060443997383,
            -0.10680244863033295,
            0.04421204701066017,
            -0.09633620828390121,
            -0.0559505932033062,
            -0.006610738579183817,
            -0.029772138223052025,
            -0.041808873414993286,
            -0.15761837363243103,
            -0.1639712005853653,
            0.09573134034872055,
            0.1667727828025818,
            0.2048639953136444,
            0.012215152382850647,
            -0.09405963122844696,
            -0.12964440882205963,
            -0.05912685766816139,
            -0.009474213235080242,
            0.13141828775405884,
            0.054563913494348526,
            0.09825063496828079,
            -0.026562413200736046,
            -0.12303465604782104,
            -0.03880937770009041,
            -0.15297144651412964,
            0.03729238361120224,
            0.18508043885231018,
            -0.1571875512599945,
            0.12183970212936401,
            -0.12445133924484253,
            0.1114865243434906,
            -0.07038499414920807,
            -0.04960131645202637,
            -0.026341691613197327,
            0.002962428145110607,
            0.0810132697224617,
            0.1665842980146408,
            0.16538105905056,
            -0.16129626333713531,
            -0.19263572990894318,
            -0.17890064418315887,
            0.19497478008270264,
            0.1631329357624054,
            -0.20698747038841248,
            -0.07368311285972595,
            -0.1449267566204071,
            -0.06089134141802788,
            0.18957141041755676,
            0.06238894537091255,
            -0.21131916344165802,
            -0.07214730978012085,
            -0.05924031138420105,
            0.07059209793806076,
            0.11517641693353653,
            0.0965898185968399,
            -0.048773158341646194,
            -0.16508255898952484,
            0.13910773396492004,
            0.15208551287651062,
            -0.12538522481918335,
            0.13915938138961792,
            -0.05082760006189346,
            -0.0523068830370903,
            0.011449718847870827,
            0.21614232659339905,
            0.1642886847257614,
            -0.1556852012872696,
            0.20366036891937256,
            0.2064368724822998,
            -0.09981010854244232,
            0.07292711734771729,
            0.1108238622546196,
            -0.1490289568901062,
            0.20816944539546967,
            0.26533108949661255,
            -0.06133916601538658,
            -0.2359820157289505,
            -0.17729677259922028,
            -0.010593988932669163,
            0.17372281849384308,
            -0.09388410300016403,
            0.052371710538864136,
            -0.24325816333293915,
            0.11188288033008575,
            0.021003644913434982,
            0.15608693659305573,
            -0.12912487983703613,
            -0.07033960521221161,
            0.013279912993311882,
            0.15377752482891083,
            0.054408639669418335,
            0.09031155705451965,
            0.020613139495253563,
            -0.18530914187431335,
            0.14228592813014984,
            -0.08293824642896652,
            0.1420278251171112,
            -0.12795045971870422,
            -0.08077241480350494,
            0.04856124892830849,
            -0.12080083787441254,
            -0.13081641495227814,
            0.11101528257131577,
            0.0006381162093020976,
            -0.23929601907730103,
            0.0414617694914341,
            0.10270588845014572,
            -0.17056499421596527,
            0.185092493891716,
            -0.18151609599590302,
            0.01795128919184208,
            -0.15850067138671875,
            0.14753031730651855,
            0.07058311998844147,
            0.0943710058927536,
            -0.10853415727615356,
            0.08642014861106873,
            0.02514934353530407,
            0.16937659680843353,
            -0.19075553119182587,
            -0.29099178314208984,
            -0.055006615817546844,
            0.26670143008232117,
            0.20877866446971893,
            -0.06764472275972366,
            -0.030573993921279907,
            0.010376017540693283,
            0.06390919536352158,
            0.4885979890823364,
            -0.06367857754230499,
            -0.20034009218215942,
            -0.25917157530784607,
            -0.08096569031476974,
            0.37296271324157715,
            0.08139925450086594,
            -0.0901959240436554,
            -0.0981079488992691,
            -0.10542085021734238,
            -0.000959873606916517,
            0.016699865460395813,
            0.058263178914785385,
            -0.17839597165584564,
            0.035211287438869476,
            -0.0037789272610098124,
            0.02506224997341633,
            0.0037975532468408346,
            0.13311488926410675,
            -0.14515990018844604,
            -0.01038692332804203,
            0.01681084930896759,
            -0.02216276153922081,
            0.08646737039089203,
            -0.16459228098392487,
            -0.1337018758058548,
            -0.12257421016693115,
            0.03026498295366764,
            -0.12596237659454346,
            -0.13908502459526062,
            -0.24924689531326294,
            -0.18753410875797272,
            -0.04744044318795204,
            -0.10066305100917816,
            -0.0725860521197319,
            0.06524946540594101,
            -0.14507201313972473,
            -0.1695822775363922,
            -0.13071857392787933,
            0.09953804314136505,
            0.010399523191154003,
            -0.019274182617664337,
            -0.11334709078073502,
            -0.11341758072376251,
            -0.0007462506764568388,
            0.12742045521736145,
            0.09539435803890228,
            -0.11508932709693909,
            -0.04766472801566124,
            0.07215342670679092,
            -0.01534485537558794,
            -0.163929745554924,
            -0.01754377968609333,
            0.14270511269569397,
            0.11245905607938766,
            0.01291927881538868,
            -0.1131555587053299,
            -0.11403714120388031,
            -0.08304493129253387,
            -0.0336226262152195,
            -0.0401042103767395,
            -0.07434459030628204,
            0.04726952314376831,
            0.1642310470342636,
            0.008628353476524353,
            0.16395550966262817,
            0.05024740844964981,
            0.054389916360378265,
            0.1991012841463089,
            0.12139670550823212,
            -0.024059217423200607,
            0.019113196060061455,
            -0.06983776390552521,
            0.061413682997226715,
            0.10821036994457245,
            0.1434406191110611,
            -0.00690475245937705,
            -0.004290766082704067,
            -0.14466628432273865,
            0.17893582582473755,
            -0.06323722749948502,
            -0.0002820465015247464,
            -0.18542920053005219,
            0.0931759774684906,
            0.006813513580709696,
            0.16097693145275116,
            -0.021998407319188118,
            0.12130963057279587,
            -0.1122070774435997,
            0.08643697202205658,
            -0.06938312947750092,
            0.09474256634712219,
            -0.1602049618959427,
            0.09859240800142288,
            -0.006303675938397646,
            0.0598594956099987,
            0.14326722919940948,
            -0.1914658397436142,
            -0.14990738034248352,
            0.10300908982753754,
            0.18595954775810242,
            -0.005908312276005745,
            -0.10606258362531662,
            -0.12480144202709198,
            -0.1306285709142685,
            -0.17728419601917267,
            -0.1462915539741516,
            0.14810767769813538,
            0.021568162366747856,
            -0.12237957864999771,
            0.047924794256687164,
            0.18544714152812958,
            0.18851400911808014,
            0.08463408797979355,
            0.08371229469776154,
            -0.04946340247988701,
            0.0589018277823925,
            -0.15062537789344788,
            -0.15194998681545258,
            0.1082303375005722,
            0.138014018535614,
            -0.10238618403673172,
            -0.04852495715022087,
            0.13259027898311615,
            -0.11989723891019821,
            0.12931512296199799,
            -0.044201262295246124,
            0.21034219861030579,
            0.16950128972530365,
            0.022429347038269043,
            0.07093937695026398,
            0.17004062235355377,
            -0.09222717583179474,
            -0.17878134548664093,
            -0.13309641182422638,
            -0.0702567994594574,
            -0.14688491821289063,
            -0.06418784707784653,
            -0.1405751258134842,
            0.07383571565151215,
            0.07400257140398026,
            0.14025036990642548,
            -0.029095128178596497,
            -0.08962390571832657,
            0.018662111833691597,
            0.005633345805108547,
            -0.013875750824809074,
            -0.2435995191335678,
            -0.038147855550050735,
            0.08920052647590637,
            0.14954765141010284,
            -0.12673057615756989,
            0.22485493123531342,
            -0.14544126391410828,
            -0.1195676401257515,
            -0.15279939770698547,
            -0.10901232808828354,
            0.15561369061470032,
            -0.18308858573436737,
            -0.17735666036605835,
            -0.12769553065299988,
            0.18682269752025604,
            0.2938470244407654,
            -0.09473628550767899,
            0.1090025082230568,
            -0.12205911427736282,
            0.020362431183457375,
            0.12975449860095978,
            -0.03635613992810249,
            0.03722942993044853,
            -0.012858000583946705,
            0.18076129257678986,
            -0.018755976110696793,
            -0.17596478760242462,
            -0.12087731063365936,
            0.11705956608057022,
            -0.015565472654998302,
            0.1143094003200531,
            0.12207852303981781,
            0.12168093025684357,
            -0.03718592971563339,
            0.07927249372005463,
            -0.12183597683906555,
            -0.037542011588811874,
            0.15624740719795227,
            -0.06232960894703865,
            0.006085545755922794,
            -0.16340361535549164,
            0.15073218941688538,
            0.032414380460977554,
            -0.12533614039421082,
            -0.1675456464290619,
            -0.06882025301456451,
            -0.1433919370174408,
            -0.05719907954335213,
            -0.14630867540836334,
            -0.09584298729896545,
            0.1644587218761444,
            0.14424830675125122,
            0.06246691197156906,
            -0.0013646065490320325,
            -0.03568512946367264,
            0.05208991840481758,
            0.10693945735692978,
            -0.04277801513671875,
            0.07709281891584396,
            0.02879909612238407,
            0.1035468727350235,
            -0.013922091573476791,
            -0.05109970644116402,
            0.018949463963508606,
            0.13054415583610535,
            -0.15600541234016418,
            0.06648755073547363,
            -0.120992012321949,
            -0.19485419988632202,
            -0.15967746078968048,
            0.104876808822155,
            -0.1920134574174881,
            0.15384012460708618,
            -0.07058112323284149,
            -0.11020439118146896,
            -0.17481635510921478,
            0.036877553910017014,
            -0.088407002389431,
            -0.040293432772159576,
            0.12123657763004303,
            0.05362691357731819,
            -0.08971897512674332,
            0.06366042047739029,
            -0.10758770257234573,
            0.10630691796541214,
            -0.13532625138759613,
            0.09563297778367996,
            0.020409507676959038,
            -0.0466860830783844,
            -0.02760351076722145,
            -0.16358761489391327,
            -0.18458807468414307,
            0.13901369273662567,
            0.015447054989635944,
            0.10559377074241638,
            0.11048863083124161,
            -0.031441494822502136,
            -0.02980686165392399,
            0.22030022740364075,
            0.04382949694991112,
            0.0033377651125192642,
            0.06461174041032791,
            0.057516876608133316,
            -0.009334258735179901,
            -0.1697535514831543,
            0.12122092396020889,
            -0.036546770483255386,
            0.054396722465753555,
            -0.1801844835281372,
            0.08782967180013657,
            -0.0733528807759285,
            0.013437561690807343,
            -0.1755804866552353,
            -0.17895513772964478,
            0.08685570955276489,
            0.08136871457099915,
            -0.18255360424518585,
            0.031657710671424866,
            -0.05054768919944763,
            -0.020555371418595314,
            -0.1909150332212448,
            -0.016998503357172012,
            0.055250030010938644,
            0.17163687944412231,
            0.1463959962129593,
            -0.06930873543024063,
            0.08699820190668106,
            -0.021054212003946304,
            0.04189645126461983,
            0.05580263212323189,
            0.16106873750686646,
            -0.14051233232021332,
            -0.016979195177555084,
            -0.007901418022811413,
            -0.020881831645965576,
            -0.030192168429493904,
            -0.09072359651327133,
            0.16567596793174744,
            -0.16150249540805817,
            -0.08760089427232742,
            0.0962076187133789,
            -0.053186219185590744,
            0.176798477768898,
            0.17357785999774933,
            0.05155564844608307,
            0.04369749501347542,
            0.03131275996565819,
            0.09814827889204025,
            -0.05545680969953537,
            0.20197060704231262,
            0.22851218283176422,
            -0.09722934663295746,
            0.0054199183359742165,
            0.012463969178497791,
            -0.14211022853851318,
            -0.06255742162466049,
            0.11844119429588318,
            0.16956812143325806,
            0.03447818011045456,
            -0.08256536722183228,
            0.010653975419700146,
            0.0004527358687482774,
            0.033078763633966446,
            0.18161922693252563,
            -0.2147471010684967,
            -0.206013023853302,
            -0.029112981632351875,
            -0.06884439289569855,
            0.17546911537647247,
            0.015897421166300774,
            0.05458202213048935,
            0.07128817588090897,
            0.16480298340320587,
            -0.021482709795236588,
            0.011654111556708813,
            -0.003201006446033716,
            -0.15106083452701569,
            -0.15522845089435577,
            -0.18680676817893982,
            -0.09591458737850189,
            -0.1764063537120819,
            -0.1852462738752365,
            -0.029128987342119217,
            -0.06277372688055038,
            0.009083230048418045,
            0.048900287598371506,
            0.03493187576532364,
            -0.07106158882379532,
            -0.02291399985551834,
            -0.11594881862401962,
            0.1066458448767662,
            -0.16829532384872437,
            0.0968174859881401,
            -0.058106545358896255,
            -0.16021864116191864,
            0.12678520381450653,
            -0.05645298957824707,
            -0.013292460702359676,
            -0.1407572478055954,
            -0.05938876420259476,
            0.19897739589214325,
            0.087621308863163,
            -0.1778557449579239,
            0.16291232407093048,
            -0.11631809175014496,
            0.020180007442831993,
            -0.009742445312440395,
            -0.06985806673765182,
            0.06466095894575119,
            0.008180384524166584,
            0.04326825961470604,
            0.08359475433826447,
            0.01490738894790411,
            -0.1536809355020523,
            -0.13487029075622559,
            -0.1396673619747162,
            0.11073525249958038,
            0.11033929884433746,
            -0.006849074736237526,
            -0.10696027427911758,
            0.16336995363235474,
            -0.026937294751405716,
            0.011990698985755444,
            0.18837964534759521,
            0.13333407044410706,
            0.008855831809341908,
            0.06765790283679962,
            0.26031699776649475,
            0.2359471619129181,
            0.18203917145729065,
            -0.008104480803012848,
            0.11305943876504898,
            -0.02032126858830452,
            -0.0650373175740242,
            0.10881698876619339,
            0.07309197634458542,
            0.1346951276063919,
            -0.1083422601222992,
            -0.21603770554065704,
            0.012677278369665146,
            0.11061740666627884,
            0.07637916505336761,
            0.03154327720403671,
            0.04705170914530754,
            0.18111629784107208,
            0.09821614623069763,
            0.042271945625543594,
            0.0867428258061409,
            0.033490460366010666,
            0.30068567395210266,
            0.175502747297287,
            -0.09254201501607895,
            -0.08958480507135391,
            0.1486297994852066,
            0.1384463906288147,
            0.11520157754421234,
            -0.11810935288667679,
            -0.055153459310531616,
            0.04803670570254326,
            -0.20833063125610352,
            -0.13682973384857178,
            -0.1809977889060974,
            0.13717755675315857,
            0.07032472640275955,
            -0.02881881222128868,
            0.03986166790127754,
            -0.030377550050616264,
            -0.040916308760643005,
            0.17545373737812042,
            -0.028920531272888184,
            0.1611848622560501,
            0.11105069518089294,
            0.15939092636108398,
            -0.12232386320829391,
            -0.166263610124588,
            0.047226931899785995,
            0.08040105551481247,
            -0.002088655950501561,
            -0.1813507080078125,
            -0.22227999567985535,
            0.009150505997240543,
            0.11699938774108887,
            -0.10149915516376495,
            0.11076536774635315,
            0.10446062684059143,
            -0.12175572663545609,
            0.0622144490480423,
            -0.14002852141857147,
            0.07443135976791382,
            -0.02523779310286045,
            -0.15129268169403076,
            0.22593268752098083,
            0.11757310479879379,
            0.2798299193382263,
            0.14415784180164337,
            0.22911229729652405,
            0.11824752390384674,
            0.1957373023033142,
            -0.0606984868645668,
            0.08525741100311279,
            -0.10614623874425888,
            -0.20071052014827728,
            -0.1743963360786438,
            -0.24983754754066467,
            -0.1227451041340828,
            -0.07691241055727005,
            0.030941268429160118,
            -0.23369744420051575,
            0.08906570076942444,
            0.1124788224697113,
            -0.1811361163854599,
            0.004600863438099623,
            0.12321294099092484,
            -0.0643867552280426,
            -0.07469683885574341,
            -0.01191102433949709,
            -0.02308371476829052,
            0.17612324655056,
            0.03347675874829292,
            -0.1530049741268158,
            -0.049396827816963196,
            0.05734970048069954,
            0.16007646918296814,
            0.13162854313850403,
            0.06008431687951088,
            -0.023683972656726837,
            0.05923740938305855,
            -0.09123270213603973,
            -0.08798695355653763,
            0.15665072202682495,
            0.08831319212913513,
            -0.08898691833019257,
            0.14268721640110016,
            0.16207396984100342,
            -0.08364056795835495,
            -0.15466557443141937,
            -0.0984218642115593,
            -0.18665939569473267,
            -0.1504582315683365,
            -0.13963830471038818,
            0.14103570580482483,
            -0.10232537239789963,
            0.09387855976819992,
            0.09648745507001877,
            0.003879187861457467,
            0.18894784152507782,
            -0.11160877346992493,
            0.14064408838748932,
            0.17133153975009918,
            0.09383022785186768,
            0.16745442152023315,
            -0.06965659558773041,
            -0.022113937884569168,
            0.14897969365119934,
            -0.10108273476362228,
            -0.14384452998638153,
            -0.0777464285492897,
            0.15958181023597717,
            -0.06227998435497284,
            -0.01792198047041893,
            0.06110530346632004,
            0.1681482493877411,
            0.06604193150997162,
            -0.0006821019924245775,
            0.11650946736335754,
            0.14913342893123627,
            0.03144925460219383,
            -0.1913258135318756,
            0.13596351444721222,
            0.07889023423194885,
            -0.10620662569999695,
            0.1402691751718521,
            0.18764619529247284,
            0.2015783190727234,
            0.05701783671975136,
            -0.04556377977132797,
            0.14458388090133667,
            0.10416502505540848,
            -0.06732957065105438,
            0.1358485221862793,
            -0.042032841593027115,
            -0.17754878103733063,
            -0.2008015513420105,
            0.0494571328163147,
            0.10601813346147537,
            -0.09945180267095566,
            0.14337769150733948,
            -0.1365332007408142,
            -0.17930108308792114,
            -0.13196712732315063,
            0.11275753378868103,
            0.10397648811340332,
            -0.1326541304588318,
            0.037463877350091934,
            0.07159746438264847,
            0.2164991796016693,
            -0.10811439156532288,
            0.1917552351951599,
            0.272674024105072,
            -0.07915490865707397,
            -0.024152761325240135,
            -0.14304272830486298,
            0.14378812909126282,
            -0.11265680938959122,
            -0.34975379705429077,
            -0.16400499641895294,
            0.0619448758661747,
            0.05808021500706673,
            -0.2443685233592987,
            0.09199768304824829,
            0.0665176510810852,
            0.01386190578341484,
            0.21224874258041382,
            0.22856709361076355,
            0.11997485905885696,
            0.3185235857963562,
            -0.17781277000904083,
            -0.05286480113863945,
            -0.03714754804968834,
            -0.0919906422495842,
            -0.04708118364214897,
            0.1153419092297554,
            -0.18865884840488434,
            -0.016705607995390892,
            -0.15812090039253235,
            -0.09958766400814056,
            -0.05603059008717537,
            -0.09115661680698395,
            -0.18842525780200958,
            -0.08212148398160934,
            0.03356385976076126,
            0.09863869845867157,
            0.019243985414505005,
            0.056515488773584366,
            -0.018879974260926247,
            0.09575119614601135,
            -0.16532611846923828,
            -0.11459419876337051,
            0.0586458221077919,
            -0.08180710673332214,
            0.19875900447368622,
            -0.13260304927825928,
            0.16931770741939545,
            0.35533562302589417,
            0.2727777063846588,
            0.16099993884563446,
            0.13301518559455872,
            0.18409495055675507,
            -0.05645475164055824,
            -0.24097849428653717,
            -0.3213898241519928,
            -0.006655801087617874,
            -0.3266594409942627,
            -0.4192976951599121,
            -0.3992345631122589,
            -0.20820321142673492,
            -0.08764290809631348,
            -0.07197597622871399,
            0.0132502606138587,
            0.12070044130086899,
            -0.03497738763689995,
            -0.03815826401114464,
            0.1528531014919281,
            0.2858184576034546,
            0.32397353649139404,
            0.29941853880882263,
            -0.08252844214439392,
            0.17757096886634827,
            0.14323876798152924,
            0.11885102093219757,
            -0.11531101912260056,
            0.08718877285718918,
            0.13752686977386475,
            0.1216832771897316,
            0.15449325740337372,
            0.14507995545864105,
            0.08627578616142273,
            0.08676636964082718,
            0.12583960592746735,
            0.2688957154750824,
            0.1542484611272812,
            0.06121169775724411,
            0.10162370651960373,
            0.1870972365140915,
            0.1541711390018463,
            0.14178907871246338,
            -0.1520063728094101,
            -0.0726705864071846,
            0.019061526283621788,
            0.12335731834173203,
            -0.18336696922779083,
            0.06698242574930191,
            -0.08450721949338913,
            0.04926997050642967,
            -0.029383638873696327,
            -0.13898949325084686,
            -0.05525604635477066,
            0.07316289842128754,
            -0.16767814755439758,
            -0.08326408267021179,
            0.019920626655220985,
            -0.12541848421096802,
            -0.15499821305274963,
            -0.028649181127548218,
            0.1767587810754776,
            0.15721172094345093,
            -0.13385161757469177,
            0.07891454547643661,
            0.062430489808321,
            0.1622321754693985,
            0.08747170120477676,
            -0.07107078284025192,
            0.016513794660568237,
            -0.04219292849302292,
            -0.12505237758159637,
            -0.07894328981637955,
            -0.11285839229822159,
            -0.10053856670856476,
            0.0024501229636371136,
            0.06795955449342728,
            -0.172247976064682,
            0.04411950334906578,
            -0.002373110270127654,
            -0.10773120075464249,
            -0.18458057940006256,
            0.08944621682167053,
            -0.018131226301193237,
            0.04296303912997246,
            0.008411463350057602,
            -0.07826637476682663,
            0.05772845074534416,
            -0.14168009161949158,
            0.0850750133395195,
            0.1489836424589157,
            -0.029267100617289543,
            -0.007858295924961567,
            0.08706742525100708,
            0.10106002539396286,
            -0.07484766095876694,
            -0.06731067597866058,
            0.007633267901837826,
            0.1143265888094902,
            0.05073412507772446,
            0.18587592244148254,
            -0.17679941654205322,
            0.007705905940383673,
            -0.12736192345619202,
            -0.02695179171860218,
            0.24164025485515594,
            0.06384073197841644,
            -0.23310427367687225,
            -0.23508097231388092,
            -0.034039679914712906,
            0.08981252461671829,
            -0.08971458673477173,
            -0.05143522098660469,
            -0.11199168115854263,
            0.09169657528400421,
            -0.12022072076797485,
            -0.1352924257516861,
            -0.05199703946709633,
            0.06411591917276382,
            -0.12867581844329834,
            0.1498086303472519,
            0.16164357960224152,
            0.14927224814891815,
            -0.00951629038900137,
            0.05475395917892456,
            -0.04651027172803879,
            0.007296373602002859,
            0.10079149156808853,
            0.13022920489311218,
            0.030964002013206482,
            -0.0784565731883049,
            0.039346881210803986,
            0.016864830628037453,
            -0.18261316418647766,
            0.22719860076904297,
            0.10161028057336807,
            0.13530167937278748,
            0.11102809756994247,
            0.15690816938877106,
            -0.12068948149681091,
            -0.1762830913066864,
            -0.0012256160844117403,
            -0.024216659367084503,
            0.01491018570959568,
            0.16790395975112915,
            -0.18017545342445374,
            0.013708040118217468,
            0.15407562255859375,
            -0.032142575830221176,
            0.06771541386842728,
            -0.15770262479782104,
            -0.2396012395620346,
            -0.18838472664356232,
            0.11662779748439789,
            0.19227436184883118,
            0.08073690533638,
            -0.2744894325733185,
            -0.2203393578529358,
            -0.049214377999305725,
            0.3921130895614624,
            0.06059522181749344,
            0.025173891335725784,
            0.09316377341747284,
            -0.23020100593566895,
            0.28616562485694885,
            0.16443103551864624,
            0.19315016269683838,
            0.18655847012996674,
            -0.10540653765201569,
            0.1886507272720337,
            0.15600593388080597,
            0.038727644830942154,
            -0.027714792639017105,
            -0.14849072694778442,
            0.18387380242347717,
            -0.11037924885749817,
            -0.13771584630012512,
            0.030077645555138588,
            -0.1369217187166214,
            -0.037429485470056534,
            0.1420472264289856,
            -0.10654744505882263,
            0.025125442072749138,
            -0.1406952142715454,
            -0.20874866843223572,
            -0.2056192308664322,
            0.10351002961397171,
            -0.11623886972665787,
            -0.13689059019088745,
            -0.14047777652740479,
            -0.15629787743091583,
            0.061914004385471344,
            -0.1644773632287979,
            0.11797013878822327,
            0.04552176967263222,
            0.11664312332868576,
            0.03131658583879471,
            0.0616137832403183,
            0.04556109383702278,
            0.17854070663452148,
            -0.025642240419983864,
            -0.06602822989225388,
            -0.04627159610390663,
            0.0850326344370842,
            -0.014659294858574867,
            -0.05415578931570053,
            -0.2057032287120819,
            0.04295070469379425,
            0.16000504791736603,
            -0.1214485615491867,
            -0.18198704719543457,
            0.15947194397449493,
            -0.013704024255275726,
            0.026085425168275833,
            -0.17791588604450226,
            -0.029904551804065704,
            0.0714164525270462,
            0.1531328409910202,
            0.03258569911122322,
            0.09629404544830322,
            -0.13766109943389893,
            0.10634422302246094,
            0.0029303196351975203,
            -0.0974898636341095,
            0.08962596207857132,
            -0.09083530306816101,
            -0.18867261707782745,
            -0.11851216852664948,
            0.1604790836572647,
            0.09619015455245972,
            -0.10715565085411072,
            -0.11535374820232391,
            -0.2103453129529953,
            0.10309706628322601,
            -0.08569135516881943,
            -0.029513025656342506,
            0.08235717564821243,
            -0.2175867259502411,
            -0.08405536413192749,
            0.2665567994117737,
            -0.10441762953996658,
            -0.24305135011672974,
            0.05350767448544502,
            0.023303335532546043,
            0.13678297400474548,
            0.18604300916194916,
            -0.19680486619472504,
            -0.0836975947022438,
            0.14486472308635712,
            0.1169145256280899,
            -0.10898739844560623,
            0.1053861677646637,
            -0.07799439132213593,
            0.16020213067531586,
            -0.022090189158916473,
            -0.05197985842823982,
            0.08513663709163666,
            -0.23297330737113953,
            0.05474943295121193,
            0.20342597365379333,
            0.2881351113319397,
            0.050941482186317444,
            -0.2798518240451813,
            0.07886536419391632,
            -0.1032685711979866,
            0.021376430988311768,
            -0.00940291304141283,
            -0.18550369143486023,
            -0.2151636779308319,
            0.007660502102226019,
            0.0011899153469130397,
            -0.0007325493497774005,
            -0.0012821507407352328,
            -0.12723764777183533,
            -0.11067946255207062,
            -0.06680646538734436,
            -0.21024155616760254,
            -0.05047411844134331,
            0.17949916422367096,
            0.19032888114452362,
            -0.19521938264369965,
            -0.2466793805360794,
            0.16218547523021698,
            0.030555112287402153,
            0.20511819422245026,
            -0.11720545589923859,
            0.02908502332866192,
            0.15478108823299408,
            -0.12348395586013794,
            -0.007683035917580128,
            0.033766645938158035,
            -0.18794599175453186,
            0.2124880850315094,
            0.04735792055726051,
            -0.021320566534996033,
            -0.12475188821554184,
            0.06755193322896957,
            0.06444977968931198,
            -0.008760507218539715,
            -0.1075822189450264,
            -0.23792670667171478,
            -0.150769904255867,
            -0.0289923045784235,
            0.237577423453331,
            0.25147661566734314,
            0.08348771184682846,
            -0.39098694920539856,
            -0.0419447161257267,
            -0.11292725056409836,
            0.44176921248435974,
            0.21609443426132202,
            -0.3585608899593353,
            -0.180624321103096,
            -0.16548483073711395,
            0.3721296191215515,
            0.33906129002571106,
            -0.211359441280365,
            -0.03298953175544739,
            -0.11413997411727905,
            0.41984260082244873,
            0.3058106601238251,
            -0.27252188324928284,
            -0.1678762286901474,
            0.06379108130931854,
            0.11130230873823166,
            -0.1468096226453781,
            0.07809128612279892,
            0.07296621799468994,
            0.08313881605863571,
            -0.1451302319765091,
            0.0498691126704216,
            0.0568232387304306,
            0.08924957364797592,
            -0.046307697892189026,
            -0.02110886201262474,
            -0.11325287818908691,
            -0.1661897450685501,
            0.056792646646499634,
            0.21512414515018463,
            -0.13009366393089294,
            -0.04809493571519852,
            -0.00784774124622345,
            -0.05086567997932434,
            0.05204164981842041,
            -0.21771031618118286,
            -0.17450378835201263,
            0.016184266656637192,
            0.03426479920744896,
            0.03909454494714737,
            0.18287742137908936,
            -0.07880300283432007,
            -0.10347561538219452,
            -0.1456315517425537,
            -0.018296336755156517,
            0.17760823667049408,
            0.13592292368412018,
            -0.05132106691598892,
            0.05686309561133385,
            0.018991123884916306,
            -0.10933314263820648,
            0.10072503238916397,
            -0.08815709501504898,
            0.15548889338970184,
            -0.026895785704255104,
            0.06715286523103714,
            -0.09102763235569,
            0.048160288482904434,
            0.09168040007352829,
            0.16036556661128998,
            0.08629626780748367,
            0.15829026699066162,
            0.014405832625925541,
            -0.06193501502275467,
            -0.07060667872428894,
            -0.14094267785549164,
            -0.06590253114700317,
            -0.05200638994574547,
            0.007914932444691658,
            0.10740344226360321,
            0.1437174677848816,
            0.01892523467540741,
            -0.12376593798398972,
            -0.13293114304542542,
            0.013046842999756336,
            -0.036811914294958115,
            -0.13016487658023834,
            0.045613422989845276,
            -0.19138751924037933,
            0.06729798763990402,
            -0.1734144240617752,
            -0.10646920651197433,
            0.07518232613801956,
            -0.004298338666558266,
            -0.1766587644815445,
            -0.1924538016319275,
            -0.1514107882976532,
            -0.014962728135287762,
            0.1260032057762146,
            0.13759355247020721,
            -0.06517636030912399,
            0.01548294723033905,
            0.17127731442451477,
            0.11713927239179611,
            0.07720056176185608,
            -0.17882274091243744,
            0.16693024337291718,
            -0.09703318029642105,
            0.01676386035978794,
            -0.07600794732570648,
            0.1223798617720604,
            -0.005532207898795605,
            0.20774929225444794,
            -0.1408063769340515,
            0.009029780514538288,
            0.05487601086497307,
            0.04105178639292717,
            0.08525921404361725,
            -0.11046374589204788,
            0.017246486619114876,
            0.02811412699520588,
            -0.10411377996206284,
            0.07996159791946411,
            -0.1181148812174797,
            0.07814336568117142,
            0.10650305449962616,
            -0.09665574133396149,
            0.13384146988391876,
            -0.14122219383716583,
            0.1308191418647766,
            0.07920293509960175,
            0.05275476723909378,
            -0.008995437063276768,
            -0.021397294476628304,
            -0.07013357430696487,
            -0.07719840854406357,
            0.11433661729097366,
            -0.10149852186441422,
            -0.12577968835830688,
            -0.11350033432245255,
            0.07213345915079117,
            -0.14115561544895172,
            0.018696285784244537,
            0.013958909548819065,
            -0.10413528978824615,
            -0.13197872042655945,
            -0.1384277045726776,
            0.09316351264715195,
            0.1374204158782959,
            -0.08068571239709854,
            -0.09742118418216705,
            0.05184942111372948,
            0.10226304829120636,
            -0.22808322310447693,
            -0.07165589928627014,
            -0.10112471133470535,
            0.24654154479503632,
            0.17290562391281128,
            -0.1844911128282547,
            -0.24181009829044342,
            0.05205422639846802,
            0.22394457459449768,
            0.09795523434877396,
            0.17878998816013336,
            -0.07734876126050949,
            0.14825531840324402,
            -0.11669193208217621,
            0.24534903466701508,
            0.22939620912075043,
            0.0029841759242117405,
            -0.11731846630573273,
            0.01906689442694187,
            0.07496514916419983,
            0.15048854053020477,
            -0.10106881707906723,
            0.10916072875261307,
            0.15170837938785553,
            -0.05627713352441788,
            -0.027642367407679558,
            0.11701525002717972,
            0.11348599195480347,
            0.10727139562368393,
            -0.1445065587759018,
            -0.1357005089521408,
            0.1292802095413208,
            0.09079960733652115,
            -0.000863054592628032,
            -0.013451994396746159,
            -0.11910084635019302,
            0.057585787028074265,
            0.027084801346063614,
            0.1394202709197998,
            -0.06518717855215073,
            -0.1877090036869049,
            0.14385037124156952,
            0.08789004385471344,
            0.13018563389778137,
            -0.18295088410377502,
            0.05573948100209236,
            0.12578624486923218,
            -0.019526129588484764,
            0.1456129401922226,
            -0.004051689524203539,
            -0.18503622710704803,
            0.022342044860124588,
            0.08781389892101288,
            0.11983335018157959,
            -0.024992546066641808,
            -0.1744811236858368,
            -0.08919467031955719,
            -0.09734834730625153,
            0.08967515081167221,
            0.15827074646949768,
            -0.08211898058652878,
            0.17893646657466888,
            0.06702793389558792,
            0.16772180795669556,
            -0.010303317569196224,
            -0.08661508560180664,
            -0.0648319199681282,
            -0.14915214478969574,
            0.1226041316986084,
            -0.10216519236564636,
            0.003986342344433069,
            0.12811192870140076,
            -0.1826196163892746,
            -0.15291810035705566,
            0.04436064139008522,
            -0.16417594254016876,
            0.12966062128543854,
            0.0012701191008090973,
            -0.01810884103178978,
            0.09151484817266464,
            -0.11106143146753311,
            0.03931225463747978,
            -0.01355802919715643,
            0.17781095206737518,
            0.022874759510159492,
            0.18585215508937836,
            0.16103442013263702,
            0.09430913627147675,
            0.2504192292690277,
            0.09431333839893341,
            0.05129047483205795,
            -0.08498424291610718,
            0.011626027524471283,
            -0.12099882960319519,
            -0.12262605130672455,
            -0.19320496916770935,
            -0.05866794288158417,
            -0.05532859265804291,
            -0.21995824575424194,
            -0.10427054017782211,
            0.12109863013029099,
            0.021134331822395325,
            -0.122506283223629,
            0.21802066266536713,
            0.2563697099685669,
            0.2807393968105316,
            0.1951528787612915,
            0.19077180325984955,
            0.16682995855808258,
            0.13033203780651093,
            0.06975430250167847,
            0.06492356210947037,
            -0.09683579206466675,
            0.1455283761024475,
            -0.10317182540893555,
            -0.07801821827888489,
            0.05278706178069115,
            -0.1185668408870697,
            -0.2602178752422333,
            -0.0575578548014164,
            0.060683295130729675,
            -0.007738692220300436,
            0.1176970899105072,
            -0.028985697776079178,
            0.12433665245771408,
            -0.08970996737480164,
            -0.01342654600739479,
            -0.03160293027758598,
            0.14675921201705933,
            0.061382830142974854,
            0.05909813195466995,
            0.0028799790889024734,
            -0.08782097697257996,
            0.09783921390771866,
            -0.0978555977344513,
            -0.17566342651844025,
            0.0678182914853096,
            -0.09583354741334915,
            0.07283439487218857,
            -0.1361231654882431,
            0.11229382455348969,
            -0.050245873630046844,
            0.12382471561431885,
            0.1433044970035553,
            -0.08292490243911743,
            -0.05044487118721008,
            -0.09363114833831787,
            -0.27369609475135803,
            0.006071967072784901,
            0.027538500726222992,
            0.18816174566745758,
            -0.00752898259088397,
            -0.028624853119254112,
            0.21073025465011597,
            0.30160629749298096,
            0.3062458336353302,
            0.10818064957857132,
            0.08024751394987106,
            -0.02249172329902649,
            -0.05694100260734558,
            0.15018130838871002,
            0.06480007618665695,
            0.1306976079940796,
            -0.23149986565113068,
            -0.19017913937568665,
            -0.14704036712646484,
            -0.16241438686847687,
            -0.25685760378837585,
            -0.14364312589168549,
            -0.3215316832065582,
            -0.08927333354949951,
            -0.04468658193945885,
            -0.027216864749789238,
            -0.028314387425780296,
            -0.017101401463150978,
            0.10132692009210587,
            0.07670152187347412,
            0.14697155356407166,
            0.09662014991044998,
            -0.04052902013063431,
            -0.01975829526782036,
            -0.04241005703806877,
            0.12753626704216003,
            -0.0059609911404550076,
            0.207267165184021,
            0.13329559564590454,
            -0.059502795338630676,
            0.06650133430957794,
            -0.08913358300924301,
            0.021185116842389107,
            -0.1564096212387085,
            -0.16659577190876007,
            -0.1277940422296524,
            0.17212709784507751,
            -0.1435966044664383,
            -0.008136599324643612,
            -0.13434509932994843,
            -0.07639866322278976,
            0.09569103270769119,
            0.11761970818042755,
            -0.05784448981285095,
            -0.1318134367465973,
            -0.09448056668043137,
            0.1071687638759613,
            0.01637745089828968,
            0.03335246443748474,
            -0.019834086298942566,
            -0.09395550191402435,
            -0.028525473549962044,
            -0.11246319860219955,
            0.05098573863506317,
            0.1385178118944168,
            0.05165236443281174,
            0.02257969230413437,
            -0.030031563714146614,
            0.05847102776169777,
            -0.048736799508333206,
            0.08501725643873215,
            -0.07517992705106735,
            0.0007901985663920641,
            -0.1197013258934021,
            -0.05225200951099396,
            0.04492061585187912,
            -0.03202159330248833,
            -0.06816276162862778,
            0.056230269372463226,
            0.13043859601020813,
            0.0389857180416584,
            0.26002222299575806,
            0.08486563712358475,
            -0.09068813920021057,
            -0.12335089594125748,
            0.04443832486867905,
            0.0014162848237901926,
            0.2523100674152374,
            -0.0654335618019104,
            0.14444714784622192,
            -0.08105757087469101,
            -0.05828375741839409,
            -0.0014740428887307644,
            0.09589508920907974,
            -0.14686065912246704,
            -0.0653805062174797,
            -0.09582528471946716,
            0.04296816140413284,
            0.08702567219734192,
            0.1679697334766388,
            -0.1404610425233841,
            0.03689451143145561,
            -0.00706878025084734,
            0.056590400636196136,
            0.07177983969449997,
            0.029974455013871193,
            -0.15734145045280457,
            0.22748702764511108,
            0.218561053276062,
            0.0954873189330101,
            0.06073110178112984,
            -0.12953948974609375,
            0.042071156203746796,
            -0.0052935536950826645,
            0.024174686521291733,
            0.1521676778793335,
            -0.2101057469844818,
            0.10839086771011353,
            0.14364199340343475,
            -0.11790675669908524,
            0.16056597232818604,
            -0.0699487179517746,
            0.01472723949700594,
            -0.09945788234472275,
            0.17545387148857117,
            0.09624246507883072,
            0.10599861294031143,
            -0.09789436310529709,
            -0.05997586250305176,
            -0.05802251771092415,
            -0.15891504287719727,
            -0.03544039651751518,
            0.09673982113599777,
            -0.04198674485087395,
            0.17213237285614014,
            -0.027828387916088104,
            -0.19851133227348328,
            -0.18560031056404114,
            -0.020731685683131218,
            0.1755117028951645,
            0.14803899824619293,
            -0.0951494500041008,
            -0.08889958262443542,
            0.04579714685678482,
            0.08057747781276703,
            0.17618215084075928,
            0.01922214776277542,
            0.06006498262286186,
            0.127557173371315,
            0.0073427422903478146,
            0.18462562561035156,
            0.23070260882377625,
            0.1745717078447342,
            0.022195978090167046,
            -0.18711625039577484,
            -0.029878420755267143,
            -0.06616847962141037,
            0.1315573751926422,
            0.22733967006206512,
            0.01614028960466385,
            -0.2996867597103119,
            -0.2400970309972763,
            -0.1370946168899536,
            0.2334943264722824,
            0.0023447726853191853,
            -0.2004358023405075,
            -0.16419717669487,
            -0.06338763982057571,
            -0.10043610632419586,
            0.1372925490140915,
            0.022472906857728958,
            0.12778639793395996,
            -0.2257470190525055,
            0.06219056248664856,
            0.021015821024775505,
            0.09628240019083023,
            0.04596899822354317,
            -0.17463961243629456,
            -0.04900607839226723,
            0.012364005669951439,
            0.035438135266304016,
            -0.0768732875585556,
            -0.13064172863960266,
            -0.08879110217094421,
            0.15662327408790588,
            -0.06991695612668991,
            0.15632246434688568,
            -0.15822146832942963,
            0.1816103756427765,
            0.16940225660800934,
            0.09377487748861313,
            -0.1864011287689209,
            0.16795040667057037,
            0.1195172518491745,
            0.18698902428150177,
            0.004968482535332441,
            0.12917205691337585,
            -0.08436272293329239,
            0.17768166959285736,
            0.16672037541866302,
            -0.14898979663848877,
            -0.012865984812378883,
            0.14972762763500214,
            -0.12646982073783875,
            -0.12445010989904404,
            -0.03226166591048241,
            0.13903909921646118,
            0.10083384066820145,
            0.008726346306502819,
            -0.0465874969959259,
            -0.0714370533823967,
            -0.16342075169086456,
            0.05735264718532562,
            0.014162677340209484,
            -0.030246194452047348,
            0.02322838082909584,
            0.10175985842943192,
            -0.05491830036044121,
            0.053080055862665176,
            0.12111041694879532,
            -0.06568815559148788,
            -0.030624190345406532,
            0.12502676248550415,
            -0.08872611820697784
        ],
        "kernel_col": 16,
        "kernel_row": 150,
        "kernel_shape": [
            5,
            5,
            6,
            16,
            1,
            1
        ],
        "layer_type": "Conv",
        "pad_shape": [
            0,
            0
        ]
    },
    "layer4": {
        "layer_type": "Pooling",
        "pooling_shape": [
            2,
            2,
            2,
            2
        ]
    },
    "layer5": {
        "activation": 0,
        "bias": [
            0.009195699356496334,
            0.008896022103726864,
            0.012216408737003803,
            0.014593895524740219,
            0.011021962389349937,
            0.008518366143107414,
            0.016043413430452347,
            0.007239177357405424,
            0.009133088402450085,
            0.009696682915091515,
            0.020122043788433075,
            0.01691739819943905,
            0.013729562051594257,
            0.010706732980906963,
            0.00832261610776186,
            0.014762592501938343,
            0.016615135595202446,
            0.009196004830300808,
            0.0040728142485022545,
            0.033011823892593384,
            0.007685780990868807,
            0.009217261336743832,
            0.009470639750361443,
            0.005669931881129742,
            0.01636815443634987,
            0.010082841850817204,
            0.018748192116618156,
            0.005594790447503328,
            0.013186461292207241,
            0.011436600238084793,
            0.011774787679314613,
            0.013289354741573334,
            0.007907314226031303,
            0.018718941137194633,
            0.014734945259988308,
            0.007596356328576803,
            0.009267090819776058,
            0.02458651177585125,
            0.009697063826024532,
            0.005891046486794949,
            0.02621721476316452,
            0.027932852506637573,
            0.006005458999425173,
            0.014376387000083923,
            0.010385489091277122,
            0.014169150963425636,
            0.011653320863842964,
            -0.006488317158073187,
            0.012304073199629784,
            0.011623883619904518,
            0.008083227090537548,
            0.017104873433709145,
            0.005358352791517973,
            0.019490592181682587,
            0.016813451424241066,
            0.009998067282140255,
            0.016869451850652695,
            0.007587390020489693,
            0.010686819441616535,
            0.018627136945724487,
            -0.009266001172363758,
            0.019589105620980263,
            0.008802300319075584,
            0.02533070743083954,
            0.004318651743233204,
            0.011485997587442398,
            0.00522206025198102,
            0.0061673070304095745,
            0.014999324455857277,
            0.004390947986394167,
            0.0019478867761790752,
            0.007279966026544571,
            0.01435703132301569,
            0.006732103880494833,
            0.03235611692070961,
            0.012581738643348217,
            0.02318151667714119,
            0.01256140973418951,
            0.022403987124562263,
            0.008093331940472126,
            0.012089595198631287,
            0.008285140618681908,
            0.007265883032232523,
            0.011046093888580799,
            0.010012905113399029,
            0.009256783872842789,
            0.010349606163799763,
            0.017022723332047462,
            0.018267525359988213,
            0.005790297407656908,
            0.01349361427128315,
            0.008272981271147728,
            0.009825128130614758,
            0.009230850264430046,
            0.01926388591527939,
            0.00883549079298973,
            0.010497121140360832,
            0.008387191221117973,
            0.028061410412192345,
            0.009496979415416718,
            0.010728462599217892,
            0.00586192961782217,
            0.0074034580029547215,
            0.00808825995773077,
            0.01689480058848858,
            0.01184419821947813,
            0.014409499242901802,
            0.01765313185751438,
            0.0163608118891716,
            0.02015109173953533,
            0.01883898675441742,
            0.005401582457125187,
            0.008870975114405155,
            0.008046776987612247,
            0.02392127364873886,
            0.0172441303730011,
            0.02588159404695034,
            0.016278931871056557,
            0.019401520490646362,
            0.01657581701874733
        ],
        "layer_type": "Dense",
        "output_size": 120,
        "weight": [
            0.0029472874011844397,
            -0.0123546551913023,
            0.0028845875058323145,
            -0.00020640443835873157,
            0.004975687246769667,
            0.00670142937451601,
            -0.00523518119007349,
            0.006414483301341534,
            0.003695467486977577,
            0.006286075804382563,
            -0.03008158691227436,
            0.030614154413342476,
            -0.010568437166512012,
            0.016803935170173645,
            -0.013224875554442406,
            -0.010900448076426983,
            0.006236797198653221,
            -0.0013896540040150285,
            -0.009207074530422688,
            0.016420241445302963,
            0.004041022155433893,
            0.008598309010267258,
            0.0007331534870900214,
            0.01590096391737461,
            0.00622186716645956,
            0.009295926429331303,
            0.006265673320740461,
            -0.007439897395670414,
            -0.0008719474426470697,
            0.013557459227740765,
            0.012284696102142334,
            0.011753550730645657,
            0.0020063293632119894,
            0.031096991151571274,
            -0.006646349560469389,
            0.0167964156717062,
            -3.4789572964655235e-05,
            0.013928161934018135,
            0.009021454490721226,
            -0.02626718394458294,
            0.002266008872538805,
            0.008011285215616226,
            -0.020103735849261284,
            -0.015033837407827377,
            -0.007293380331248045,
            -0.005374964792281389,
            -0.021751683205366135,
            0.003690136829391122,
            -0.004033348988741636,
            0.025477707386016846,
            0.0237831249833107,
            0.0018138129962608218,
            -0.00859469547867775,
            -0.04557650908827782,
            0.004400196485221386,
            0.007126096170395613,
            0.0033410864416509867,
            -0.006546264514327049,
            -0.003963938448578119,
            0.015687404200434685,
            0.0159840639680624,
            -0.027127781882882118,
            -0.03863612562417984,
            -0.003794820047914982,
            -0.016568321734666824,
            0.013188364915549755,
            0.010952536948025227,
            0.014174479991197586,
            0.0002862159162759781,
            -0.000693208712618798,
            0.01719266176223755,
            -0.01752714440226555,
            0.019361065700650215,
            0.036837853491306305,
            0.027249526232481003,
            -0.019918013364076614,
            0.0003675227635540068,
            0.004352340940386057,
            0.010065710172057152,
            -0.0069213742390275,
            -0.012544792145490646,
            -0.01264467928558588,
            0.01429838314652443,
            0.023222666233778,
            -0.01110393088310957,
            -0.013573010452091694,
            -0.0331546850502491,
            -0.013654335401952267,
            0.005674256943166256,
            0.011914999224245548,
            -0.02527206763625145,
            -0.0014029147569090128,
            -0.011714535765349865,
            -0.008520182222127914,
            -0.0035839893389493227,
            0.012682532891631126,
            0.002409079810604453,
            0.015418863855302334,
            -0.021582739427685738,
            0.016994116827845573,
            0.0414636991918087,
            -0.015274250879883766,
            -0.019424960017204285,
            0.007097963709384203,
            0.0009918886935338378,
            -0.0016100513748824596,
            -0.030772455036640167,
            0.00418170727789402,
            -0.017949024215340614,
            0.014835706911981106,
            0.016219576820731163,
            -0.012630238197743893,
            0.012415210716426373,
            0.00930018164217472,
            0.013293171301484108,
            -0.014544771052896976,
            0.0012498613214120269,
            -0.02749866619706154,
            -0.009053089655935764,
            -0.03119749389588833,
            0.007352953311055899,
            0.010256271809339523,
            0.006228209938853979,
            0.02687276154756546,
            0.021039679646492004,
            -0.004869285970926285,
            -0.015913672745227814,
            -0.004191380459815264,
            -0.027360912412405014,
            -0.0022609191946685314,
            -0.022518126294016838,
            0.0024406295269727707,
            0.013371406123042107,
            -0.010270855389535427,
            -0.01319825742393732,
            -0.0313800685107708,
            -0.00014187389751896262,
            -0.01681499555706978,
            -0.02031015418469906,
            0.01627809926867485,
            -0.011597665958106518,
            0.009696969762444496,
            0.005743322893977165,
            0.007439400069415569,
            0.0017373935552313924,
            -0.0005489890463650227,
            0.017538994550704956,
            -0.013396292924880981,
            0.004903921391814947,
            0.01997326873242855,
            0.010123083367943764,
            0.014361887238919735,
            0.021237941458821297,
            0.05687246844172478,
            0.01725616864860058,
            -2.319708983122837e-06,
            -0.00011451213504187763,
            0.018231336027383804,
            -0.011283335275948048,
            0.011891026981174946,
            -0.015853138640522957,
            0.009547915309667587,
            0.0009701758972369134,
            0.0024737517815083265,
            -0.005465415306389332,
            0.005552536342293024,
            0.00668899342417717,
            -0.017405519261956215,
            -0.0038807643577456474,
            0.011384577490389347,
            0.0020409428980201483,
            -0.016598951071500778,
            0.0018217972246930003,
            -0.010742598213255405,
            -0.01504313200712204,
            0.011945541948080063,
            0.003833548165857792,
            0.012862327508628368,
            -0.01743255741894245,
            0.020331667736172676,
            0.020538831129670143,
            -0.01816638931632042,
            -0.009848808869719505,
            -0.015711922198534012,
            -0.02046331577003002,
            -0.002980980556458235,
            -0.01653827540576458,
            0.0026800797786563635,
            -0.021645331755280495,
            0.0011939303949475288,
            -0.025934483855962753,
            -0.02359343133866787,
            -0.009956859983503819,
            0.0073279705829918385,
            0.01704721711575985,
            -0.014396066777408123,
            -0.00017643395403865725,
            -0.0026646878104656935,
            0.017738064751029015,
            0.0006659323698841035,
            -0.00962122529745102,
            0.01974942721426487,
            0.005920715630054474,
            -0.010531512089073658,
            0.011121350340545177,
            -0.01940014958381653,
            -0.008690320886671543,
            -0.015999354422092438,
            0.009332045912742615,
            -0.007122560869902372,
            -0.0010956722544506192,
            -0.014126969501376152,
            0.008314642123878002,
            -0.006280773319303989,
            -0.005679578520357609,
            -0.009372305124998093,
            0.012428767047822475,
            -0.00164439354557544,
            -0.022668421268463135,
            -0.004026462323963642,
            0.024436112493276596,
            -0.009931761771440506,
            0.007937302812933922,
            -0.013237410224974155,
            -0.012491957284510136,
            0.026628520339727402,
            0.0055460697039961815,
            -0.016605908051133156,
            -0.003534926101565361,
            0.0036794862244278193,
            0.0065854270942509174,
            0.027267098426818848,
            -4.021561471745372e-05,
            -0.003186544869095087,
            0.007082194089889526,
            0.011505854316055775,
            -0.003738895058631897,
            0.01131287869066,
            -0.00862669013440609,
            0.008409242145717144,
            -0.016894778236746788,
            0.02641076222062111,
            0.0025413327384740114,
            -0.009039437398314476,
            -0.004791526589542627,
            -0.00843081809580326,
            -0.04507644101977348,
            -0.02076900377869606,
            -4.212802741676569e-05,
            0.013720409013330936,
            0.0019514906452968717,
